{"learner":{"attributes":{"best_iteration":"99","best_ntree_limit":"100","scikit_learn":"{\"n_estimators\": 100, \"objective\": \"reg:squarederror\", \"max_depth\": null, \"max_leaves\": null, \"max_bin\": null, \"grow_policy\": null, \"learning_rate\": null, \"verbosity\": null, \"booster\": null, \"tree_method\": null, \"gamma\": null, \"min_child_weight\": null, \"max_delta_step\": null, \"subsample\": null, \"sampling_method\": null, \"colsample_bytree\": null, \"colsample_bylevel\": null, \"colsample_bynode\": null, \"reg_alpha\": null, \"reg_lambda\": null, \"scale_pos_weight\": null, \"base_score\": null, \"missing\": NaN, \"num_parallel_tree\": null, \"random_state\": null, \"n_jobs\": null, \"monotone_constraints\": null, \"interaction_constraints\": null, \"importance_type\": null, \"gpu_id\": null, \"validate_parameters\": null, \"predictor\": null, \"enable_categorical\": false, \"feature_types\": null, \"max_cat_to_onehot\": null, \"max_cat_threshold\": null, \"eval_metric\": null, \"early_stopping_rounds\": null, \"callbacks\": null, \"_estimator_type\": \"regressor\"}"},"feature_names":[],"feature_types":[],"gradient_booster":{"model":{"gbtree_model_param":{"num_parallel_tree":"1","num_trees":"100","size_leaf_vector":"0"},"tree_info":[0,0,0,0,0,0,0,0,0,0,0,0,0,0,0,0,0,0,0,0,0,0,0,0,0,0,0,0,0,0,0,0,0,0,0,0,0,0,0,0,0,0,0,0,0,0,0,0,0,0,0,0,0,0,0,0,0,0,0,0,0,0,0,0,0,0,0,0,0,0,0,0,0,0,0,0,0,0,0,0,0,0,0,0,0,0,0,0,0,0,0,0,0,0,0,0,0,0,0,0],"trees":[{"base_weights":[4.5019755E0,4.501489E0,4.9642105E0,4.502214E0,4.210726E0,5.0411553E0,2.703511E0,4.468862E0,4.5082603E0,4.2598405E0,2.4146507E0,5.0873766E0,1.4818202E0,6.624705E-1,3.4604452E0,4.9622564E0,4.4665327E0,3.9468966E0,4.5087194E0,3.082897E0,4.336239E0,1.4263674E0,3.795996E0,3.6913524E0,5.225711E0,4.435907E-1,2.9282668E0,1.1956677E0,-1.6964364E-1,4.0905383E-1,3.8163033E0,5.6836123E0,4.5156493E0,4.4612327E0,4.6687684E0,4.272427E0,3.1952226E0,4.5018945E0,4.547008E0,2.7714362E0,6.4350624E0,4.2943745E0,6.430066E0,-1.8906308E-2,1.8042175E0,1.0285122E0,4.99418E0,1.1923711E0,4.1970525E0,4.9138613E0,5.9356813E0,7.3283106E-1,-1.8634014E-1,-2.2911136E-1,4.379779E-3,-1.2286325E-1,7.36444E-1,4.080527E0,1.3111583E0,6.363609E0,4.603568E0,4.74713E0,3.2159436E0,4.580373E0,4.451772E0,3.2695754E0,4.7035475E0,3.2551813E0,4.6248455E0,4.01828E0,2.465972E0,4.1274815E0,4.5027304E0,4.438868E0,4.560739E0,4.0535636E0,2.287761E0,3.2824702E0,4.36334E0,7.2087135E0,2.373573E0,2.9141632E-1,-2.0131862E-1,5.4516697E-1,2.1236665E0,-2.5772318E-2,1.8256686E0,1.3354793E0,5.9582424E0,-1.9648413E-1,1.4897907E0,9.6102387E-1,4.598252E0,3.8901985E0,5.1757708E0,2.371077E0,6.133746E0,-4.4815913E-2,-2.346943E-1],"categories":[],"categories_nodes":[],"categories_segments":[],"categories_sizes":[],"default_left":[1,1,1,1,1,1,1,1,1,1,1,1,1,1,1,1,1,1,1,1,1,1,1,1,1,1,0,0,1,1,1,1,1,1,1,1,1,1,1,1,0,1,1,1,1,1,1,1,1,1,1,0,1,0,0,0,0,0,0,0,0,0,0,0,0,0,0,0,0,0,0,0,0,0,0,0,0,0,0,0,0,0,0,0,0,0,0,0,0,0,0,0,0,0,0,0,0,0,0],"id":0,"left_children":[1,3,5,7,9,11,13,15,17,19,21,23,25,27,29,31,33,35,37,39,41,43,45,47,49,51,-1,-1,53,55,57,59,61,63,65,67,69,71,73,75,-1,77,79,81,83,85,87,89,91,93,95,-1,97,-1,-1,-1,-1,-1,-1,-1,-1,-1,-1,-1,-1,-1,-1,-1,-1,-1,-1,-1,-1,-1,-1,-1,-1,-1,-1,-1,-1,-1,-1,-1,-1,-1,-1,-1,-1,-1,-1,-1,-1,-1,-1,-1,-1,-1,-1],"loss_changes":[1.3E2,1.21E2,1.0709375E2,1.16E2,1.3782617E2,1.026875E2,3.6330887E1,9.5625E1,1.28E2,1.3346484E2,5.8748047E1,1.08359375E2,1.3718479E1,3.752285E0,1.7984436E1,1.2671875E2,8.8625E1,1.0135449E2,1.28E2,8.970465E1,1.0658984E2,1.5870911E1,5.7866547E1,7.461096E1,1.034541E2,1.4119658E0,0E0,0E0,4.2398572E-2,6.129151E-1,5.2404785E0,1.00697754E2,7.408789E1,9.1875E1,1.1045703E2,1.0145654E2,7.772241E1,1.31E2,1.06375E2,5.0259155E1,0E0,9.063281E1,7.1329834E1,4.5491418E-1,8.092911E0,5.93006E0,3.789673E1,5.249592E0,6.3092102E1,9.3006836E1,1.1112891E2,0E0,1.0011815E-2,0E0,0E0,0E0,0E0,0E0,0E0,0E0,0E0,0E0,0E0,0E0,0E0,0E0,0E0,0E0,0E0,0E0,0E0,0E0,0E0,0E0,0E0,0E0,0E0,0E0,0E0,0E0,0E0,0E0,0E0,0E0,0E0,0E0,0E0,0E0,0E0,0E0,0E0,0E0,0E0,0E0,0E0,0E0,0E0,0E0,0E0],"parents":[2147483647,0,0,1,1,2,2,3,3,4,4,5,5,6,6,7,7,8,8,9,9,10,10,11,11,12,12,13,13,14,14,15,15,16,16,17,17,18,18,19,19,20,20,21,21,22,22,23,23,24,24,25,25,28,28,29,29,30,30,31,31,32,32,33,33,34,34,35,35,36,36,37,37,38,38,39,39,41,41,42,42,43,43,44,44,45,45,46,46,47,47,48,48,49,49,50,50,52,52],"right_children":[2,4,6,8,10,12,14,16,18,20,22,24,26,28,30,32,34,36,38,40,42,44,46,48,50,52,-1,-1,54,56,58,60,62,64,66,68,70,72,74,76,-1,78,80,82,84,86,88,90,92,94,96,-1,98,-1,-1,-1,-1,-1,-1,-1,-1,-1,-1,-1,-1,-1,-1,-1,-1,-1,-1,-1,-1,-1,-1,-1,-1,-1,-1,-1,-1,-1,-1,-1,-1,-1,-1,-1,-1,-1,-1,-1,-1,-1,-1,-1,-1,-1,-1],"split_conditions":[9.9891846E1,9.9746216E1,9.68533E1,1.5344956E1,9.7431046E1,9.869035E1,2.9344982E1,4.7546875E-1,8.396509E-2,5.4931383E0,6.0267998E1,9.285269E0,8.314309E1,8.370134E1,1.909171E1,3.5281483E1,9.746522E1,6.7025604E1,8.471579E1,9.181564E1,9.860052E1,2.418303E1,3.1248653E1,2.0121487E1,7.024732E1,5.833174E1,8.784801E-1,3.5870034E-1,6.62679E1,2.7227697E1,9.360358E1,6.1932137E1,8.3186005E1,7.3976793E0,2.4081554E0,2.5423302E1,4.305905E1,2.342017E-1,1.1322932E1,2.1476465E1,1.9305187E0,6.3375206E0,8.208017E1,9.979748E1,1.0495123E1,3.305358E1,1.906026E1,1.3486631E1,1.0839879E1,2.2714746E1,8.365435E0,2.1984933E-1,4.6404495E1,-6.873341E-2,1.3139338E-3,-3.6858976E-2,2.2093321E-1,1.224158E0,3.933475E-1,1.9090828E0,1.3810705E0,1.424139E0,9.6478313E-1,1.3741119E0,1.3355317E0,9.8087263E-1,1.4110643E0,9.7655445E-1,1.3874537E0,1.205484E0,7.3979163E-1,1.2382445E0,1.3508191E0,1.3316605E0,1.3682218E0,1.2160691E0,6.863283E-1,9.847411E-1,1.309002E0,2.162614E0,7.1207196E-1,8.74249E-2,-6.0395587E-2,1.635501E-1,6.371E-1,-7.7316957E-3,5.477006E-1,4.006438E-1,1.7874728E0,-5.8945242E-2,4.4693723E-1,2.8830716E-1,1.3794756E0,1.1670595E0,1.5527313E0,7.1132314E-1,1.8401239E0,-1.3444775E-2,-7.040829E-2],"split_indices":[30,19,65,61,7,39,81,50,46,15,73,37,46,14,24,4,70,108,30,16,119,65,81,123,29,28,0,0,1,0,61,72,0,97,97,97,76,1,118,85,0,81,110,19,94,0,79,10,32,107,105,0,0,0,0,0,0,0,0,0,0,0,0,0,0,0,0,0,0,0,0,0,0,0,0,0,0,0,0,0,0,0,0,0,0,0,0,0,0,0,0,0,0,0,0,0,0,0,0],"split_type":[0,0,0,0,0,0,0,0,0,0,0,0,0,0,0,0,0,0,0,0,0,0,0,0,0,0,0,0,0,0,0,0,0,0,0,0,0,0,0,0,0,0,0,0,0,0,0,0,0,0,0,0,0,0,0,0,0,0,0,0,0,0,0,0,0,0,0,0,0,0,0,0,0,0,0,0,0,0,0,0,0,0,0,0,0,0,0,0,0,0,0,0,0,0,0,0,0,0,0],"sum_hessian":[6.7E5,6.69307E5,6.93E2,6.67629E5,1.678E3,6.69E2,2.4E1,1.02572E5,5.65057E5,1.632E3,4.6E1,6.6E2,9E0,7E0,1.7E1,4.72E2,1.021E5,4.69E2,5.64588E5,1.02E2,1.53E3,2.8E1,1.8E1,6.2E1,5.98E2,6E0,3E0,4E0,3E0,2E0,1.5E1,1.76E2,2.96E2,9.9515E4,2.585E3,3.24E2,1.45E2,4.79274E5,8.5314E4,9.5E1,7E0,1.503E3,2.7E1,6E0,2.2E1,6E0,1.2E1,1.1E1,5.1E1,4.21E2,1.77E2,4E0,2E0,2E0,1E0,1E0,1E0,1.3E1,2E0,1.05E2,7.1E1,2.49E2,4.7E1,7.285E3,9.223E4,6.5E1,2.52E3,8.6E1,2.38E2,6.6E1,7.9E1,1.079E3,4.78195E5,9.649E3,7.5665E4,2.4E1,7.1E1,9.9E1,1.404E3,2.2E1,5E0,2E0,4E0,5E0,1.7E1,3E0,3E0,3E0,9E0,2E0,9E0,6E0,4.5E1,8.9E1,3.32E2,1E1,1.67E2,1E0,1E0],"tree_param":{"num_deleted":"0","num_feature":"125","num_nodes":"99","size_leaf_vector":"0"}},{"base_weights":[3.1514475E0,3.2426822E0,3.1494956E0,3.2281742E0,3.8266351E0,3.150443E0,2.9560122E0,5.4760075E-1,3.2308826E0,2.881051E0,4.2843876E0,3.1527493E0,3.0755491E0,2.7526615E0,3.2258346E0,3.1766114E0,-3.7436956E-1,4.7497916E0,3.2258468E0,3.301416E0,-5.7404056E-2,4.3623157E0,-1.0727447E0,1.8713311E0,3.1528637E0,1.8579549E0,3.0817165E0,2.678415E0,3.700254E0,2.1564713E0,3.311639E0,8.2759845E-1,3.6837497E0,-1.0946863E0,8.530111E-1,-3.6645147E-1,5.1426716E0,3.2400975E0,2.723852E0,3.642484E0,5.535551E-1,-9.5503306E-1,2.649834E0,4.5204744E0,2.0632575E0,4.5760405E-1,3.0498633E0,3.1525946E0,3.7312586E0,1.5771841E0,4.9247675E0,3.1642876E0,2.9987092E0,2.6450012E0,4.7395945E0,1.7787596E0,4.1819997E0,2.2691497E-1,2.6651862E0,3.4193006E0,2.4520106E0,5.4870963E-1,-8.544084E-1,1.9608322E-1,5.5384464E0,3.3607826E0,3.1745598E0,1.0645051E0,3.0116005E0,4.588224E0,2.61396E0,-4.1033605E-1,1.0867926E0,-1.2414949E0,3.181843E-1,2.78657E0,4.745814E0,-3.28255E-1,3.1801498E0,3.590678E0,-2.1418652E-1,1.3364903E0,4.9025865E0,3.23434E0,3.150811E0,1.153016E0,3.90842E0,2.5849814E0,8.7764925E-1,2.7094696E0,3.204018E0,2.9173841E0,3.1426487E0,2.4165437E0,2.9010885E0,5.2669168E0,5.2259433E-1,6.2187886E-1,3.5101318E0,2.9408705E0,5.008683E0,-4.150872E-1,2.1151023E0,4.1307883E0,1.8847923E0,3.6561465E0,2.983058E0,3.587593E0,1.653719E0],"categories":[],"categories_nodes":[],"categories_segments":[],"categories_sizes":[],"default_left":[1,1,1,1,1,1,1,1,1,1,1,1,1,1,1,1,1,1,1,1,1,1,0,1,1,1,1,1,1,1,1,0,0,0,0,1,1,1,1,1,1,1,0,1,1,1,1,1,1,1,0,1,1,1,1,1,1,1,1,1,1,0,0,0,0,0,0,0,0,0,0,0,0,0,0,0,0,0,0,0,0,0,0,0,0,0,0,0,0,0,0,0,0,0,0,0,0,0,0,0,0,0,0,0,0,0,0,0,0],"id":1,"left_children":[1,3,5,7,9,11,13,15,17,19,21,23,25,27,29,31,33,35,37,39,41,43,-1,45,47,49,51,53,55,57,59,-1,-1,-1,-1,61,63,65,67,69,71,73,-1,75,77,79,81,83,85,87,-1,89,91,93,95,97,99,101,103,105,107,-1,-1,-1,-1,-1,-1,-1,-1,-1,-1,-1,-1,-1,-1,-1,-1,-1,-1,-1,-1,-1,-1,-1,-1,-1,-1,-1,-1,-1,-1,-1,-1,-1,-1,-1,-1,-1,-1,-1,-1,-1,-1,-1,-1,-1,-1,-1,-1],"loss_changes":[1.095E2,1.0625E2,1.105E2,9.746875E1,1.3222607E2,1.035E2,1.6741211E2,3.7547276E1,8.9109375E1,1.3853467E2,9.777539E1,8.65E1,1.4101562E2,1.1947168E2,1.1902344E2,1.7164307E0,1.1543013E1,8.831732E1,8.8546875E1,8.9829956E1,3.898211E1,7.0668945E1,0E0,9.690561E1,8.7E1,7.920096E1,1.2375E2,1.05166016E2,1.1382434E2,1.02462585E2,1.0924512E2,0E0,0E0,0E0,0E0,2.2550588E0,7.722351E1,9.3984375E1,1.7918945E2,7.2632935E1,6.6137447E0,4.771763E0,0E0,6.687207E1,4.378089E1,5.970262E1,9.502872E1,8.2E1,1.27498535E2,6.4000275E1,0E0,1.6710156E2,1.04546875E2,9.1512695E1,5.506421E1,5.390087E1,9.19762E1,2.8759022E1,8.7145325E1,1.0553711E2,1.2551343E2,0E0,0E0,0E0,0E0,0E0,0E0,0E0,0E0,0E0,0E0,0E0,0E0,0E0,0E0,0E0,0E0,0E0,0E0,0E0,0E0,0E0,0E0,0E0,0E0,0E0,0E0,0E0,0E0,0E0,0E0,0E0,0E0,0E0,0E0,0E0,0E0,0E0,0E0,0E0,0E0,0E0,0E0,0E0,0E0,0E0,0E0,0E0,0E0],"parents":[2147483647,0,0,1,1,2,2,3,3,4,4,5,5,6,6,7,7,8,8,9,9,10,10,11,11,12,12,13,13,14,14,15,15,16,16,17,17,18,18,19,19,20,20,21,21,23,23,24,24,25,25,26,26,27,27,28,28,29,29,30,30,35,35,36,36,37,37,38,38,39,39,40,40,41,41,43,43,44,44,45,45,46,46,47,47,48,48,49,49,51,51,52,52,53,53,54,54,55,55,56,56,57,57,58,58,59,59,60,60],"right_children":[2,4,6,8,10,12,14,16,18,20,22,24,26,28,30,32,34,36,38,40,42,44,-1,46,48,50,52,54,56,58,60,-1,-1,-1,-1,62,64,66,68,70,72,74,-1,76,78,80,82,84,86,88,-1,90,92,94,96,98,100,102,104,106,108,-1,-1,-1,-1,-1,-1,-1,-1,-1,-1,-1,-1,-1,-1,-1,-1,-1,-1,-1,-1,-1,-1,-1,-1,-1,-1,-1,-1,-1,-1,-1,-1,-1,-1,-1,-1,-1,-1,-1,-1,-1,-1,-1,-1,-1,-1,-1,-1],"split_conditions":[2.085701E0,9.755357E1,9.9513985E1,1.0586465E-1,2.7988829E1,9.70224E1,5.66401E1,2.96874E1,2.7852413E-1,8.275867E1,9.8573074E1,9.748884E-3,4.3192363E-1,9.180612E1,7.6936474E0,3.4613743E1,6.990985E1,8.798776E0,9.7504135E1,8.325557E1,9.184598E1,9.256864E1,-3.2182342E-1,4.57343E1,9.946735E1,9.553717E1,5.060443E1,9.8696335E1,2.2617706E1,2.6555115E1,9.00909E1,2.4827954E-1,1.105125E0,-3.284059E-1,2.5590333E-1,3.8023003E1,3.926394E0,3.445775E1,1.6359425E1,4.6759754E1,2.7390045E1,8.160888E1,7.949502E-1,9.784323E0,3.5226257E1,1.7996387E1,7.094738E1,2.095059E0,4.708829E0,3.5347076E1,1.4774303E0,7.7761993E0,6.408403E1,5.0870758E1,8.627192E1,6.8773544E1,3.7785976E1,7.9346405E1,2.6745758E1,6.452278E1,4.023723E1,1.6461289E-1,-2.5632253E-1,5.8824968E-2,1.661534E0,1.0082349E0,9.5236796E-1,3.1935155E-1,9.034802E-1,1.3764672E0,7.8418803E-1,-1.2310082E-1,3.260378E-1,-3.7244847E-1,9.545529E-2,8.3597106E-1,1.4237442E0,-9.847651E-2,9.54045E-1,1.0772034E0,-6.425596E-2,4.009471E-1,1.470776E0,9.7030205E-1,9.452433E-1,3.459048E-1,1.1725261E0,7.7549446E-1,2.632948E-1,8.128409E-1,9.612055E-1,8.752153E-1,9.427946E-1,7.249631E-1,8.703266E-1,1.5800751E0,1.567783E-1,1.8656367E-1,1.0530396E0,8.822612E-1,1.5026051E0,-1.24526165E-1,6.345307E-1,1.2392366E0,5.6543773E-1,1.096844E0,8.949174E-1,1.076278E0,4.961157E-1],"split_indices":[86,42,117,98,38,22,21,50,87,75,24,53,89,0,102,1,70,72,71,88,92,77,0,49,117,39,102,35,110,9,123,0,0,0,0,0,23,0,41,5,75,4,0,2,29,68,93,6,39,64,0,59,90,47,27,23,119,3,29,34,110,0,0,0,0,0,0,0,0,0,0,0,0,0,0,0,0,0,0,0,0,0,0,0,0,0,0,0,0,0,0,0,0,0,0,0,0,0,0,0,0,0,0,0,0,0,0,0,0],"split_type":[0,0,0,0,0,0,0,0,0,0,0,0,0,0,0,0,0,0,0,0,0,0,0,0,0,0,0,0,0,0,0,0,0,0,0,0,0,0,0,0,0,0,0,0,0,0,0,0,0,0,0,0,0,0,0,0,0,0,0,0,0,0,0,0,0,0,0,0,0,0,0,0,0,0,0,0,0,0,0,0,0,0,0,0,0,0,0,0,0,0,0,0,0,0,0,0,0,0,0,0,0,0,0,0,0,0,0,0,0],"sum_hessian":[6.7E5,1.3999E4,6.56001E5,1.3666E4,3.33E2,6.52789E5,3.212E3,1.4E1,1.3652E4,1.11E2,2.22E2,6.33249E5,1.954E4,1.838E3,1.374E3,3E0,1.1E1,4.2E1,1.361E4,9.7E1,1.4E1,2.19E2,3E0,5.8E1,6.33191E5,1E2,1.944E4,1.708E3,1.3E2,1.04E2,1.27E3,1E0,2E0,7E0,4E0,3E0,3.9E1,1.3229E4,3.81E2,8.6E1,1.1E1,1.1E1,3E0,2.04E2,1.5E1,2.7E1,3.1E1,6.32903E5,2.88E2,9.3E1,7E0,9.727E3,9.713E3,1.683E3,2.5E1,2.7E1,1.03E2,2.2E1,8.2E1,1.126E3,1.44E2,1E0,2E0,3E0,3.6E1,4.638E3,8.591E3,5.7E1,3.24E2,4.3E1,4.3E1,4E0,7E0,9E0,2E0,2.5E1,1.79E2,5E0,1E1,4E0,2.3E1,1.7E1,1.4E1,1.3476E4,6.19427E5,1.9E1,2.69E2,3.7E1,5.6E1,7.87E2,8.94E3,6.22E3,3.493E3,8.95E2,7.88E2,2.2E1,3E0,1.7E1,1E1,4.3E1,6E1,1.7E1,5E0,2.7E1,5.5E1,7.25E2,4.01E2,5.8E1,8.6E1],"tree_param":{"num_deleted":"0","num_feature":"125","num_nodes":"109","size_leaf_vector":"0"}},{"base_weights":[2.2060685E0,2.2052412E0,2.3842008E0,2.1604283E0,2.208522E0,2.3498747E0,3.439834E0,2.1615767E0,-3.1405985E-1,1.7080716E0,2.2088425E0,1.192007E0,2.3764033E0,4.430223E0,2.5714085E0,2.3251417E0,2.1453004E0,-1.1816937E0,1.0704882E0,7.867174E-1,1.994553E0,2.2084327E0,2.5984402E0,-1.5095596E-1,1.86677E0,2.3519473E0,3.7074995E0,4.7099304E0,5.255913E-1,4.058974E0,1.6904044E0,2.9524295E0,2.2713706E0,1.428099E0,2.149376E0,-1.4496152E0,1.1506433E0,1.8630089E0,6.387E-2,1.8899927E0,1.2273834E-2,1.0438918E0,2.3208013E0,1.3712041E0,2.2086086E0,2.669326E0,6.4714366E-1,2.2639372E0,-6.0374725E-1,2.9770837E0,6.270181E-1,-9.2434835E-1,2.360272E0,4.811629E0,1.901047E0,-4.4771593E-2,4.961356E0,6.1990047E-1,1.2133193E-1,4.6109395E0,1.5912817E0,2.728002E0,4.313008E-1,3.351307E0,2.3001795E0,2.2849574E0,-1.5830438E-1,1.6915385E0,1.6471268E-1,2.1428723E0,2.5871294E0,-1.8005006E0,-8.91642E-1,2.7587998E-1,-3.9208496E-1,-7.6794815E-1,2.4770696E0,-6.000328E-1,2.409452E0,2.481188E0,3.454627E-1,8.9686924E-1,2.6392243E0,-5.1086193E-1,1.8333031E0,1.4126078E0,2.2087913E0,9.0219253E-1,2.7477353E0,-1.9066735E-1,3.8689592E0,4.1886568E-1,2.739339E0,1.5601692E0,-9.136421E-1,4.14886E0,1.4595689E0,2.363775E0,-4.568373E-1,-1.2011099E0,-6.270925E-2,2.3701816E0,-4.2723662E-1,5.2062674E0,1.7182537E0,-1.9351989E-1,3.4880989E0,1.6416395E-1,-2.3132133E-1,1.4913695E0,5.216173E0,1.7779775E0,4.2224908E-1,3.3368142E0,-3.8924628E-1,-1.9204412E-1,2.5051827E0],"categories":[],"categories_nodes":[],"categories_segments":[],"categories_sizes":[],"default_left":[1,1,1,1,1,1,1,1,1,1,1,1,1,1,1,1,1,1,1,1,1,1,1,1,1,1,1,1,1,1,1,1,1,1,1,1,0,0,1,1,1,1,1,1,1,1,1,1,1,1,1,1,1,1,1,1,1,0,0,0,1,1,1,0,0,0,0,0,0,0,0,0,0,0,0,0,0,0,0,0,0,0,0,0,0,0,0,0,0,0,0,0,0,0,0,0,0,0,0,0,0,0,0,0,0,0,0,0,0,0,0,0,0,0,0,0,0],"id":2,"left_children":[1,3,5,7,9,11,13,15,17,19,21,23,25,27,29,31,33,35,37,39,41,43,45,47,49,51,53,55,57,59,61,63,65,67,69,71,-1,-1,73,75,77,79,81,83,85,87,89,91,93,95,97,99,101,103,105,107,109,-1,-1,-1,111,113,115,-1,-1,-1,-1,-1,-1,-1,-1,-1,-1,-1,-1,-1,-1,-1,-1,-1,-1,-1,-1,-1,-1,-1,-1,-1,-1,-1,-1,-1,-1,-1,-1,-1,-1,-1,-1,-1,-1,-1,-1,-1,-1,-1,-1,-1,-1,-1,-1,-1,-1,-1,-1,-1,-1],"loss_changes":[9.375E1,9.325E1,1.03703125E2,1.3010938E2,9.575E1,8.904297E1,7.0315674E1,1.1621875E2,2.7693163E1,1.0453906E2,9.35E1,6.2808342E1,8.643359E1,4.448706E1,6.25979E1,1.3185547E2,1.17984375E2,1.0416359E1,7.0609007E0,8.285599E1,9.248364E1,8.825E1,8.776514E1,2.7609467E1,6.1452927E1,8.0538086E1,9.257532E1,4.8040405E1,7.728779E-2,1.8542267E1,4.4548912E1,7.580542E1,1.2541016E2,7.8601074E1,1.11703125E2,9.3979836E-1,0E0,0E0,5.915034E-1,6.431888E1,8.657862E1,7.9450806E1,1.0055762E2,1.16606735E2,8.675E1,8.398242E1,6.5520226E1,2.361187E0,1.5507754E1,3.662097E1,4.4374905E1,1.832427E0,8.018262E1,2.889801E1,7.0482925E1,1.5490524E-1,2.5820679E1,0E0,0E0,0E0,3.40518E-1,3.735739E1,2.2457748E1,0E0,0E0,0E0,0E0,0E0,0E0,0E0,0E0,0E0,0E0,0E0,0E0,0E0,0E0,0E0,0E0,0E0,0E0,0E0,0E0,0E0,0E0,0E0,0E0,0E0,0E0,0E0,0E0,0E0,0E0,0E0,0E0,0E0,0E0,0E0,0E0,0E0,0E0,0E0,0E0,0E0,0E0,0E0,0E0,0E0,0E0,0E0,0E0,0E0,0E0,0E0,0E0,0E0,0E0],"parents":[2147483647,0,0,1,1,2,2,3,3,4,4,5,5,6,6,7,7,8,8,9,9,10,10,11,11,12,12,13,13,14,14,15,15,16,16,17,17,18,18,19,19,20,20,21,21,22,22,23,23,24,24,25,25,26,26,27,27,28,28,29,29,30,30,31,31,32,32,33,33,34,34,35,35,38,38,39,39,40,40,41,41,42,42,43,43,44,44,45,45,46,46,47,47,48,48,49,49,50,50,51,51,52,52,53,53,54,54,55,55,56,56,60,60,61,61,62,62],"right_children":[2,4,6,8,10,12,14,16,18,20,22,24,26,28,30,32,34,36,38,40,42,44,46,48,50,52,54,56,58,60,62,64,66,68,70,72,-1,-1,74,76,78,80,82,84,86,88,90,92,94,96,98,100,102,104,106,108,110,-1,-1,-1,112,114,116,-1,-1,-1,-1,-1,-1,-1,-1,-1,-1,-1,-1,-1,-1,-1,-1,-1,-1,-1,-1,-1,-1,-1,-1,-1,-1,-1,-1,-1,-1,-1,-1,-1,-1,-1,-1,-1,-1,-1,-1,-1,-1,-1,-1,-1,-1,-1,-1,-1,-1,-1,-1,-1,-1],"split_conditions":[9.954378E1,6.8370876E0,9.670825E1,9.995967E1,6.46988E-2,2.5840735E0,5.91349E1,9.04467E0,5.916922E1,2.3913301E1,9.9891846E1,4.2821693E1,9.854087E1,8.9226105E1,2.5910564E1,7.962882E0,6.3701797E-1,9.244199E1,1.8998238E1,4.8619408E1,2.6055424E1,1.741241E-2,9.999575E1,9.5051E0,5.026998E1,1.6866496E-1,4.906804E1,7.426309E0,5.0111015E1,6.67879E1,5.1504303E1,5.9627296E1,9.918437E1,8.293536E1,9.8596985E1,7.034185E1,3.4519303E-1,5.589027E-1,7.402587E1,2.572285E1,8.27941E1,2.9166258E1,1.809058E1,1.6484503E1,2.1564603E-2,3.5006433E0,7.738925E1,4.6534092E1,2.7110102E0,9.9824165E1,3.1575262E1,3.4274246E1,9.957176E1,9.07545E1,4.0806625E1,7.8974365E1,7.282E0,1.8597014E-1,3.639958E-2,1.383282E0,8.70365E1,8.018053E1,8.674133E1,1.0053921E0,6.900539E-1,6.854873E-1,-4.7491316E-2,5.0746155E-1,4.9413808E-2,6.428617E-1,7.7613884E-1,-5.401502E-1,-2.674926E-1,8.2764E-2,-1.1762549E-1,-2.3038445E-1,7.431209E-1,-1.8000984E-1,7.228356E-1,7.4435645E-1,1.0363882E-1,2.690608E-1,7.917673E-1,-1.5325859E-1,5.4999095E-1,4.2378235E-1,6.626374E-1,2.7065778E-1,8.243206E-1,-5.7200205E-2,1.1606878E0,1.256597E-1,8.218018E-1,4.6805078E-1,-2.7409264E-1,1.244658E0,4.3787068E-1,7.0913255E-1,-1.370512E-1,-3.6033297E-1,-1.8812776E-2,7.110545E-1,-1.28171E-1,1.5618802E0,5.1547617E-1,-5.805597E-2,1.0464298E0,4.9249187E-2,-6.939641E-2,4.4741085E-1,1.564852E0,5.3339326E-1,1.2667473E-1,1.0010443E0,-1.1677389E-1,-5.761324E-2,7.5155485E-1],"split_indices":[44,121,81,16,79,33,40,114,3,55,30,36,115,102,6,58,75,4,42,71,1,71,30,116,40,82,40,30,0,92,26,74,53,118,31,102,0,0,0,40,42,42,58,122,15,72,13,0,99,44,16,2,20,95,1,0,122,0,0,0,4,107,21,0,0,0,0,0,0,0,0,0,0,0,0,0,0,0,0,0,0,0,0,0,0,0,0,0,0,0,0,0,0,0,0,0,0,0,0,0,0,0,0,0,0,0,0,0,0,0,0,0,0,0,0,0,0],"split_type":[0,0,0,0,0,0,0,0,0,0,0,0,0,0,0,0,0,0,0,0,0,0,0,0,0,0,0,0,0,0,0,0,0,0,0,0,0,0,0,0,0,0,0,0,0,0,0,0,0,0,0,0,0,0,0,0,0,0,0,0,0,0,0,0,0,0,0,0,0,0,0,0,0,0,0,0,0,0,0,0,0,0,0,0,0,0,0,0,0,0,0,0,0,0,0,0,0,0,0,0,0,0,0,0,0,0,0,0,0,0,0,0,0,0,0,0,0],"sum_hessian":[6.7E5,6.66916E5,3.084E3,4.5542E4,6.21374E5,2.99E3,9.4E1,4.5521E4,2.1E1,4.01E2,6.20973E5,6.8E1,2.922E3,4.2E1,5.2E1,4.107E3,4.1414E4,1.3E1,8E0,9.6E1,3.05E2,6.20327E5,6.46E2,2.3E1,4.5E1,2.872E3,5E1,3.9E1,3E0,1.8E1,3.4E1,3.2E2,3.787E3,2.36E2,4.1178E4,1.2E1,1E0,4E0,4E0,3.9E1,5.7E1,7.9E1,2.26E2,1.32E2,6.20195E5,6.23E2,2.3E1,3E0,2E1,2.3E1,2.2E1,7E0,2.865E3,3E1,2E1,2E0,3.7E1,2E0,1E0,1.4E1,4E0,1.8E1,1.6E1,1.96E2,1.24E2,3.766E3,2.1E1,1.95E2,4.1E1,4.0581E4,5.97E2,6E0,6E0,3E0,1E0,7E0,3.2E1,4.6E1,1.1E1,2.5E1,5.4E1,4.2E1,1.84E2,2.6E1,1.06E2,1.44E2,6.20051E5,2.7E1,5.96E2,1.9E1,4E0,1E0,2E0,2E0,1.8E1,1.2E1,1.1E1,8E0,1.4E1,5E0,2E0,2.855E3,1E1,2.6E1,4E0,9E0,1.1E1,1E0,1E0,3E0,3.4E1,3E0,1E0,1.5E1,3E0,1.3E1,3E0],"tree_param":{"num_deleted":"0","num_feature":"125","num_nodes":"117","size_leaf_vector":"0"}},{"base_weights":[1.5442828E0,1.5345731E0,1.5581838E0,1.4999669E0,1.5437E0,1.752504E0,1.5559361E0,1.5025364E0,9.517233E-1,2.2174692E0,1.5430728E0,1.6716963E0,2.2260396E0,1.5554895E0,2.493258E0,8.9361876E-1,1.5048141E0,3.7460604E-1,1.3655827E0,1.5893723E0,2.9375114E0,1.5432947E0,-2.707665E-1,2.2411325E0,1.5940722E0,1.1826587E0,2.4908235E0,1.5513268E0,1.6502321E0,3.8399503E0,1.7909206E0,2.5852158E0,6.459673E-1,1.8404536E0,1.5007912E0,-1.7335184E0,7.158277E-1,1.9692689E0,6.8143106E-1,2.936018E0,9.8177254E-1,-4.0342867E-1,3.098528E0,1.5362949E0,1.5892907E0,-1.2954898E0,2.1428185E0,2.485876E0,9.612753E-1,3.9969206E0,1.5750054E0,2.362815E0,9.686492E-2,1.4514251E0,2.704973E0,1.552288E0,1.1276559E0,1.6306508E0,2.312859E0,4.473605E0,1.8302084E0,9.1933334E-1,3.563518E0,-8.859748E-1,3.121743E0,8.402463E-1,-8.7896574E-1,1.804853E0,4.757451E0,1.5038671E0,1.0562245E0,5.6429535E-1,-2.4031496E0,1.4788673E0,-5.7900923E-1,-5.4067455E-2,2.3542435E0,1.0059574E0,-1.546205E0,1.1272464E0,3.8051772E0,1.4335306E0,-9.795719E-1,-1.7917553E0,1.0857551E0,2.2823653E0,3.8182786E0,1.5836004E0,1.5275959E0,1.4944562E0,1.6215879E0,-1.7049663E0,1.5876105E0,2.8143163E0,9.624395E-2,2.5867255E0,-7.0376354E-1,2.1671987E0,-5.861821E-1,4.5490503E0,1.6515728E0,1.6093826E0,3.9666885E-1,-8.928713E-1,2.7920973E0,2.9389117E0,-5.144514E-1,1.9406163E0,-6.1698747E-1,2.9285507E0,1.63636E0,1.7952162E0,1.5505859E0,5.4204628E-2,1.3043534E0,3.6691132E0,1.6255407E0,2.3843892E0,-1.8994765E0,4.692155E0,7.969039E-1,1.04076184E-1,3.048292E0,1.18971E-1,3.2591314E0,-1.4555743E0,4.0055857E0],"categories":[],"categories_nodes":[],"categories_segments":[],"categories_sizes":[],"default_left":[1,1,1,1,1,1,1,1,1,1,1,1,1,1,1,1,1,1,1,1,1,1,1,1,1,1,1,1,1,1,1,1,1,1,1,1,1,1,1,1,1,1,1,1,1,1,1,1,1,1,1,1,1,1,1,1,1,1,1,1,1,1,1,0,0,0,0,0,0,0,0,0,0,0,0,0,0,0,0,0,0,0,0,0,0,0,0,0,0,0,0,0,0,0,0,0,0,0,0,0,0,0,0,0,0,0,0,0,0,0,0,0,0,0,0,0,0,0,0,0,0,0,0,0,0,0,0],"id":3,"left_children":[1,3,5,7,9,11,13,15,17,19,21,23,25,27,29,31,33,35,37,39,41,43,45,47,49,51,53,55,57,59,61,63,65,67,69,71,73,75,77,79,81,83,85,87,89,91,93,95,97,99,101,103,105,107,109,111,113,115,117,119,121,123,125,-1,-1,-1,-1,-1,-1,-1,-1,-1,-1,-1,-1,-1,-1,-1,-1,-1,-1,-1,-1,-1,-1,-1,-1,-1,-1,-1,-1,-1,-1,-1,-1,-1,-1,-1,-1,-1,-1,-1,-1,-1,-1,-1,-1,-1,-1,-1,-1,-1,-1,-1,-1,-1,-1,-1,-1,-1,-1,-1,-1,-1,-1,-1,-1],"loss_changes":[8.8E1,1.223125E2,1.17625E2,1.14609375E2,1.285E2,1.1650781E2,1.100625E2,1.12375E2,9.192163E1,1.25581055E2,1.259375E2,1.15242676E2,1.22757324E2,1.048125E2,1.14189514E2,1.27359375E2,1.07515625E2,1.1849295E2,9.1586E1,1.2476004E2,7.2796875E1,9.8E1,9.923302E1,9.784607E1,1.02239746E2,1.2022331E2,7.665015E1,1.044375E2,1.4467773E2,4.6572144E1,1.2959164E2,7.539896E1,8.072942E1,9.141846E1,1.08796875E2,3.674591E1,1.4016595E2,9.282031E1,7.8908554E1,7.1171936E1,9.7984024E1,1.6417723E1,6.588928E1,1.08875E2,1.2364844E2,3.5762554E1,1.6220375E1,8.802905E1,1.00174484E2,1.5795776E1,9.463672E1,6.538541E1,8.838141E1,6.595567E1,6.664453E1,1.0475E2,1.12596924E2,1.0982422E2,1.0275586E2,2.1974121E1,2.4913631E1,1.1010075E2,6.795621E1,0E0,0E0,0E0,0E0,0E0,0E0,0E0,0E0,0E0,0E0,0E0,0E0,0E0,0E0,0E0,0E0,0E0,0E0,0E0,0E0,0E0,0E0,0E0,0E0,0E0,0E0,0E0,0E0,0E0,0E0,0E0,0E0,0E0,0E0,0E0,0E0,0E0,0E0,0E0,0E0,0E0,0E0,0E0,0E0,0E0,0E0,0E0,0E0,0E0,0E0,0E0,0E0,0E0,0E0,0E0,0E0,0E0,0E0,0E0,0E0,0E0,0E0,0E0,0E0],"parents":[2147483647,0,0,1,1,2,2,3,3,4,4,5,5,6,6,7,7,8,8,9,9,10,10,11,11,12,12,13,13,14,14,15,15,16,16,17,17,18,18,19,19,20,20,21,21,22,22,23,23,24,24,25,25,26,26,27,27,28,28,29,29,30,30,31,31,32,32,33,33,34,34,35,35,36,36,37,37,38,38,39,39,40,40,41,41,42,42,43,43,44,44,45,45,46,46,47,47,48,48,49,49,50,50,51,51,52,52,53,53,54,54,55,55,56,56,57,57,58,58,59,59,60,60,61,61,62,62],"right_children":[2,4,6,8,10,12,14,16,18,20,22,24,26,28,30,32,34,36,38,40,42,44,46,48,50,52,54,56,58,60,62,64,66,68,70,72,74,76,78,80,82,84,86,88,90,92,94,96,98,100,102,104,106,108,110,112,114,116,118,120,122,124,126,-1,-1,-1,-1,-1,-1,-1,-1,-1,-1,-1,-1,-1,-1,-1,-1,-1,-1,-1,-1,-1,-1,-1,-1,-1,-1,-1,-1,-1,-1,-1,-1,-1,-1,-1,-1,-1,-1,-1,-1,-1,-1,-1,-1,-1,-1,-1,-1,-1,-1,-1,-1,-1,-1,-1,-1,-1,-1,-1,-1,-1,-1,-1,-1],"split_conditions":[5.88247E1,2.0752346E1,1.1397102E0,9.952093E1,8.903143E-2,8.393928E1,9.9954956E1,3.6620158E-1,4.1687492E1,5.0004776E1,5.8818897E1,1.2177134E1,2.4907722E1,9.578945E1,3.968702E1,1.2153976E1,1.1583788E0,1.3080589E1,5.61693E1,2.705259E1,6.2180004E0,8.674531E1,6.033168E1,8.404523E1,6.6251534E-1,4.568094E1,6.51685E1,9.976792E1,9.709302E1,6.7228874E1,6.6046646E1,2.1532341E1,8.741992E1,9.895079E1,9.9288635E1,1.1931204E1,6.668962E1,2.0731613E1,8.7587326E1,3.5803997E1,4.7978127E1,5.2617027E1,4.5867355E1,1.5507149E1,2.5438677E1,8.024217E1,7.62781E1,9.780212E1,7.001276E1,7.432428E1,9.778846E1,1.2182595E1,1.6736397E1,8.774611E1,8.426164E1,6.7896825E-1,1.2773855E1,2.4718249E-1,9.996174E1,9.275585E1,4.7500374E1,7.808241E1,9.420875E0,-2.6579246E-1,9.365229E-1,2.520739E-1,-2.6368973E-1,5.414559E-1,1.4272354E0,4.5116016E-1,3.1686735E-1,1.692886E-1,-7.209449E-1,4.436602E-1,-1.7370278E-1,-1.6220238E-2,7.062731E-1,3.0178723E-1,-4.6386153E-1,3.3817393E-1,1.1415532E0,4.300592E-1,-2.9387158E-1,-5.375266E-1,3.2572654E-1,6.847096E-1,1.1454836E0,4.7508013E-1,4.5827878E-1,4.4833687E-1,4.864764E-1,-5.114899E-1,4.7628316E-1,8.442949E-1,2.8873185E-2,7.7601767E-1,-2.1112907E-1,6.501596E-1,-1.7585464E-1,1.3647151E0,4.9547186E-1,4.8281482E-1,1.1900066E-1,-2.678614E-1,8.3762926E-1,8.816735E-1,-1.5433542E-1,5.821849E-1,-1.8509625E-1,8.7856525E-1,4.9090803E-1,5.3856486E-1,4.6517578E-1,1.626139E-2,3.91306E-1,1.100734E0,4.8766223E-1,7.153168E-1,-5.69843E-1,1.4076465E0,2.3907118E-1,3.1222856E-2,9.144876E-1,3.5691302E-2,9.7773945E-1,-4.366723E-1,1.2016758E0],"split_indices":[7,114,22,118,62,11,73,56,83,90,7,28,56,100,47,108,13,34,0,16,109,30,68,29,112,91,7,15,45,19,52,9,87,78,56,86,62,95,82,19,7,4,91,12,38,30,24,78,96,58,95,104,99,113,32,31,109,115,45,5,61,110,26,0,0,0,0,0,0,0,0,0,0,0,0,0,0,0,0,0,0,0,0,0,0,0,0,0,0,0,0,0,0,0,0,0,0,0,0,0,0,0,0,0,0,0,0,0,0,0,0,0,0,0,0,0,0,0,0,0,0,0,0,0,0,0,0],"split_type":[0,0,0,0,0,0,0,0,0,0,0,0,0,0,0,0,0,0,0,0,0,0,0,0,0,0,0,0,0,0,0,0,0,0,0,0,0,0,0,0,0,0,0,0,0,0,0,0,0,0,0,0,0,0,0,0,0,0,0,0,0,0,0,0,0,0,0,0,0,0,0,0,0,0,0,0,0,0,0,0,0,0,0,0,0,0,0,0,0,0,0,0,0,0,0,0,0,0,0,0,0,0,0,0,0,0,0,0,0,0,0,0,0,0,0,0,0,0,0,0,0,0,0,0,0,0,0],"sum_hessian":[6.7E5,3.94533E5,2.75467E5,8.2371E4,3.12162E5,3.141E3,2.72326E5,8.1985E4,3.86E2,2.87E2,3.11875E5,2.687E3,4.54E2,2.72199E5,1.27E2,3.07E2,8.1678E4,1.62E2,2.24E2,1.55E2,1.32E2,3.11837E5,3.8E1,3.19E2,2.368E3,9.3E1,3.61E2,2.60759E5,1.144E4,4.2E1,8.5E1,3.8E1,2.69E2,9.62E2,8.0716E4,2.2E1,1.4E2,1.18E2,1.06E2,4.7E1,1.08E2,6E0,1.26E2,2.70679E5,4.1158E4,2.7E1,1.1E1,2.67E2,5.2E1,1.7E1,2.351E3,4.4E1,4.9E1,6.3E1,2.98E2,2.60166E5,5.93E2,1.1115E4,3.25E2,3.1E1,1.1E1,5.8E1,2.7E1,5E0,3.3E1,2.39E2,3E1,9.52E2,1E1,8.0159E4,5.57E2,5E0,1.7E1,8.8E1,5.2E1,1.9E1,9.9E1,9.3E1,1.3E1,1.6E1,3.1E1,8.8E1,2E1,3E0,3E0,6.1E1,6.5E1,4.2016E4,2.28663E5,1.0468E4,3.069E4,2.4E1,3E0,8E0,3E0,2.59E2,8E0,2.9E1,2.3E1,1.3E1,4E0,2.284E3,6.7E1,5E0,3.9E1,8E0,4.1E1,5.1E1,1.2E1,2.45E2,5.3E1,1.803E3,2.58363E5,8.4E1,5.09E2,2.6E1,1.1089E4,3.2E2,5E0,2.9E1,2E0,5E0,6E0,4.4E1,1.4E1,2E0,2.5E1],"tree_param":{"num_deleted":"0","num_feature":"125","num_nodes":"127","size_leaf_vector":"0"}},{"base_weights":[1.0810332E0,3.6968122E0,1.0809809E0,1.4410007E0,4.2294555E0,1.0380687E0,1.0839281E0,1.6395917E0,4.2261386E-1,1.1607535E0,1.0063522E0,1.3628577E0,1.0833561E0,3.172319E-1,1.1776477E0,1.0282418E0,8.138111E-1,1.6086938E0,1.026681E0,1.0654947E0,1.0916119E0,7.523487E-2,2.300195E0,1.2054074E0,6.773406E-1,1.0305123E0,-9.9317676E-1,7.909479E-1,2.375554E0,1.6521122E0,-2.0869448E0,5.867824E-3,1.2241E0,1.0652459E0,3.3578947E0,1.0856587E0,1.1327069E0,6.247911E-1,-9.5530194E-1,6.061195E-1,3.764251E0,8.7282836E-1,1.2390121E0,2.1663478E-1,1.1097986E0,1.0260614E0,1.9949567E0,1.4597453E0,-1.551014E0,1.9678249E0,7.656443E-1,5.4455936E-1,3.5780652E0,2.0235753E0,1.2882112E0,-2.6452074E0,-7.2781444E-1,8.366605E-1,-1.0327697E0,1.3563274E0,-5.079089E-1,1.0017666E0,1.0739045E0,4.5027432E0,4.2494893E-1,1.0600761E0,1.1006063E0,1.1338736E0,-8.1344706E-1],"categories":[],"categories_nodes":[],"categories_segments":[],"categories_sizes":[],"default_left":[1,1,1,1,0,1,1,0,0,1,1,1,1,1,1,1,1,1,1,1,1,1,1,1,1,1,1,1,1,1,1,1,1,1,1,1,1,0,0,0,0,0,0,0,0,0,0,0,0,0,0,0,0,0,0,0,0,0,0,0,0,0,0,0,0,0,0,0,0],"id":4,"left_children":[1,3,5,7,-1,9,11,-1,-1,13,15,17,19,21,23,25,27,29,31,33,35,37,39,41,43,45,47,49,51,53,55,57,59,61,63,65,67,-1,-1,-1,-1,-1,-1,-1,-1,-1,-1,-1,-1,-1,-1,-1,-1,-1,-1,-1,-1,-1,-1,-1,-1,-1,-1,-1,-1,-1,-1,-1,-1],"loss_changes":[8.78125E1,9.525406E0,8.3625E1,1.1605549E-1,0E0,1.6646875E2,9.85E1,0E0,0E0,1.2564453E2,1.4346875E2,1.0405054E2,9.1125E1,8.380439E1,1.1958203E2,1.4211328E2,1.23093506E2,1.21706055E2,1.09422485E2,1.0921875E2,1.034375E2,8.9511925E1,4.484262E1,9.069824E1,9.100958E1,1.2976758E2,5.0155674E1,1.01261475E2,1.0814114E2,9.59364E1,4.9035454E0,7.76615E1,1.0489252E2,1.0765625E2,6.859993E1,1.416875E2,1.2378125E2,0E0,0E0,0E0,0E0,0E0,0E0,0E0,0E0,0E0,0E0,0E0,0E0,0E0,0E0,0E0,0E0,0E0,0E0,0E0,0E0,0E0,0E0,0E0,0E0,0E0,0E0,0E0,0E0,0E0,0E0,0E0,0E0],"parents":[2147483647,0,0,1,1,2,2,3,3,5,5,6,6,9,9,10,10,11,11,12,12,13,13,14,14,15,15,16,16,17,17,18,18,19,19,20,20,21,21,22,22,23,23,24,24,25,25,26,26,27,27,28,28,29,29,30,30,31,31,32,32,33,33,34,34,35,35,36,36],"right_children":[2,4,6,8,-1,10,12,-1,-1,14,16,18,20,22,24,26,28,30,32,34,36,38,40,42,44,46,48,50,52,54,56,58,60,62,64,66,68,-1,-1,-1,-1,-1,-1,-1,-1,-1,-1,-1,-1,-1,-1,-1,-1,-1,-1,-1,-1,-1,-1,-1,-1,-1,-1,-1,-1,-1,-1,-1,-1],"split_conditions":[1.9569541E-3,2.6470509E1,6.446389E0,5.5833214E1,1.2688367E0,2.0676014E1,2.0702389E-1,4.9187753E-1,1.2678416E-1,2.0869143E0,8.988866E1,5.7183617E1,3.165023E1,9.0105484E1,9.481712E1,9.992249E1,9.854776E1,9.892479E1,1.5671539E1,9.998143E1,8.725517E1,5.9983418E1,6.505829E1,8.939178E0,4.873391E1,9.952638E1,2.0454212E1,2.4043775E0,3.326628E1,4.8900032E1,4.626409E1,6.214067E1,9.141782E1,1.1940957E1,6.5408615E1,3.6892036E1,9.9938034E1,1.8743733E-1,-2.865906E-1,1.8183586E-1,1.1292753E0,2.618485E-1,3.7170365E-1,6.499044E-2,3.3293957E-1,3.0781844E-1,5.98487E-1,4.379236E-1,-4.653042E-1,5.903475E-1,2.2969331E-1,1.6336781E-1,1.0734196E0,6.070726E-1,3.8646337E-1,-7.9356223E-1,-2.1834435E-1,2.5099817E-1,-3.098309E-1,4.0689823E-1,-1.5237267E-1,3.0053E-1,3.2217136E-1,1.350823E0,1.2748468E-1,3.1802285E-1,3.301819E-1,3.401621E-1,-2.4403413E-1],"split_indices":[92,23,41,2,0,37,65,0,0,88,107,68,48,35,84,13,33,99,93,80,26,113,97,66,116,54,14,64,123,14,14,60,51,100,34,78,102,0,0,0,0,0,0,0,0,0,0,0,0,0,0,0,0,0,0,0,0,0,0,0,0,0,0,0,0,0,0,0,0],"split_type":[0,0,0,0,0,0,0,0,0,0,0,0,0,0,0,0,0,0,0,0,0,0,0,0,0,0,0,0,0,0,0,0,0,0,0,0,0,0,0,0,0,0,0,0,0,0,0,0,0,0,0,0,0,0,0,0,0,0,0,0,0,0,0,0,0,0,0,0,0],"sum_hessian":[6.7E5,1.2E1,6.69988E5,3E0,9E0,4.308E4,6.26908E5,2E0,1E0,8.842E3,3.4238E4,1.278E3,6.2563E5,1.74E2,8.668E3,3.0739E4,3.499E3,7.36E2,5.42E2,1.97805E5,4.27825E5,1.56E2,1.8E1,8.211E3,4.57E2,3.0705E4,3.4E1,3.45E3,4.9E1,7.28E2,8E0,8.8E1,4.54E2,1.97785E5,2E1,3.73715E5,5.411E4,1.02E2,5.4E1,9E0,9E0,7.56E2,7.455E3,2.22E2,2.35E2,3.0566E4,1.39E2,6E0,2.8E1,7.1E1,3.379E3,2E1,2.9E1,3.58E2,3.7E2,5E0,3E0,4.9E1,3.9E1,4.22E2,3.2E1,2.3754E4,1.74031E5,1.4E1,6E0,1.37853E5,2.35862E5,5.4078E4,3.2E1],"tree_param":{"num_deleted":"0","num_feature":"125","num_nodes":"69","size_leaf_vector":"0"}},{"base_weights":[7.567383E-1,7.942532E-1,7.5359315E-1,8.1743646E-1,6.5599966E-1,6.6709405E-1,7.552909E-1,7.987416E-1,9.9753755E-1,2.9103922E-2,6.92531E-1,9.317792E-1,6.305979E-1,7.572236E-1,6.761481E-1,5.6238484E-1,8.173503E-1,9.162592E-1,1.5250014E0,1.8926656E0,-1.22600846E-1,6.1630017E-1,9.4173616E-1,8.7584585E-1,2.6877573E0,6.1435354E-1,1.258641E0,7.5793904E-1,5.468128E-1,6.3777286E-1,9.3358153E-1,4.753609E-1,1.013576E0,8.40756E-1,6.4931744E-1,6.296335E-1,1.0150526E0,1.3749882E0,3.2792292E0,-1.11934E0,2.6603205E0,8.435175E-1,-4.6476126E-1,6.0533595E-1,2.3778179E0,1.4148532E0,7.9714495E-1,-4.6845406E-1,9.364785E-1,3.639985E0,3.8727024E-1,-1.0028121E0,6.2113404E-1,1.4137902E0,-1.4007452E0,7.477523E-1,7.7506524E-1,1.0539643E0,4.443281E-1,9.5181185E-1,6.005292E-1,1.0171767E0,-1.0108311E-1,6.6448516E-1,2.174865E-1,1.824667E0,7.4264514E-1,8.06178E-4,8.449377E-1,-8.2996076E-1,6.668971E-1,-1.0568134E-1,7.885767E-1,9.0511405E-1,1.3615322E0,1.5518395E0,1.5371004E-1,3.5640457E0,4.018155E-1,-8.682599E-2,-2.4670832E0,3.0789425E0,-1.4358888E0,-1.4817976E0,1.4072555E0,-2.1336752E-1,-1.7498819E0,6.1918133E-1,-6.931482E-1,3.8053432E0,8.1042105E-1,1.8174497E0,2.0492901E-1,1.8069894E0,6.914955E-1,-1.0148054E0,1.6269053E0,2.1285655E0,8.6700076E-1,3.8847208E0,6.087931E-2,-8.500147E-1,2.784386E0,-2.127152E0,5.29362E-1,7.2267735E-1,5.232353E-1,1.966325E0,6.977116E-1,8.809552E-1,-2.3105412E0,7.526651E-1,6.75694E-1,8.732673E-1,7.6694626E-1,3.1514663E-1,1.3963048E0,2.425699E0,4.054437E-1,1.0263419E0,-3.677542E-1,6.389733E-1,3.816074E-1,1.0566597E0,-4.8823044E-1,1.1285362E0,-5.992347E-1],"categories":[],"categories_nodes":[],"categories_segments":[],"categories_sizes":[],"default_left":[1,1,1,1,1,1,1,1,1,1,1,1,1,1,1,1,1,1,1,1,1,1,1,1,1,1,1,1,1,1,1,1,1,1,1,1,1,1,1,1,1,1,1,1,1,1,1,1,1,1,1,1,1,1,1,1,1,1,1,1,1,1,1,0,0,0,0,0,0,0,0,0,0,0,0,0,0,0,0,0,0,0,0,0,0,0,0,0,0,0,0,0,0,0,0,0,0,0,0,0,0,0,0,0,0,0,0,0,0,0,0,0,0,0,0,0,0,0,0,0,0,0,0,0,0,0,0],"id":5,"left_children":[1,3,5,7,9,11,13,15,17,19,21,23,25,27,29,31,33,35,37,39,41,43,45,47,49,51,53,55,57,59,61,63,65,67,69,71,73,75,77,79,81,83,85,87,89,91,93,95,97,99,101,103,105,107,109,111,113,115,117,119,121,123,125,-1,-1,-1,-1,-1,-1,-1,-1,-1,-1,-1,-1,-1,-1,-1,-1,-1,-1,-1,-1,-1,-1,-1,-1,-1,-1,-1,-1,-1,-1,-1,-1,-1,-1,-1,-1,-1,-1,-1,-1,-1,-1,-1,-1,-1,-1,-1,-1,-1,-1,-1,-1,-1,-1,-1,-1,-1,-1,-1,-1,-1,-1,-1,-1],"loss_changes":[7.85E1,1.6551562E2,9.028125E1,1.4857617E2,1.7048071E2,1.1445361E2,9.221875E1,1.7633789E2,1.7729053E2,1.1642634E2,1.3306421E2,1.3917773E2,1.06032715E2,8.865625E1,1.4227588E2,1.1483783E2,1.46E2,1.01697754E2,1.4154346E2,7.465541E1,1.26338234E2,1.026615E2,1.1147266E2,1.1438733E2,9.497623E1,1.1254443E2,1.104946E2,1.0234375E2,1.0394995E2,1.4666895E2,1.6219067E2,1.2002551E2,1.0280621E2,1.1486133E2,1.1913757E2,1.0865863E2,1.01081055E2,1.10561584E2,3.3807922E1,9.526738E0,4.72901E1,1.3317213E2,9.0732735E1,9.675549E1,7.0753525E1,1.8667828E2,1.3349933E2,7.148395E1,1.0897241E2,2.691745E1,4.388958E1,7.520146E1,1.00671875E2,9.7147E1,3.3173714E1,1.3042188E2,1.7471875E2,8.479645E1,1.27911865E2,1.3147449E2,9.44978E1,1.0358118E2,8.704394E1,0E0,0E0,0E0,0E0,0E0,0E0,0E0,0E0,0E0,0E0,0E0,0E0,0E0,0E0,0E0,0E0,0E0,0E0,0E0,0E0,0E0,0E0,0E0,0E0,0E0,0E0,0E0,0E0,0E0,0E0,0E0,0E0,0E0,0E0,0E0,0E0,0E0,0E0,0E0,0E0,0E0,0E0,0E0,0E0,0E0,0E0,0E0,0E0,0E0,0E0,0E0,0E0,0E0,0E0,0E0,0E0,0E0,0E0,0E0,0E0,0E0,0E0,0E0,0E0],"parents":[2147483647,0,0,1,1,2,2,3,3,4,4,5,5,6,6,7,7,8,8,9,9,10,10,11,11,12,12,13,13,14,14,15,15,16,16,17,17,18,18,19,19,20,20,21,21,22,22,23,23,24,24,25,25,26,26,27,27,28,28,29,29,30,30,31,31,32,32,33,33,34,34,35,35,36,36,37,37,38,38,39,39,40,40,41,41,42,42,43,43,44,44,45,45,46,46,47,47,48,48,49,49,50,50,51,51,52,52,53,53,54,54,55,55,56,56,57,57,58,58,59,59,60,60,61,61,62,62],"right_children":[2,4,6,8,10,12,14,16,18,20,22,24,26,28,30,32,34,36,38,40,42,44,46,48,50,52,54,56,58,60,62,64,66,68,70,72,74,76,78,80,82,84,86,88,90,92,94,96,98,100,102,104,106,108,110,112,114,116,118,120,122,124,126,-1,-1,-1,-1,-1,-1,-1,-1,-1,-1,-1,-1,-1,-1,-1,-1,-1,-1,-1,-1,-1,-1,-1,-1,-1,-1,-1,-1,-1,-1,-1,-1,-1,-1,-1,-1,-1,-1,-1,-1,-1,-1,-1,-1,-1,-1,-1,-1,-1,-1,-1,-1,-1,-1,-1,-1,-1,-1,-1,-1,-1,-1,-1,-1],"split_conditions":[7.7236166E0,8.543243E1,1.9464405E0,9.048221E1,5.1531115E0,1.2585726E1,9.7598114E1,7.3659143E0,8.6728615E1,7.9336457E0,7.6964676E1,9.6998245E1,9.729396E1,9.965686E1,8.6844284E1,8.377623E1,8.778428E1,2.663946E1,9.278737E1,1.8913319E1,2.8513834E1,9.962741E1,2.2422249E1,4.672888E0,6.950486E1,3.6128193E-1,9.485496E1,6.245001E1,1.5887732E1,1.0447279E1,9.232611E1,5.7891174E1,2.5687838E1,5.2578485E-1,1.2882313E0,1.9168186E1,7.516024E1,8.908099E1,9.565634E1,5.0754044E1,9.719565E1,2.1394215E1,8.501758E1,9.8752E1,5.7415176E1,7.607766E1,9.439623E0,8.154775E1,5.8070493E0,9.7854294E1,8.9717834E1,5.771879E1,4.916517E1,5.134765E1,3.9891655E1,9.3594055E1,7.5726404E0,3.0426153E1,2.0447912E0,9.474774E1,8.50918E1,9.702293E1,9.0431015E1,1.9934556E-1,6.5245956E-2,5.474001E-1,2.2279355E-1,2.4185341E-4,2.5348133E-1,-2.4898824E-1,2.0006914E-1,-3.1704403E-2,2.3657303E-1,2.7153423E-1,4.084597E-1,4.6555185E-1,4.6113014E-2,1.0692137E0,1.2054466E-1,-2.6047798E-2,-7.40125E-1,9.236828E-1,-4.3076664E-1,-4.4453928E-1,4.221767E-1,-6.401026E-2,-5.249646E-1,1.857544E-1,-2.0794447E-1,1.141603E0,2.4312632E-1,5.452349E-1,6.1478704E-2,5.4209685E-1,2.0744865E-1,-3.0444163E-1,4.8807162E-1,6.385697E-1,2.6010025E-1,1.1654162E0,1.8263793E-2,-2.550044E-1,8.353158E-1,-6.381456E-1,1.5880862E-1,2.1680321E-1,1.569706E-1,5.898975E-1,2.0931348E-1,2.6428658E-1,-6.931624E-1,2.2579955E-1,2.027082E-1,2.619802E-1,2.3008388E-1,9.454399E-2,4.1889146E-1,7.277097E-1,1.2163311E-1,3.0790257E-1,-1.1032626E-1,1.91692E-1,1.1448223E-1,3.1699792E-1,-1.4646913E-1,3.3856088E-1,-1.7977041E-1],"split_indices":[46,1,118,86,50,72,102,94,14,94,2,14,49,19,79,34,12,31,8,29,97,78,48,109,102,10,60,19,25,50,9,30,41,122,26,115,80,73,25,4,1,98,51,32,11,103,111,38,29,29,25,53,102,2,34,120,13,77,70,1,34,117,79,0,0,0,0,0,0,0,0,0,0,0,0,0,0,0,0,0,0,0,0,0,0,0,0,0,0,0,0,0,0,0,0,0,0,0,0,0,0,0,0,0,0,0,0,0,0,0,0,0,0,0,0,0,0,0,0,0,0,0,0,0,0,0,0],"split_type":[0,0,0,0,0,0,0,0,0,0,0,0,0,0,0,0,0,0,0,0,0,0,0,0,0,0,0,0,0,0,0,0,0,0,0,0,0,0,0,0,0,0,0,0,0,0,0,0,0,0,0,0,0,0,0,0,0,0,0,0,0,0,0,0,0,0,0,0,0,0,0,0,0,0,0,0,0,0,0,0,0,0,0,0,0,0,0,0,0,0,0,0,0,0,0,0,0,0,0,0,0,0,0,0,0,0,0,0,0,0,0,0,0,0,0,0,0,0,0,0,0,0,0,0,0,0,0],"sum_hessian":[6.7E5,5.1807E4,6.18193E5,4.4363E4,7.444E3,1.1908E4,6.06285E5,4.0196E4,4.167E3,4.1E2,7.034E3,1.44E3,1.0468E4,5.91824E5,1.4461E4,2.936E3,3.726E4,3.613E3,5.54E2,3E1,3.8E2,5.389E3,1.645E3,1.397E3,4.3E1,1.0206E4,2.62E2,5.89816E5,2.008E3,1.2588E4,1.873E3,2.463E3,4.73E2,3.2701E4,4.559E3,9.28E2,2.685E3,5.12E2,4.2E1,6E0,2.4E1,9.9E1,2.81E2,5.357E3,3.2E1,3.83E2,1.262E3,6E1,1.337E3,3E1,1.3E1,4.2E1,1.0164E4,2.48E2,1.4E1,3.69864E5,2.19952E5,3.36E2,1.672E3,1.332E3,1.1256E4,1.733E3,1.4E2,1.42E3,1.043E3,1.17E2,3.56E2,1.62E2,3.2539E4,5.3E1,4.506E3,1.65E2,7.63E2,2.041E3,6.44E2,4.47E2,6.5E1,3.8E1,4E0,4E0,2E0,2.2E1,2E0,1.9E1,8E1,2.36E2,4.5E1,5.301E3,5.6E1,1.6E1,1.6E1,2.87E2,9.6E1,1.18E2,1.144E3,4.8E1,1.2E1,7.2E1,1.265E3,2.8E1,2E0,9E0,4E0,2.4E1,1.8E1,4.986E3,5.178E3,1.39E2,1.09E2,4E0,1E1,3.46248E5,2.3616E4,1.6788E4,2.03164E5,1.07E2,2.29E2,3.1E1,1.641E3,1.261E3,7.1E1,9.573E3,1.683E3,1.689E3,4.4E1,4E1,1E2],"tree_param":{"num_deleted":"0","num_feature":"125","num_nodes":"127","size_leaf_vector":"0"}},{"base_weights":[5.297345E-1,5.288003E-1,6.525455E-1,5.2866685E-1,1.4571171E0,6.764491E-1,-2.877192E-1,5.197271E-1,5.425792E-1,1.7744607E0,-1.77244E0,7.294549E-1,2.487303E-1,4.041101E-1,-1.313039E0,5.323568E-1,4.9472407E-1,5.422326E-1,2.3705316E0,2.4115834E0,1.8691991E-1,-2.1439455E0,-3.1478047E-1,9.6447915E-1,6.21431E-1,3.3338118E-1,-1.9900239E0,1.548795E0,-4.6358788E-1,-1.7750951E0,1.0404556E0,5.0678504E-1,5.515572E-1,4.9574763E-1,-6.869593E-1,8.19006E-1,5.4062027E-1,2.7386413E0,-1.4165635E0,3.3282945E0,1.3875078E0,1.4920521E0,-1.4600719E0,7.5361514E-1,1.4172944E0,4.5919192E-1,8.852353E-1,7.2146994E-1,-8.82382E-2,-2.6717033E0,1.4046193E0,2.3207796E0,-7.6769495E-1,9.4064844E-1,-1.4719303E0,-2.2728102E0,9.4645545E-2,3.2649932E0,-2.556465E0,4.6255827E-1,5.366655E-1,1.2737902E-1,5.538751E-1,4.8469877E-1,5.8281034E-1,1.1187687E0,-1.0668912E0,-1.0718315E0,8.5429674E-1,5.400802E-1,1.2721426E0,3.006771E0,-2.0174317E0,-3.9697695E-1,-1.9639623E0,3.500922E0,-1.0115798E0,2.2699694E-1,3.4768915E0,2.3742404E0,-1.5275261E0,4.2010817E-1,-2.4526756E0,9.2147666E-1,3.694938E-2,-1.5145468E-2,1.5817713E0,4.8638114E-1,-1.8393965E0,7.4327743E-1,1.7411572E0,8.284996E-1,-2.5220146E0,9.8918915E-1,-4.976495E-1,-1.2307384E0,-3.0204048E0,1.703044E0,2.5467253E-1,2.6704285E0,-1.1334544E0,1.3053987E0,-2.6872494E0,-1.5891562E0,1.7212068E0,5.1998615E-1,-2.233162E0,-2.6362536E0,-1.3736534E-1,1.0345873E0,-1.5739139E0],"categories":[],"categories_nodes":[],"categories_segments":[],"categories_sizes":[],"default_left":[1,1,1,1,1,1,1,1,1,1,1,1,1,1,1,1,1,1,1,1,1,0,0,1,1,1,1,1,1,1,1,1,1,1,1,1,1,1,1,1,1,1,1,1,1,1,1,1,1,1,1,1,1,1,1,1,1,0,0,0,0,0,0,0,0,0,0,0,0,0,0,0,0,0,0,0,0,0,0,0,0,0,0,0,0,0,0,0,0,0,0,0,0,0,0,0,0,0,0,0,0,0,0,0,0,0,0,0,0,0,0],"id":6,"left_children":[1,3,5,7,9,11,13,15,17,19,21,23,25,27,29,31,33,35,37,39,41,-1,-1,43,45,47,49,51,53,55,57,59,61,63,65,67,69,71,73,75,77,79,81,83,85,87,89,91,93,95,97,99,101,103,105,107,109,-1,-1,-1,-1,-1,-1,-1,-1,-1,-1,-1,-1,-1,-1,-1,-1,-1,-1,-1,-1,-1,-1,-1,-1,-1,-1,-1,-1,-1,-1,-1,-1,-1,-1,-1,-1,-1,-1,-1,-1,-1,-1,-1,-1,-1,-1,-1,-1,-1,-1,-1,-1,-1,-1],"loss_changes":[7.653125E1,8.159375E1,1.13786865E2,8.2421875E1,1.0050867E2,1.1156665E2,8.990824E1,1.2757031E2,1.6346094E2,8.754608E1,4.198885E0,1.1072803E2,1.0394774E2,7.620431E1,5.7306694E1,1.3175781E2,1.6467188E2,1.15578125E2,7.218875E1,5.3586426E1,5.8066597E1,0E0,0E0,1.3060205E2,1.2829126E2,8.613079E1,5.0033875E1,6.0795372E1,6.3686413E1,4.0230835E1,8.036021E1,1.5217578E2,1.509336E2,1.3029688E2,8.214795E1,1.0127612E2,1.0146875E2,6.3451965E1,2.010954E0,2.751529E1,7.437808E1,4.358427E1,2.3425673E1,1.13409424E2,1.02982605E2,1.17388824E2,1.377074E2,9.720834E1,1.1209333E2,4.8246155E0,9.389715E-1,3.3221024E1,3.9322678E1,4.0253807E1,4.0585274E1,2.6025711E1,1.7311838E1,0E0,0E0,0E0,0E0,0E0,0E0,0E0,0E0,0E0,0E0,0E0,0E0,0E0,0E0,0E0,0E0,0E0,0E0,0E0,0E0,0E0,0E0,0E0,0E0,0E0,0E0,0E0,0E0,0E0,0E0,0E0,0E0,0E0,0E0,0E0,0E0,0E0,0E0,0E0,0E0,0E0,0E0,0E0,0E0,0E0,0E0,0E0,0E0,0E0,0E0,0E0,0E0,0E0,0E0],"parents":[2147483647,0,0,1,1,2,2,3,3,4,4,5,5,6,6,7,7,8,8,9,9,10,10,11,11,12,12,13,13,14,14,15,15,16,16,17,17,18,18,19,19,20,20,23,23,24,24,25,25,26,26,27,27,28,28,29,29,30,30,31,31,32,32,33,33,34,34,35,35,36,36,37,37,38,38,39,39,40,40,41,41,42,42,43,43,44,44,45,45,46,46,47,47,48,48,49,49,50,50,51,51,52,52,53,53,54,54,55,55,56,56],"right_children":[2,4,6,8,10,12,14,16,18,20,22,24,26,28,30,32,34,36,38,40,42,-1,-1,44,46,48,50,52,54,56,58,60,62,64,66,68,70,72,74,76,78,80,82,84,86,88,90,92,94,96,98,100,102,104,106,108,110,-1,-1,-1,-1,-1,-1,-1,-1,-1,-1,-1,-1,-1,-1,-1,-1,-1,-1,-1,-1,-1,-1,-1,-1,-1,-1,-1,-1,-1,-1,-1,-1,-1,-1,-1,-1,-1,-1,-1,-1,-1,-1,-1,-1,-1,-1,-1,-1,-1,-1,-1,-1,-1,-1],"split_conditions":[9.924442E1,9.998782E1,9.721063E1,6.0865036E1,8.8828766E1,8.881218E1,5.2686043E1,6.6383316E1,9.99801E1,7.144809E1,8.547416E1,3.189967E1,9.714628E1,5.1601864E1,8.243158E1,4.2862915E1,9.992138E1,5.4708844E-1,9.55607E1,4.1917217E1,4.5994553E1,-6.4318365E-1,-9.443415E-2,6.808252E1,6.119718E1,5.040968E1,9.2770325E1,7.468414E1,3.8725887E1,7.5967896E1,9.95726E1,4.0380623E1,4.8641223E-1,8.88443E1,2.2439236E1,2.0488563E0,9.992767E1,9.670937E1,6.562427E1,9.81196E1,6.846782E1,8.860452E1,2.2298176E1,8.1408295E1,7.879396E0,9.892429E1,8.494949E1,9.614322E1,2.7637005E1,3.2950615E1,5.8133556E1,9.238418E1,5.626709E1,2.9147842E1,4.2887917E1,7.46712E1,5.7242237E1,9.7949797E-1,-7.669395E-1,1.3876748E-1,1.6099966E-1,3.8213708E-2,1.6616254E-1,1.4540964E-1,1.748431E-1,3.3563063E-1,-3.2006738E-1,-3.2154945E-1,2.5628904E-1,1.6202407E-1,3.8164282E-1,9.0203136E-1,-6.0522956E-1,-1.1909309E-1,-5.891887E-1,1.0502766E0,-3.0347395E-1,6.809909E-2,1.0430675E0,7.1227217E-1,-4.5825785E-1,1.2603246E-1,-7.358027E-1,2.76443E-1,1.1084815E-2,-4.5436407E-3,4.7453138E-1,1.4591435E-1,-5.5181897E-1,2.2298324E-1,5.2234715E-1,2.485499E-1,-7.5660443E-1,2.9675674E-1,-1.4929485E-1,-3.6922154E-1,-9.061215E-1,5.1091325E-1,7.640176E-2,8.0112857E-1,-3.4003633E-1,3.9161962E-1,-8.061749E-1,-4.7674686E-1,5.163621E-1,1.5599585E-1,-6.699486E-1,-7.908761E-1,-4.1209605E-2,3.103762E-1,-4.721742E-1],"split_indices":[12,0,109,60,21,43,76,50,79,23,18,124,7,118,56,57,75,52,54,111,60,0,0,113,105,117,23,37,14,81,12,118,114,121,91,92,5,9,1,29,56,29,120,28,24,114,48,80,71,14,2,103,21,89,0,93,40,0,0,0,0,0,0,0,0,0,0,0,0,0,0,0,0,0,0,0,0,0,0,0,0,0,0,0,0,0,0,0,0,0,0,0,0,0,0,0,0,0,0,0,0,0,0,0,0,0,0,0,0,0,0],"split_type":[0,0,0,0,0,0,0,0,0,0,0,0,0,0,0,0,0,0,0,0,0,0,0,0,0,0,0,0,0,0,0,0,0,0,0,0,0,0,0,0,0,0,0,0,0,0,0,0,0,0,0,0,0,0,0,0,0,0,0,0,0,0,0,0,0,0,0,0,0,0,0,0,0,0,0,0,0,0,0,0,0,0,0,0,0,0,0,0,0,0,0,0,0,0,0,0,0,0,0,0,0,0,0,0,0,0,0,0,0,0,0],"sum_hessian":[6.7E5,6.64947E5,5.053E3,6.64853E5,9.4E1,4.928E3,1.25E2,4.04785E5,2.60068E5,8.6E1,8E0,4.384E3,5.44E2,7.5E1,5E1,2.68924E5,1.35861E5,2.6002E5,4.8E1,6.1E1,2.5E1,6E0,2E0,1.378E3,3.006E3,5.25E2,1.9E1,3.2E1,4.3E1,4.2E1,8E0,1.15339E5,1.53585E5,1.35744E5,1.17E2,1.503E3,2.58517E5,4.4E1,4E0,3.1E1,3E1,1.4E1,1.1E1,9.42E2,4.36E2,1.863E3,1.143E3,2.73E2,2.52E2,1.6E1,3E0,2.4E1,8E0,1.8E1,2.5E1,3.3E1,9E0,5E0,3E0,4.6512E4,6.8827E4,8.35E2,1.5275E5,1.20463E5,1.5281E4,2E1,9.7E1,2.7E1,1.476E3,2.58328E5,1.89E2,4.2E1,2E0,2E0,2E0,3E1,1E0,2E1,1E1,1.1E1,3E0,4E0,7E0,7.63E2,1.79E2,4.5E1,3.91E2,1.842E3,2.1E1,9.82E2,1.61E2,2.65E2,8E0,6.9E1,1.83E2,4E0,1.2E1,2E0,1E0,2.2E1,2E0,4E0,4E0,4E0,1.4E1,7E0,1.8E1,2.8E1,5E0,6E0,3E0],"tree_param":{"num_deleted":"0","num_feature":"125","num_nodes":"111","size_leaf_vector":"0"}},{"base_weights":[3.7081495E-1,3.7138042E-1,1.7103517E-1,3.7443075E-1,3.3406082E-1,2.792376E-1,-5.251013E-1,3.7898168E-1,3.4245375E-1,3.3291247E-1,2.3917344E0,1.7029133E-1,8.896164E-1,2.2385597E-1,-1.1820849E0,3.7708682E-1,5.105731E-1,1.8964274E-1,3.5397583E-1,2.352652E-1,3.5602686E-1,-1.443227E-1,3.2439592E0,2.0983171E-1,-1.8364658E0,-1.7309669E0,1.0419506E0,1.0115957E0,-7.9105276E-1,7.734898E-1,-1.6080428E0,4.5441392E-1,3.7430573E-1,1.5980126E0,4.9614626E-1,3.6850865E0,1.8247135E-1,6.976043E-1,3.4835353E-1,1.7281783E0,2.2544345E-1,3.835757E-1,2.3440349E-1,-1.7677596E0,1.9210541E0,-6.786607E-1,3.6925855E0,-1.0435874E0,2.763002E-1,1.6145396E0,-2.506838E0,-2.915041E0,1.957978E0,1.3235072E0,-1.7625517E-1,1.6237687E0,-1.2596666E0,-1.1385236E0,3.7500954E0,-1.2619951E0,2.462942E0,2.2997484E0,-1.7740698E0,8.787878E-1,4.35032E-1,-4.2277405E-1,3.745886E-1,1.8920768E0,-2.579139E0,6.9419944E-1,4.1662806E-1,-6.5789694E-1,2.0748854E-1,7.4939877E-1,-1.197853E0,3.502263E-1,-4.9190104E-1,-6.456832E-1,2.2427583E0,-3.673304E-1,2.4864495E-1,-2.3646083E-1,3.8894084E-1,1.899244E-1,5.800215E-1,-2.0619268E0,-2.955451E-1,2.597499E-1,2.388239E0,1.441163E0,4.0246544E0,-1.3001006E0,2.4998016E0,4.0177673E-1,-4.530416E-1,2.5429487E0,-1.0495484E0,-6.288483E-1,-3.2891557E0,-1.7098968E0,-3.3594236E0,4.8996043E-1,2.283997E0,2.654167E0,1.0184333E0,-5.684607E-1,3.0750813E0,1.9153103E0,-2.4993284E0,4.5108452E-1,-2.8129594E0,1.7875035E0,-1.7384217E0,-1.8973491E0,1.2765166E0,3.4215772E0,-7.8904116E-1,2.5515296E0,6.4631176E-1,-1.9508423E0,2.2576108E0],"categories":[],"categories_nodes":[],"categories_segments":[],"categories_sizes":[],"default_left":[1,1,1,1,1,1,1,1,1,1,1,1,1,1,1,1,1,1,1,1,1,1,1,1,1,1,1,1,1,1,1,1,1,1,1,0,1,1,1,1,1,1,1,1,1,0,1,1,1,1,1,1,1,1,1,1,1,1,0,1,1,1,1,0,0,0,0,0,0,0,0,0,0,0,0,0,0,0,0,0,0,0,0,0,0,0,0,0,0,0,0,0,0,0,0,0,0,0,0,0,0,0,0,0,0,0,0,0,0,0,0,0,0,0,0,0,0,0,0,0,0],"id":7,"left_children":[1,3,5,7,9,11,13,15,17,19,21,23,25,27,29,31,33,35,37,39,41,43,45,47,49,51,53,55,57,59,61,63,65,67,69,-1,71,73,75,77,79,81,83,85,87,-1,89,91,93,95,97,99,101,103,105,107,109,111,-1,113,115,117,119,-1,-1,-1,-1,-1,-1,-1,-1,-1,-1,-1,-1,-1,-1,-1,-1,-1,-1,-1,-1,-1,-1,-1,-1,-1,-1,-1,-1,-1,-1,-1,-1,-1,-1,-1,-1,-1,-1,-1,-1,-1,-1,-1,-1,-1,-1,-1,-1,-1,-1,-1,-1,-1,-1,-1,-1,-1,-1],"loss_changes":[7.563281E1,7.592969E1,1.4273431E2,8.975E1,1.18507324E2,1.0883951E2,1.2573806E2,1.34625E2,1.354336E2,1.1381641E2,6.0984314E1,1.1083768E2,1.00806335E2,9.67383E1,1.1453078E2,1.14453125E2,1.1956787E2,1.3464053E2,1.3801074E2,1.4128448E2,1.3662451E2,3.0220034E1,3.9461624E1,1.14093704E2,6.6510765E1,6.6859344E1,8.083682E1,9.659297E1,8.789914E1,8.9079575E1,7.674536E1,1.517749E2,1.1616406E2,1.2771506E2,1.18976685E2,0E0,1.1341197E2,1.1389612E2,1.109707E2,7.84052E1,1.321225E2,1.1075293E2,1.15769745E2,1.555994E0,2.4841986E0,0E0,8.404724E0,6.59659E1,1.18968834E2,1.5035765E1,3.1722855E1,1.4672852E-1,7.9533863E-1,7.483331E1,5.913172E1,6.969792E1,4.112834E1,9.087333E1,0E0,2.1776241E1,4.6344284E1,4.324379E-1,8.137479E1,0E0,0E0,0E0,0E0,0E0,0E0,0E0,0E0,0E0,0E0,0E0,0E0,0E0,0E0,0E0,0E0,0E0,0E0,0E0,0E0,0E0,0E0,0E0,0E0,0E0,0E0,0E0,0E0,0E0,0E0,0E0,0E0,0E0,0E0,0E0,0E0,0E0,0E0,0E0,0E0,0E0,0E0,0E0,0E0,0E0,0E0,0E0,0E0,0E0,0E0,0E0,0E0,0E0,0E0,0E0,0E0,0E0,0E0],"parents":[2147483647,0,0,1,1,2,2,3,3,4,4,5,5,6,6,7,7,8,8,9,9,10,10,11,11,12,12,13,13,14,14,15,15,16,16,17,17,18,18,19,19,20,20,21,21,22,22,23,23,24,24,25,25,26,26,27,27,28,28,29,29,30,30,31,31,32,32,33,33,34,34,36,36,37,37,38,38,39,39,40,40,41,41,42,42,43,43,44,44,46,46,47,47,48,48,49,49,50,50,51,51,52,52,53,53,54,54,55,55,56,56,57,57,59,59,60,60,61,61,62,62],"right_children":[2,4,6,8,10,12,14,16,18,20,22,24,26,28,30,32,34,36,38,40,42,44,46,48,50,52,54,56,58,60,62,64,66,68,70,-1,72,74,76,78,80,82,84,86,88,-1,90,92,94,96,98,100,102,104,106,108,110,112,-1,114,116,118,120,-1,-1,-1,-1,-1,-1,-1,-1,-1,-1,-1,-1,-1,-1,-1,-1,-1,-1,-1,-1,-1,-1,-1,-1,-1,-1,-1,-1,-1,-1,-1,-1,-1,-1,-1,-1,-1,-1,-1,-1,-1,-1,-1,-1,-1,-1,-1,-1,-1,-1,-1,-1,-1,-1,-1,-1,-1,-1],"split_conditions":[9.971373E1,9.251389E1,8.671948E1,8.759359E1,9.995673E1,8.435794E1,4.3698273E1,8.636977E1,7.020699E0,1.9029535E1,2.1051552E1,9.7841385E1,4.1873746E0,6.307743E1,1.6403378E1,3.4558978E0,1.0138481E0,1.801701E-1,1.5905449E0,6.3228685E-1,8.156749E1,2.2083033E1,1.2959992E0,6.33902E0,1.3149279E1,8.795909E1,7.986389E1,7.618818E1,8.65117E1,5.1432243E1,3.9914784E0,4.2332764E0,3.1106785E-2,9.445682E1,2.9107147E1,1.105526E0,3.1293511E0,9.704424E1,9.9799126E1,1.4921495E1,3.8456998E0,9.2698216E-1,8.829056E1,9.7070274E1,5.5069077E1,-2.0359822E-1,3.0193577E1,9.5694534E1,8.6464264E1,7.093029E1,3.3417442E1,4.3790863E1,1.3585247E0,1.8216557E1,9.481773E1,9.322249E1,6.4228615E1,1.5896019E1,1.1250286E0,5.955348E1,9.1644135E1,5.7250458E1,9.675421E1,2.6363635E-1,1.3050961E-1,-1.2683222E-1,1.12376586E-1,5.676231E-1,-7.737417E-1,2.0825984E-1,1.2498842E-1,-1.9736908E-1,6.2246565E-2,2.2481965E-1,-3.593559E-1,1.050679E-1,-1.4757031E-1,-1.9370498E-1,6.728275E-1,-1.1019912E-1,7.4593484E-2,-7.093825E-2,1.16682254E-1,5.6977324E-2,1.7400646E-1,-6.185781E-1,-8.866353E-2,7.792497E-2,7.164717E-1,4.323489E-1,1.2073964E0,-3.9003018E-1,7.499405E-1,1.2053303E-1,-1.359125E-1,7.628847E-1,-3.1486452E-1,-1.886545E-1,-9.867467E-1,-5.129691E-1,-1.0078272E0,1.4698814E-1,6.8519914E-1,7.962501E-1,3.0553E-1,-1.7053822E-1,9.2252445E-1,5.745931E-1,-7.4979854E-1,1.3532536E-1,-8.4388787E-1,5.3625107E-1,-5.215265E-1,-5.6920475E-1,3.8295498E-1,1.0264732E0,-2.3671235E-1,7.6545894E-1,1.9389354E-1,-5.852527E-1,6.772833E-1],"split_indices":[113,8,81,25,60,120,54,25,102,53,35,53,1,37,86,86,104,95,37,32,55,12,11,83,84,48,90,69,1,37,124,101,7,71,97,0,121,59,60,59,121,122,81,1,2,0,119,89,40,0,38,17,1,2,55,22,77,72,0,3,22,1,5,0,0,0,0,0,0,0,0,0,0,0,0,0,0,0,0,0,0,0,0,0,0,0,0,0,0,0,0,0,0,0,0,0,0,0,0,0,0,0,0,0,0,0,0,0,0,0,0,0,0,0,0,0,0,0,0,0,0],"split_type":[0,0,0,0,0,0,0,0,0,0,0,0,0,0,0,0,0,0,0,0,0,0,0,0,0,0,0,0,0,0,0,0,0,0,0,0,0,0,0,0,0,0,0,0,0,0,0,0,0,0,0,0,0,0,0,0,0,0,0,0,0,0,0,0,0,0,0,0,0,0,0,0,0,0,0,0,0,0,0,0,0,0,0,0,0,0,0,0,0,0,0,0,0,0,0,0,0,0,0,0,0,0,0,0,0,0,0,0,0,0,0,0,0,0,0,0,0,0,0,0,0],"sum_hessian":[6.7E5,6.68108E5,1.892E3,6.17618E5,5.049E4,1.638E3,2.54E2,5.40661E5,7.6957E4,5.0463E4,2.7E1,1.391E3,2.47E2,1.19E2,1.35E2,5.3299E5,7.671E3,5.397E3,7.156E4,9.661E3,4.0802E4,7E0,2E1,1.365E3,2.6E1,1.3E1,2.34E2,6.7E1,5.2E1,2.4E1,1.11E2,1.8498E4,5.14492E5,9.9E1,7.572E3,1E1,5.387E3,1.15E3,7.041E4,6.2E1,9.599E3,3.3265E4,7.537E3,4E0,3E0,2E0,1.8E1,6.8E1,1.297E3,4E0,2.2E1,1E1,3E0,1.9E2,4.4E1,5.3E1,1.4E1,4.9E1,3E0,1.1E1,1.3E1,4E0,1.07E2,8.06E2,1.7692E4,1.82E2,5.1431E5,9.3E1,6E0,2.167E3,5.405E3,1.55E2,5.232E3,1.12E3,3E1,7.0254E4,1.56E2,1.1E1,5.1E1,3.61E2,9.238E3,2.85E2,3.298E4,6.679E3,8.58E2,3E0,1E0,1E0,2E0,3E0,1.5E1,6.4E1,4E0,1.107E3,1.9E2,3E0,1E0,7E0,1.5E1,4E0,6E0,1E0,2E0,3.4E1,1.56E2,4E1,4E0,5E1,3E0,7E0,7E0,8E0,4.1E1,9E0,2E0,1E1,3E0,3E0,1E0,1.03E2,4E0],"tree_param":{"num_deleted":"0","num_feature":"125","num_nodes":"121","size_leaf_vector":"0"}},{"base_weights":[2.5957972E-1,2.5995618E-1,-3.7108224E-2,2.5674897E-1,2.9706785E-1,-1.3482757E-1,1.4349133E0,2.570967E-1,-2.2475654E-1,3.2031292E-1,1.8602441E-1,-2.2044924E-1,1.5371544E0,-9.993605E-1,2.0242643E0,1.0628657E0,2.569064E-1,5.946671E-1,-5.3961295E-1,-1.1844304E-1,3.2589918E-1,1.6442935E-1,7.018187E-1,-1.4698642E-1,-1.9432685E0,3.4068954E0,3.5382378E-1,-2.3738236E0,1.999406E0,2.4941385E0,-7.485357E-1,-1.8209535E0,1.2899705E0,1.24872826E-1,2.5804457E-1,2.0193927E0,-1.0781408E-1,-1.555346E-1,-1.3318937E0,-2.127656E-1,2.7020934E0,4.4692984E-1,3.0494866E-1,1.2884168E-1,5.140065E-1,4.383218E-1,1.9548146E0,-2.1223955E-1,1.8680654E0,-1.6069122E-1,-2.9156516E0,1.6783217E0,3.8828928E0,-1.4521668E0,1.8765426E0,-2.6923976E0,-7.190275E-2,2.3344452E0,4.9714398E-1,2.667393E-1,2.9166434E0,-2.5682707E0,4.9301252E-1,-2.6525593E0,-2.9251465E-1,-9.002115E-1,1.5508199E0,1.4256085E-1,-1.3136781E0,2.6427048E-1,2.363454E-1,2.981277E-1,3.1090772E0,-1.6715162E0,8.8660866E-1,1.3342867E0,-4.4776428E-1,2.6902905E0,-1.5178246E0,6.985689E-1,-4.627704E-1,7.7271336E-1,3.3847232E0,4.9234894E-1,-8.172343E-2,3.5238522E-1,2.2946145E-1,1.717854E-1,-1.8536772E-1,2.9452306E-1,1.0973188E0,-3.000213E-1,9.0088534E-1,3.8102028E-1,2.6108384E0,-6.03429E-1,1.0827758E-1,-1.3620061E0,2.4206765E0,-1.2109054E0,1.0913405E0,4.1981537E-2,-3.2466097E0,5.504279E-1,-2.1808572E0,-6.099207E-2,3.3373177E0,-7.548639E-1,8.263534E-1,2.6502857E-1,3.2996593E0,-3.73281E-1,1.1949686E0],"categories":[],"categories_nodes":[],"categories_segments":[],"categories_sizes":[],"default_left":[1,1,1,1,1,1,1,1,1,1,1,1,1,1,1,1,1,1,1,1,1,1,1,1,1,1,1,1,1,1,1,1,1,1,1,1,1,1,1,1,1,1,1,1,1,1,1,1,1,1,1,0,0,1,1,0,0,0,0,1,1,0,1,0,0,0,0,0,0,0,0,0,0,0,0,0,0,0,0,0,0,0,0,0,0,0,0,0,0,0,0,0,0,0,0,0,0,0,0,0,0,0,0,0,0,0,0,0,0,0,0,0,0],"id":8,"left_children":[1,3,5,7,9,11,13,15,17,19,21,23,25,27,29,31,33,35,37,39,41,43,45,47,49,51,53,55,57,59,61,63,65,67,69,71,73,75,77,79,81,83,85,87,89,91,93,95,97,99,101,-1,-1,103,105,-1,-1,-1,-1,107,109,-1,111,-1,-1,-1,-1,-1,-1,-1,-1,-1,-1,-1,-1,-1,-1,-1,-1,-1,-1,-1,-1,-1,-1,-1,-1,-1,-1,-1,-1,-1,-1,-1,-1,-1,-1,-1,-1,-1,-1,-1,-1,-1,-1,-1,-1,-1,-1,-1,-1,-1,-1],"loss_changes":[7.485156E1,7.956641E1,1.224617E2,1.0318359E2,1.3731738E2,1.1457886E2,7.805898E1,9.409766E1,1.15131256E2,1.0790234E2,1.0252692E2,9.590236E1,8.50829E1,5.0084873E1,5.7890198E1,9.731369E1,9.244141E1,1.2432225E2,9.777676E1,1.4796118E2,1.1005078E2,1.0998361E2,1.21302536E2,9.638302E1,5.326526E1,5.8251953E0,7.147545E1,5.673069E0,8.527136E-1,3.404225E1,1.7081211E1,1.3205738E1,7.852255E1,1.3405414E2,8.235547E1,7.597417E1,1.3210037E2,9.55081E1,8.26075E1,1.226723E2,2.1091522E1,1.5395044E2,1.3257544E2,1.0838321E2,1.0427519E2,1.0512018E2,6.50818E1,8.883644E1,4.435135E1,1.7100328E1,1.9713364E1,0E0,0E0,1.871166E1,3.9827778E1,0E0,0E0,0E0,0E0,4.625709E0,3.0609436E1,0E0,3.4865584E0,0E0,0E0,0E0,0E0,0E0,0E0,0E0,0E0,0E0,0E0,0E0,0E0,0E0,0E0,0E0,0E0,0E0,0E0,0E0,0E0,0E0,0E0,0E0,0E0,0E0,0E0,0E0,0E0,0E0,0E0,0E0,0E0,0E0,0E0,0E0,0E0,0E0,0E0,0E0,0E0,0E0,0E0,0E0,0E0,0E0,0E0,0E0,0E0,0E0,0E0],"parents":[2147483647,0,0,1,1,2,2,3,3,4,4,5,5,6,6,7,7,8,8,9,9,10,10,11,11,12,12,13,13,14,14,15,15,16,16,17,17,18,18,19,19,20,20,21,21,22,22,23,23,24,24,25,25,26,26,27,27,28,28,29,29,30,30,31,31,32,32,33,33,34,34,35,35,36,36,37,37,38,38,39,39,40,40,41,41,42,42,43,43,44,44,45,45,46,46,47,47,48,48,49,49,50,50,53,53,54,54,59,59,60,60,62,62],"right_children":[2,4,6,8,10,12,14,16,18,20,22,24,26,28,30,32,34,36,38,40,42,44,46,48,50,52,54,56,58,60,62,64,66,68,70,72,74,76,78,80,82,84,86,88,90,92,94,96,98,100,102,-1,-1,104,106,-1,-1,-1,-1,108,110,-1,112,-1,-1,-1,-1,-1,-1,-1,-1,-1,-1,-1,-1,-1,-1,-1,-1,-1,-1,-1,-1,-1,-1,-1,-1,-1,-1,-1,-1,-1,-1,-1,-1,-1,-1,-1,-1,-1,-1,-1,-1,-1,-1,-1,-1,-1,-1,-1,-1,-1,-1],"split_conditions":[9.987465E1,9.1929985E1,9.370087E1,9.992246E1,8.3007095E1,9.564389E1,2.4304972E1,2.1204656E-2,3.0374697E1,1.2249199E0,9.592912E1,9.603571E1,4.4685318E1,4.0613075E1,8.711427E1,7.2197404E0,8.642049E-1,3.4154358E1,7.0367676E1,9.603527E1,1.4790726E1,9.111935E1,8.13125E1,9.627698E1,3.9655483E1,1.3785169E1,3.1217907E1,7.716437E1,3.445739E1,1.734969E1,9.634651E0,6.212805E1,1.1197332E1,9.890454E1,7.7642044E1,3.9198177E1,4.2210045E1,1.3986476E1,3.8678167E0,2.1899075E1,3.5564674E1,9.269452E1,6.13238E1,8.772404E1,7.140529E1,4.00654E1,2.8237946E1,4.3066357E1,1.9865368E1,9.798699E1,5.787162E0,5.034965E-1,1.1648679E0,7.659731E0,3.459539E1,-8.077193E-1,-2.1570826E-2,7.003336E-1,1.491432E-1,5.9537334E0,1.9684902E1,-7.704812E-1,5.6299194E1,-7.9576784E-1,-8.77544E-2,-2.7006346E-1,4.65246E-1,4.276826E-2,-3.9410347E-1,7.928115E-2,7.090362E-2,8.943832E-2,9.327232E-1,-5.014549E-1,2.659826E-1,4.0028602E-1,-1.3432929E-1,8.070872E-1,-4.5534742E-1,2.0957068E-1,-1.3883112E-1,2.3181401E-1,1.015417E0,1.4770469E-1,-2.451703E-2,1.0571557E-1,6.883844E-2,5.153562E-2,-5.5610318E-2,8.835692E-2,3.2919565E-1,-9.000639E-2,2.702656E-1,1.14306085E-1,7.832516E-1,-1.8102871E-1,3.2483276E-2,-4.0860185E-1,7.2620296E-1,-3.6327165E-1,3.2740217E-1,1.2594461E-2,-9.7398293E-1,1.6512838E-1,-6.542572E-1,-1.8297622E-2,1.0011953E0,-2.2645919E-1,2.4790601E-1,7.950857E-2,9.898978E-1,-1.11984305E-1,3.584906E-1],"split_indices":[31,31,123,35,101,113,62,42,106,28,36,22,86,56,73,9,77,15,110,13,27,116,67,15,115,60,85,1,0,67,5,103,30,88,33,22,1,52,25,71,98,91,67,0,85,99,45,68,11,22,23,0,0,22,1,0,0,0,0,3,40,0,7,0,0,0,0,0,0,0,0,0,0,0,0,0,0,0,0,0,0,0,0,0,0,0,0,0,0,0,0,0,0,0,0,0,0,0,0,0,0,0,0,0,0,0,0,0,0,0,0,0,0],"split_type":[0,0,0,0,0,0,0,0,0,0,0,0,0,0,0,0,0,0,0,0,0,0,0,0,0,0,0,0,0,0,0,0,0,0,0,0,0,0,0,0,0,0,0,0,0,0,0,0,0,0,0,0,0,0,0,0,0,0,0,0,0,0,0,0,0,0,0,0,0,0,0,0,0,0,0,0,0,0,0,0,0,0,0,0,0,0,0,0,0,0,0,0,0,0,0,0,0,0,0,0,0,0,0,0,0,0,0,0,0,0,0,0,0],"sum_hessian":[6.7E5,6.69151E5,8.49E2,6.1593E5,5.3221E4,7.97E2,5.2E1,6.15486E5,4.44E2,4.4007E4,9.214E3,7.59E2,3.8E1,1E1,4.2E1,1.44E2,6.15342E5,1.23E2,3.21E2,5.53E2,4.3454E4,8.845E3,3.69E2,7.29E2,3E1,1.4E1,2.4E1,7E0,3E0,3.6E1,6E0,1E1,1.34E2,5.26E3,6.10082E5,4E1,8.3E1,2.17E2,1.04E2,5.36E2,1.7E1,6.409E3,3.7045E4,8.029E3,8.16E2,3.06E2,6.3E1,7.07E2,2.2E1,1.1E1,1.9E1,4E0,1E1,1.1E1,1.3E1,6E0,1E0,2E0,1E0,6E0,3E1,2E0,4E0,6E0,4E0,1.4E1,1.2E2,5.197E3,6.3E1,4.74055E5,1.36027E5,1.6E1,2.4E1,3.2E1,5.1E1,3.5E1,1.82E2,4E0,1E2,1.15E2,4.21E2,5E0,1.2E1,5.902E3,5.07E2,2.2747E4,1.4298E4,7.064E3,9.65E2,5.94E2,2.22E2,1.18E2,1.88E2,1.9E1,4.4E1,3.18E2,3.89E2,3E0,1.9E1,6E0,5E0,2E0,1.7E1,3E0,8E0,6E0,7E0,2E0,4E0,4E0,2.6E1,2E0,2E0],"tree_param":{"num_deleted":"0","num_feature":"125","num_nodes":"113","size_leaf_vector":"0"}},{"base_weights":[1.817139E-1,1.8194543E-1,-2.8305107E-1,1.5834527E-1,1.8647248E-1,-4.6091712E-1,1.2999116E0,-7.1232796E-1,1.592737E-1,3.6797125E0,1.8640375E-1,8.337077E-2,-9.81006E-1,1.8388764E0,-2.1938596E0,2.8427274E0,-1.0409905E0,7.396783E-2,1.6855761E-1,4.1161146E0,1.1439357E0,1.2265244E-1,1.8940824E-1,6.078372E-1,-1.254755E0,-3.745724E-1,-1.9248425E0,4.9394438E-1,2.8382983E0,-2.5155077E0,-4.5363355E-1,5.660925E-1,3.7375576E0,1.9360187E0,-1.406076E0,6.782913E-2,1.9197778E0,7.3059916E-1,1.6651113E-1,1.2866741E-1,-6.898991E-1,1.9002083E-1,-1.4019687E-1,1.9401398E-1,2.293303E0,-1.8884244E0,1.6743934E0,-7.424688E-1,2.5023155E0,-2.5278835E0,-3.7730908E-1,1.3327259E0,-1.2824074E0,3.2823222E0,1.1161766E0,9.3235683E-1,-2.6635027E-1,-1.6278007E0,2.407984E0,-6.674429E-1,-2.5980732E0,6.3451625E-2,2.2566886E0,2.5733907E0,-1.6682507E0,9.357789E-1,-8.485884E-1,1.6304316E-1,4.8865554E-1,1.18682794E-1,6.439555E-1,5.6426406E-1,-1.0824867E0,1.9237022E-1,1.0750922E-1,5.994273E-2,-7.849682E-1,-1.5146763E0,7.956427E-1,3.4877973E0,-5.939418E-1,-2.8939426E0,3.583255E-2,-3.819456E-1,2.0227196E0,-1.1182761E0,1.8873508E0,-1.6129649E0,3.07514E0,-2.741385E0,-7.5439364E-1,8.228275E-1,-1.9803333E0,4.4469738E-1,2.131815E0,-1.8587986E0,-2.7854714E-1],"categories":[],"categories_nodes":[],"categories_segments":[],"categories_sizes":[],"default_left":[1,1,1,1,1,1,1,1,1,1,1,1,1,1,1,1,1,1,1,0,0,1,1,1,1,1,1,1,1,0,0,1,0,1,1,1,1,1,1,1,1,1,1,1,1,1,1,1,1,1,1,1,1,0,0,0,0,0,0,0,0,0,0,0,0,0,0,0,0,0,0,0,0,0,0,0,0,0,0,0,0,0,0,0,0,0,0,0,0,0,0,0,0,0,0,0,0],"id":9,"left_children":[1,3,5,7,9,11,13,15,17,19,21,23,25,27,29,31,33,35,37,-1,-1,39,41,43,45,47,49,51,53,-1,-1,55,-1,57,59,61,63,65,67,69,71,73,75,77,79,81,83,85,87,89,91,93,95,-1,-1,-1,-1,-1,-1,-1,-1,-1,-1,-1,-1,-1,-1,-1,-1,-1,-1,-1,-1,-1,-1,-1,-1,-1,-1,-1,-1,-1,-1,-1,-1,-1,-1,-1,-1,-1,-1,-1,-1,-1,-1,-1,-1],"loss_changes":[7.214844E1,7.1515625E1,9.4638626E1,8.724609E1,1.3419922E2,8.528829E1,6.8056915E1,1.373268E2,8.526318E1,7.4642334E0,1.0759766E2,1.04629395E2,8.742462E1,3.8922676E1,1.6575851E0,1.8256218E1,1.17929634E2,1.19637054E2,1.1157031E2,0E0,0E0,1.2369791E2,1.0836914E2,7.418596E1,8.111866E1,1.0240557E2,5.5039764E1,2.256869E1,9.335617E0,0E0,0E0,1.4679102E0,0E0,2.4103718E1,8.190854E1,1.00810135E2,8.637445E1,1.14848175E2,1.0801367E2,1.2909283E2,9.219144E1,1.0380469E2,1.2857516E2,9.064089E1,7.44963E1,6.7824326E1,6.5027866E0,8.611655E1,3.0890755E1,1.4213593E1,3.6258736E1,6.1481266E0,2.3753176E0,0E0,0E0,0E0,0E0,0E0,0E0,0E0,0E0,0E0,0E0,0E0,0E0,0E0,0E0,0E0,0E0,0E0,0E0,0E0,0E0,0E0,0E0,0E0,0E0,0E0,0E0,0E0,0E0,0E0,0E0,0E0,0E0,0E0,0E0,0E0,0E0,0E0,0E0,0E0,0E0,0E0,0E0,0E0,0E0],"parents":[2147483647,0,0,1,1,2,2,3,3,4,4,5,5,6,6,7,7,8,8,9,9,10,10,11,11,12,12,13,13,14,14,15,15,16,16,17,17,18,18,21,21,22,22,23,23,24,24,25,25,26,26,27,27,28,28,31,31,33,33,34,34,35,35,36,36,37,37,38,38,39,39,40,40,41,41,42,42,43,43,44,44,45,45,46,46,47,47,48,48,49,49,50,50,51,51,52,52],"right_children":[2,4,6,8,10,12,14,16,18,20,22,24,26,28,30,32,34,36,38,-1,-1,40,42,44,46,48,50,52,54,-1,-1,56,-1,58,60,62,64,66,68,70,72,74,76,78,80,82,84,86,88,90,92,94,96,-1,-1,-1,-1,-1,-1,-1,-1,-1,-1,-1,-1,-1,-1,-1,-1,-1,-1,-1,-1,-1,-1,-1,-1,-1,-1,-1,-1,-1,-1,-1,-1,-1,-1,-1,-1,-1,-1,-1,-1,-1,-1,-1,-1],"split_conditions":[9.995097E1,1.6080662E1,9.002453E1,1.0412797E-1,2.5643508E-3,5.251799E1,8.14855E1,8.800236E0,9.897126E0,8.154219E1,4.5214233E0,8.034651E1,6.366833E1,3.508496E1,7.430677E1,5.2285465E1,7.116061E0,9.972061E1,1.0208517E1,1.2348344E0,3.4318072E-1,9.921539E1,9.9822525E1,8.444362E1,6.521793E1,9.360539E1,6.3210724E1,5.06844E1,7.35083E1,-7.546523E-1,-1.3609007E-1,6.0048824E1,1.1212673E0,2.7741668E0,5.864239E1,9.976643E1,8.537138E1,9.016104E1,9.893042E1,9.816649E1,2.1546537E1,9.721272E1,7.7918785E1,2.3548424E1,6.6342285E1,6.235417E1,1.5813557E1,8.683047E1,6.948186E0,9.505285E1,5.255512E1,5.5398293E1,2.8184826E1,9.846967E-1,3.34853E-1,2.7970707E-1,-7.9905085E-2,-4.8834023E-1,7.2239524E-1,-2.0023288E-1,-7.79422E-1,1.9035488E-2,6.770066E-1,7.7201724E-1,-5.004752E-1,2.8073367E-1,-2.5457653E-1,4.891295E-2,1.4659667E-1,3.560484E-2,1.9318667E-1,1.6927922E-1,-3.2474604E-1,5.771107E-2,3.2252766E-2,1.798282E-2,-2.3549047E-1,-4.5440292E-1,2.386928E-1,1.0463393E0,-1.7818254E-1,-8.6818284E-1,1.0749766E-2,-1.14583686E-1,6.0681593E-1,-3.3548284E-1,5.6620526E-1,-4.838895E-1,9.2254204E-1,-8.2241553E-1,-2.263181E-1,2.4684827E-1,-5.941E-1,1.3340922E-1,6.395445E-1,-5.576396E-1,-8.356415E-2],"split_indices":[76,61,17,76,54,85,66,60,72,60,106,79,0,75,2,2,104,9,72,0,0,119,105,93,91,85,75,44,99,0,0,0,0,1,56,124,25,53,23,29,2,88,64,111,14,77,2,1,2,69,24,66,1,0,0,0,0,0,0,0,0,0,0,0,0,0,0,0,0,0,0,0,0,0,0,0,0,0,0,0,0,0,0,0,0,0,0,0,0,0,0,0,0,0,0,0,0],"split_type":[0,0,0,0,0,0,0,0,0,0,0,0,0,0,0,0,0,0,0,0,0,0,0,0,0,0,0,0,0,0,0,0,0,0,0,0,0,0,0,0,0,0,0,0,0,0,0,0,0,0,0,0,0,0,0,0,0,0,0,0,0,0,0,0,0,0,0,0,0,0,0,0,0,0,0,0,0,0,0,0,0,0,0,0,0,0,0,0,0,0,0,0,0,0,0,0,0],"sum_hessian":[6.7E5,6.69667E5,3.33E2,1.07788E5,5.61879E5,3E2,3.3E1,1.14E2,1.07674E5,1E1,5.61869E5,1.47E2,1.53E2,2.9E1,4E0,9E0,1.05E2,1.0569E4,9.7105E4,8E0,2E0,2.529E4,5.36579E5,1.06E2,4.1E1,9.4E1,5.9E1,1.3E1,1.6E1,3E0,1E0,3E0,6E0,1.1E1,9.4E1,1.0535E4,3.4E1,3.51E2,9.6754E4,2.5105E4,1.85E2,5.35584E5,9.95E2,8.6E1,2E1,3.4E1,7E0,8.4E1,1E1,4.2E1,1.7E1,9E0,4E0,1.2E1,4E0,2E0,1E0,1E0,1E1,5.9E1,3.5E1,1.0515E4,2E1,2.9E1,5E0,3.11E2,4E1,9.5725E4,1.029E3,2.4629E4,4.76E2,4.4E1,1.41E2,5.20755E5,1.4829E4,7.6E2,2.35E2,2.2E1,6.4E1,1.4E1,6E0,2.2E1,1.2E1,1E0,6E0,7.4E1,1E1,1E0,9E0,3.7E1,5E0,1E1,7E0,5E0,4E0,2E0,2E0],"tree_param":{"num_deleted":"0","num_feature":"125","num_nodes":"97","size_leaf_vector":"0"}},{"base_weights":[1.2720476E-1,1.2756656E-1,-1.6500242E-1,1.2816212E-1,-5.6912396E-2,2.11567E0,-2.2111161E-1,1.1310553E-1,1.3557218E-1,1.3782408E0,-9.728316E-2,2.8461475E0,-1.5177772E0,-1.0413694E0,-9.3434654E-2,2.0258133E-1,1.04146376E-1,-8.9868915E-1,1.3583107E-1,6.8714574E-2,2.6418257E0,-3.43725E-2,-9.4351995E-1,4.848572E-1,3.3175056E0,-1.5637541E-1,-1.9194527E0,-1.429968E0,1.0026544E0,-1.6794156E-1,1.5811181E0,2.5295714E-1,6.660183E-2,4.3053007E-1,1.0249737E-1,1.6449498E0,-1.249318E0,1.3736472E-1,-1.2314204E-2,1.3512008E0,-1.9676148E0,3.8116148E0,1.217929E0,-7.2957546E-2,1.3768687E0,-1.3379451E0,5.5010617E-1,1.2487868E0,3.7681756E0,2.1611025E0,-1.6611916E0,2.729366E0,-1.0273201E0,-2.0070954E-1,3.508217E0,2.3126333E0,-2.5389848E0,6.9816285E-1,2.3244451E-1,-8.852578E-2,2.1167058E-1,2.273903E0,3.616724E-1,1.0353194E-1,-4.300493E-1,-2.1178458E0,2.4485695E0,-5.967806E-1,-2.4254782E0,-2.6074784E0,1.3743888E-1,7.3419005E-2,-3.9080265E-1,-7.101189E-3,2.8612142E0,-1.9848824E-3,-2.9501817E0,7.676315E-2,4.055487E0,-1.8576444E0,2.1416261E0,-1.2340233E0,-2.9211503E-2,1.8504215E0,-1.9317455E0,-1.7684076E-2,-2.0418484E0,-4.7610113E-1,2.7527516E0,2.8015013E0,5.8687E-1,5.7294923E-1,-1.9920928E0,1.2057537E0,3.5441487E0,2.8150797E-1,-2.1306841E0,2.5465157E0,-2.4209276E-1,2.7225301E0,-6.224317E-1],"categories":[],"categories_nodes":[],"categories_segments":[],"categories_sizes":[],"default_left":[1,1,1,1,1,1,1,1,1,1,1,1,1,1,1,1,1,1,1,1,1,1,1,0,1,0,0,1,1,1,1,1,1,1,1,1,1,1,1,1,1,1,1,1,1,1,1,0,0,1,1,1,1,1,0,1,0,0,0,0,0,0,0,0,0,0,0,0,0,0,0,0,0,0,0,0,0,0,0,0,0,0,0,0,0,0,0,0,0,0,0,0,0,0,0,0,0,0,0,0,0],"id":10,"left_children":[1,3,5,7,9,11,13,15,17,19,21,23,25,27,29,31,33,35,37,39,41,43,45,-1,47,-1,-1,49,51,53,55,57,59,61,63,65,67,69,71,73,75,77,79,81,83,85,87,-1,-1,89,91,93,95,97,-1,99,-1,-1,-1,-1,-1,-1,-1,-1,-1,-1,-1,-1,-1,-1,-1,-1,-1,-1,-1,-1,-1,-1,-1,-1,-1,-1,-1,-1,-1,-1,-1,-1,-1,-1,-1,-1,-1,-1,-1,-1,-1,-1,-1,-1,-1],"loss_changes":[7.085547E1,7.352539E1,1.0655218E2,7.44043E1,1.24933044E2,5.7402847E1,8.473241E1,1.763418E2,1.1981836E2,9.744561E1,1.11552986E2,1.7312714E1,1.8872108E0,8.8012955E1,8.785108E1,1.3714221E2,1.0758911E2,1.0194485E2,1.01538086E2,8.100558E1,4.5327484E1,1.06392334E2,8.615895E1,0E0,8.34668E0,0E0,0E0,7.998131E1,6.589719E1,8.177392E1,9.628926E1,1.3326117E2,1.2185629E2,1.26742645E2,1.0967383E2,4.7519688E1,7.4533905E1,9.0393555E1,1.4864525E2,3.8990353E1,2.3170506E1,1.4261932E1,4.659185E1,9.65196E1,8.504834E1,1.0683754E2,7.138209E1,0E0,0E0,4.4046993E0,6.5458725E1,8.140755E0,1.359683E1,7.656076E1,0E0,3.2974518E1,0E0,0E0,0E0,0E0,0E0,0E0,0E0,0E0,0E0,0E0,0E0,0E0,0E0,0E0,0E0,0E0,0E0,0E0,0E0,0E0,0E0,0E0,0E0,0E0,0E0,0E0,0E0,0E0,0E0,0E0,0E0,0E0,0E0,0E0,0E0,0E0,0E0,0E0,0E0,0E0,0E0,0E0,0E0,0E0,0E0],"parents":[2147483647,0,0,1,1,2,2,3,3,4,4,5,5,6,6,7,7,8,8,9,9,10,10,11,11,12,12,13,13,14,14,15,15,16,16,17,17,18,18,19,19,20,20,21,21,22,22,24,24,27,27,28,28,29,29,30,30,31,31,32,32,33,33,34,34,35,35,36,36,37,37,38,38,39,39,40,40,41,41,42,42,43,43,44,44,45,45,46,46,49,49,50,50,51,51,52,52,53,53,55,55],"right_children":[2,4,6,8,10,12,14,16,18,20,22,24,26,28,30,32,34,36,38,40,42,44,46,-1,48,-1,-1,50,52,54,56,58,60,62,64,66,68,70,72,74,76,78,80,82,84,86,88,-1,-1,90,92,94,96,98,-1,100,-1,-1,-1,-1,-1,-1,-1,-1,-1,-1,-1,-1,-1,-1,-1,-1,-1,-1,-1,-1,-1,-1,-1,-1,-1,-1,-1,-1,-1,-1,-1,-1,-1,-1,-1,-1,-1,-1,-1,-1,-1,-1,-1,-1,-1],"split_conditions":[9.987444E1,9.967891E1,2.139921E0,3.2991215E1,2.3932424E0,8.026688E1,1.4651521E1,9.103819E0,2.4019063E-2,4.4977272E1,9.2550735E1,1.37940445E1,2.8494175E1,7.903671E1,9.591656E1,7.333301E1,5.073916E-1,1.648755E1,9.898399E1,5.185768E1,4.9135616E1,9.723056E1,8.193216E1,1.4545716E-1,9.747328E0,-4.6912625E-2,-5.758358E-1,6.204898E0,4.4981873E1,9.845065E1,8.048874E1,4.1664605E0,4.7209137E1,3.7577286E0,9.9815765E1,2.3058773E1,5.8121964E1,1.8415966E-3,8.1652664E1,6.07465E1,1.490386E1,1.4316721E0,1.8566227E1,3.2978878E0,8.558861E1,3.6700394E1,6.704207E1,3.7463605E-1,1.1304528E0,6.57603E1,1.7520927E1,5.2693718E1,7.1161736E1,1.2708597E0,1.0524652E0,9.2010506E1,-7.6169544E-1,2.0944886E-1,6.973336E-2,-2.6557734E-2,6.350118E-2,6.8217087E-1,1.08501725E-1,3.1059584E-2,-1.2901479E-1,-6.3535374E-1,7.3457086E-1,-1.7903419E-1,-7.276435E-1,-7.8224355E-1,4.1231666E-2,2.2025703E-2,-1.172408E-1,-2.1303569E-3,8.583643E-1,-5.954647E-4,-8.850545E-1,2.3028947E-2,1.2166462E0,-5.5729336E-1,6.424879E-1,-3.70207E-1,-8.763451E-3,5.551265E-1,-5.795237E-1,-5.305223E-3,-6.1255455E-1,-1.4283034E-1,8.258255E-1,8.404504E-1,1.76061E-1,1.7188478E-1,-5.976279E-1,3.617261E-1,1.0632447E0,8.445239E-2,-6.392053E-1,7.6395476E-1,-7.262783E-2,8.1675905E-1,-1.8672952E-1],"split_indices":[22,16,12,117,4,42,111,56,76,121,14,110,0,64,81,101,104,90,121,63,50,52,53,0,97,0,0,124,31,17,69,82,39,27,105,21,99,100,57,8,79,1,110,40,118,113,108,0,0,2,84,5,66,40,0,32,0,0,0,0,0,0,0,0,0,0,0,0,0,0,0,0,0,0,0,0,0,0,0,0,0,0,0,0,0,0,0,0,0,0,0,0,0,0,0,0,0,0,0,0,0],"split_type":[0,0,0,0,0,0,0,0,0,0,0,0,0,0,0,0,0,0,0,0,0,0,0,0,0,0,0,0,0,0,0,0,0,0,0,0,0,0,0,0,0,0,0,0,0,0,0,0,0,0,0,0,0,0,0,0,0,0,0,0,0,0,0,0,0,0,0,0,0,0,0,0,0,0,0,0,0,0,0,0,0,0,0,0,0,0,0,0,0,0,0,0,0,0,0,0,0,0,0,0,0],"sum_hessian":[6.7E5,6.69172E5,8.28E2,6.67019E5,2.153E3,1.9E1,8.09E2,2.20005E5,4.47014E5,5.8E1,2.095E3,1.6E1,3E0,1.08E2,7.01E2,2.0022E4,1.99983E5,1.11E2,4.46903E5,2.9E1,2.9E1,1.951E3,1.44E2,3E0,1.3E1,1E0,2E0,9.1E1,1.7E1,6.72E2,2.9E1,1.4609E4,5.413E3,1.004E3,1.98979E5,1.3E1,9.8E1,4.42324E5,4.579E3,1.8E1,1.1E1,1.5E1,1.4E1,1.9E3,5.1E1,1.14E2,3E1,3E0,1E1,5E0,8.6E1,9E0,8E0,6.67E2,5E0,2.5E1,4E0,6.42E2,1.3967E4,2.616E3,2.797E3,3.5E1,9.69E2,1.98594E5,3.85E2,2E0,1.1E1,6.4E1,3.4E1,1.1E1,4.42313E5,3.734E3,8.45E2,1E1,8E0,4E0,7E0,1E0,1.4E1,3E0,1.1E1,6.8E1,1.832E3,4.5E1,6E0,4E1,7.4E1,2.1E1,9E0,3E0,2E0,1.1E1,7.5E1,4E0,5E0,4E0,4E0,9E0,6.58E2,2.2E1,3E0],"tree_param":{"num_deleted":"0","num_feature":"125","num_nodes":"101","size_leaf_vector":"0"}},{"base_weights":[8.904991E-2,9.154651E-2,4.826749E-2,2.225307E-1,9.0581864E-2,4.9674716E-2,-2.3173552E0,6.843797E-1,1.4226998E-1,-3.4173235E-1,9.087231E-2,-1.480963E-2,9.8178305E-2,1.251436E0,-3.1345446E0,9.4636016E-2,1.0311483E0,9.1700804E-1,9.876327E-2,-1.771696E-1,-1.616831E0,9.111579E-2,-4.108073E-1,1.7789397E-1,-5.150413E-2,1.6936944E-1,2.0354785E-2,1.510675E0,1.072402E-1,-3.6462104E0,-3.0424488E-1,-3.9324522E-1,8.6246264E-1,2.3826346E0,8.2657665E-1,-9.654606E-1,1.1213193E0,-6.6188157E-1,1.3264152E-1,-1.2974746E0,1.5936462E-2,-2.775895E0,-4.3945593E-1,8.999581E-2,1.9723621E-1,2.1718225E0,-5.523688E-1,1.3854274E0,1.3835673E-1,-2.6337138E-1,-1.0198322E-2,1.9490463E-1,-2.5982025E-1,4.3752873E-1,-5.644393E-3,-1.4600896E0,-3.8542213E0,9.097533E-1,-1.0121621E0,-6.86006E-1,1.1682618E0,1.1700985E0,-1.4654064E0,4.652826E-2,2.9526489E0,-1.5168939E0,9.3524635E-1,-2.2021842E0,2.4933794E0,1.4610542E0,-2.2281611E-1,-2.4805517E0,-3.9734378E-1,2.3973836E-1,-1.4099285E-1,1.0135474E0,-1.8982652E0,-2.3292809E0,1.552037E-1,-3.154346E0,9.24709E-1,5.6650937E-1,-2.2907841E0,9.0781674E-2,-6.6541195E-2,1.2569658E0,1.7923844E-1,-2.127799E0,2.93804E0,-1.202692E0,4.1690215E-2,-1.7334582E-1,2.0488625E0,1.6020108E-2,5.8659923E-1,-1.7562608E-1,-7.9640305E-1,-5.3643133E-2,2.781317E-1,1.106148E-1,3.232805E-1,-1.750939E-1,-2.360808E0,6.3712037E-1,-4.5046517E-1,-9.461162E-2,1.3523537E-1],"categories":[],"categories_nodes":[],"categories_segments":[],"categories_sizes":[],"default_left":[1,1,1,1,1,1,1,1,1,1,1,1,1,1,1,1,1,1,1,1,1,1,1,1,1,1,1,0,0,1,1,1,1,1,1,1,1,1,1,1,1,1,1,1,1,1,1,1,1,1,1,1,1,1,1,0,0,0,0,0,0,0,0,0,0,0,0,0,0,0,0,0,0,0,0,0,0,0,0,0,0,0,0,0,0,0,0,0,0,0,0,0,0,0,0,0,0,0,0,0,0,0,0,0,0,0,0],"id":11,"left_children":[1,3,5,7,9,11,13,15,17,19,21,23,25,27,29,31,33,35,37,39,41,43,45,47,49,51,53,-1,-1,55,57,59,61,63,65,67,69,71,73,75,77,79,81,83,85,87,89,91,93,95,97,99,101,103,105,-1,-1,-1,-1,-1,-1,-1,-1,-1,-1,-1,-1,-1,-1,-1,-1,-1,-1,-1,-1,-1,-1,-1,-1,-1,-1,-1,-1,-1,-1,-1,-1,-1,-1,-1,-1,-1,-1,-1,-1,-1,-1,-1,-1,-1,-1,-1,-1,-1,-1,-1,-1],"loss_changes":[6.821338E1,7.975342E1,1.287861E2,1.7097296E2,7.872803E1,1.20825356E2,7.099938E1,1.3957904E2,1.3247635E2,8.805354E1,7.654004E1,1.1727732E2,1.2214453E2,1.321095E0,2.6405853E1,9.548963E1,1.1691516E2,8.146599E1,9.607852E1,8.093097E1,6.428348E1,7.4385254E1,1.1234233E2,1.2646925E2,1.2192111E2,1.2623761E2,1.1425613E2,0E0,0E0,1.6482849E0,4.3584585E0,7.211653E1,7.261215E1,7.4433014E1,9.6917755E1,9.532109E1,8.663231E1,7.551037E1,1.04566055E2,7.8288216E1,1.04877335E2,3.6528763E1,4.785705E1,7.6211914E1,1.2445346E2,5.896267E1,1.11699615E2,8.722334E1,1.4092033E2,1.0617064E2,1.4607324E2,1.1756448E2,1.1475847E2,1.09818954E2,1.24309326E2,0E0,0E0,0E0,0E0,0E0,0E0,0E0,0E0,0E0,0E0,0E0,0E0,0E0,0E0,0E0,0E0,0E0,0E0,0E0,0E0,0E0,0E0,0E0,0E0,0E0,0E0,0E0,0E0,0E0,0E0,0E0,0E0,0E0,0E0,0E0,0E0,0E0,0E0,0E0,0E0,0E0,0E0,0E0,0E0,0E0,0E0,0E0,0E0,0E0,0E0,0E0,0E0],"parents":[2147483647,0,0,1,1,2,2,3,3,4,4,5,5,6,6,7,7,8,8,9,9,10,10,11,11,12,12,13,13,14,14,15,15,16,16,17,17,18,18,19,19,20,20,21,21,22,22,23,23,24,24,25,25,26,26,29,29,30,30,31,31,32,32,33,33,34,34,35,35,36,36,37,37,38,38,39,39,40,40,41,41,42,42,43,43,44,44,45,45,46,46,47,47,48,48,49,49,50,50,51,51,52,52,53,53,54,54],"right_children":[2,4,6,8,10,12,14,16,18,20,22,24,26,28,30,32,34,36,38,40,42,44,46,48,50,52,54,-1,-1,56,58,60,62,64,66,68,70,72,74,76,78,80,82,84,86,88,90,92,94,96,98,100,102,104,106,-1,-1,-1,-1,-1,-1,-1,-1,-1,-1,-1,-1,-1,-1,-1,-1,-1,-1,-1,-1,-1,-1,-1,-1,-1,-1,-1,-1,-1,-1,-1,-1,-1,-1,-1,-1,-1,-1,-1,-1,-1,-1,-1,-1,-1,-1,-1,-1,-1,-1,-1,-1],"split_conditions":[9.423505E1,7.2162855E-1,9.9948364E1,1.5433984E1,6.856531E-2,4.29966E1,2.1923998E1,3.6348656E1,5.160335E0,8.711474E1,9.9947876E1,1.5473087E1,5.231716E1,9.150908E1,8.105511E1,5.98203E1,1.2205262E1,1.0487673E1,4.571537E0,1.4104668E1,5.092556E1,9.896706E1,6.1791644E0,3.0247889E0,1.6650925E1,9.3968445E1,5.8035526E0,4.5320252E-1,3.217206E-2,1.6826927E1,4.6265717E1,8.092662E1,8.9687996E1,1.9343094E1,5.741331E0,6.7906975E1,8.367119E1,1.2444709E1,7.058579E1,1.9032936E1,3.9389799E0,9.469526E1,7.963448E1,9.9486984E1,1.7341143E0,9.75439E0,4.5390865E1,2.9672396E1,7.966696E1,8.6365036E1,8.734523E1,6.0327282E1,9.649156E1,7.819545E1,6.1145435E1,-4.3802688E-1,-1.1562665E0,2.72926E-1,-3.0364865E-1,-2.0580181E-1,3.5047853E-1,3.5102957E-1,-4.3962196E-1,1.3958479E-2,8.857947E-1,-4.5506817E-1,2.805739E-1,-6.6065526E-1,7.4801385E-1,4.383163E-1,-6.6844836E-2,-7.4416554E-1,-1.1920314E-1,7.192151E-2,-4.2297855E-2,3.0406424E-1,-5.694796E-1,-6.987843E-1,4.656111E-2,-9.4630384E-1,2.774127E-1,1.6995281E-1,-6.8723524E-1,2.7234504E-2,-1.996236E-2,3.7708974E-1,5.3771533E-2,-6.3833976E-1,8.81412E-1,-3.6080763E-1,1.2507065E-2,-5.200375E-2,6.146588E-1,4.8060324E-3,1.7597978E-1,-5.2687827E-2,-2.3892093E-1,-1.6092941E-2,8.3439514E-2,3.3184443E-2,9.6984155E-2,-5.2528173E-2,-7.082424E-1,1.9113612E-1,-1.3513955E-1,-2.8383488E-2,4.0570613E-2],"split_indices":[4,17,102,53,112,33,101,33,3,94,112,98,40,2,12,104,14,59,78,87,8,2,109,27,37,53,47,0,0,69,1,21,93,108,26,10,103,52,74,17,63,75,50,119,9,53,49,53,106,21,89,58,97,61,98,0,0,0,0,0,0,0,0,0,0,0,0,0,0,0,0,0,0,0,0,0,0,0,0,0,0,0,0,0,0,0,0,0,0,0,0,0,0,0,0,0,0,0,0,0,0,0,0,0,0,0,0],"split_type":[0,0,0,0,0,0,0,0,0,0,0,0,0,0,0,0,0,0,0,0,0,0,0,0,0,0,0,0,0,0,0,0,0,0,0,0,0,0,0,0,0,0,0,0,0,0,0,0,0,0,0,0,0,0,0,0,0,0,0,0,0,0,0,0,0,0,0,0,0,0,0,0,0,0,0,0,0,0,0,0,0,0,0,0,0,0,0,0,0,0,0,0,0,0,0,0,0,0,0,0,0,0,0,0,0,0,0],"sum_hessian":[6.7E5,6.31349E5,3.8651E4,4.614E3,6.26735E5,3.8629E4,2.2E1,6.82E2,3.932E3,4.2E2,6.26315E5,1.6583E4,2.2046E4,4E0,1.8E1,2.53E2,4.29E2,2.08E2,3.724E3,3.73E2,4.7E1,6.26012E5,3.03E2,2.652E3,1.3931E4,1.1513E4,1.0533E4,3E0,1E0,1.5E1,3E0,1.55E2,9.8E1,5.5E1,3.74E2,2E1,1.88E2,1.58E2,3.566E3,5.4E1,3.19E2,2.3E1,2.4E1,6.19476E5,6.536E3,1.5E1,2.88E2,8.3E1,2.569E3,2.272E3,1.1659E4,1.0867E4,6.46E2,6.17E2,9.916E3,2E0,1.3E1,1E0,2E0,1.31E2,2.4E1,8.7E1,1.1E1,1.1E1,4.4E1,1.6E1,3.58E2,1.5E1,5E0,1.5E2,3.8E1,1.9E1,1.39E2,2.563E3,1.003E3,1.1E1,4.3E1,1.7E1,3.02E2,2.1E1,2E0,1.6E1,8E0,6.16382E5,3.094E3,1.08E2,6.428E3,2E0,1.3E1,1.37E2,1.51E2,2.5E1,5.8E1,2.019E3,5.5E2,1.952E3,3.2E2,1.0133E4,1.526E3,6.561E3,4.306E3,6.22E2,2.4E1,5.04E2,1.13E2,6.078E3,3.838E3],"tree_param":{"num_deleted":"0","num_feature":"125","num_nodes":"107","size_leaf_vector":"0"}},{"base_weights":[6.233108E-2,6.2493484E-2,-5.6322074E-1,1.28429085E-2,6.449692E-2,6.770314E-1,-1.2387288E0,2.7253468E-2,-3.1531557E-1,1.4185463E0,6.4385355E-2,-5.590124E-1,1.931108E0,-1.6216223E0,1.3709505E0,2.0400133E-2,8.0999386E-1,2.131645E-1,-5.2387875E-1,-2.101395E0,1.912611E0,1.0625664E-1,6.1136335E-2,2.7531178E0,-1.1304995E0,-1.5132406E0,2.6516843E0,-1.7547628E0,3.2237923E0,-5.1510406E-1,3.6000276E0,-1.4248273E-1,5.420486E-2,1.1616522E0,-7.6634437E-1,3.0998347E0,9.659858E-2,-4.050502E-1,-1.6933354E0,-2.987371E0,7.569647E-2,-1.6234742E0,2.469684E0,7.966515E-2,2.0619176E-1,1.3723086E-1,5.914689E-2,-1.7910666E0,2.2663224E0,-1.8704469E0,1.363957E-1,1.5601755E0,3.348112E0,-2.2350006E0,-4.2692375E-1,1.4447639E0,-2.3719513E0,4.2669964E-1,-2.0137765E-1,-5.9832796E-2,1.1006406E-1,1.5270193E0,-2.150066E-1,-1.6852762E0,1.5182695E0,3.3829076E0,-6.984234E-3,1.6889412E0,-9.389232E-2,2.3284745E0,-4.6313006E-1,7.735858E-1,-2.1508718E0,2.4963474E-1,-1.3609004E-1,5.5525303E-2,-2.306179E0,2.8597336E0,-2.8222862E-1,3.6433466E-2,1.606047E-1,2.69776E-1,2.1197E-2,1.2400434E-1,7.566987E-1,5.90219E-2,1.2317824E0,9.137915E-1,-2.3777277E0,1.7818713E0,3.011314E-1,1.2416978E0,3.5766606E0,1.8712201E0,-2.3811407E0,-1.5245603E0,5.528229E-1,1.8039514E0,6.0398847E-1,-5.465628E-1,-2.6916575E0],"categories":[],"categories_nodes":[],"categories_segments":[],"categories_sizes":[],"default_left":[1,1,1,1,1,1,1,1,1,1,1,1,1,1,1,1,1,1,1,1,1,1,1,0,1,1,1,1,0,1,0,1,1,1,1,1,1,1,1,0,1,1,1,1,1,1,1,1,0,0,0,1,1,1,1,1,1,0,0,0,0,0,0,0,0,0,0,0,0,0,0,0,0,0,0,0,0,0,0,0,0,0,0,0,0,0,0,0,0,0,0,0,0,0,0,0,0,0,0,0,0],"id":12,"left_children":[1,3,5,7,9,11,13,15,17,19,21,23,25,27,29,31,33,35,37,39,41,43,45,-1,47,49,51,53,-1,55,-1,57,59,61,63,65,67,69,71,-1,73,75,77,79,81,83,85,87,-1,-1,-1,89,91,93,95,97,99,-1,-1,-1,-1,-1,-1,-1,-1,-1,-1,-1,-1,-1,-1,-1,-1,-1,-1,-1,-1,-1,-1,-1,-1,-1,-1,-1,-1,-1,-1,-1,-1,-1,-1,-1,-1,-1,-1,-1,-1,-1,-1,-1,-1],"loss_changes":[6.810254E1,6.6628174E1,1.4661592E2,1.22871376E2,9.717676E1,9.718532E1,1.1513606E2,1.3349757E2,1.2058374E2,9.619032E1,8.757593E1,6.368327E1,8.095202E1,6.9523926E1,6.491681E1,1.3586797E2,1.2062607E2,1.04011635E2,1.0826254E2,1.3728088E1,9.659276E1,1.2317377E2,9.043579E1,0E0,6.688634E1,3.7906847E0,1.4540436E1,6.0900635E1,0E0,3.617949E1,0E0,1.4225253E2,1.3017224E2,8.93568E1,8.6534874E1,1.057711E1,9.085329E1,1.1427623E2,8.293071E1,0E0,1.4448614E-1,8.15188E0,4.481581E1,1.2811913E2,1.14587036E2,1.2461792E2,8.526013E1,4.025679E1,0E0,0E0,0E0,2.8129215E0,2.7801514E0,4.7061554E1,2.9878767E1,4.2041397E-1,1.4467812E0,0E0,0E0,0E0,0E0,0E0,0E0,0E0,0E0,0E0,0E0,0E0,0E0,0E0,0E0,0E0,0E0,0E0,0E0,0E0,0E0,0E0,0E0,0E0,0E0,0E0,0E0,0E0,0E0,0E0,0E0,0E0,0E0,0E0,0E0,0E0,0E0,0E0,0E0,0E0,0E0,0E0,0E0,0E0,0E0],"parents":[2147483647,0,0,1,1,2,2,3,3,4,4,5,5,6,6,7,7,8,8,9,9,10,10,11,11,12,12,13,13,14,14,15,15,16,16,17,17,18,18,19,19,20,20,21,21,22,22,24,24,25,25,26,26,27,27,29,29,31,31,32,32,33,33,34,34,35,35,36,36,37,37,38,38,40,40,41,41,42,42,43,43,44,44,45,45,46,46,47,47,51,51,52,52,53,53,54,54,55,55,56,56],"right_children":[2,4,6,8,10,12,14,16,18,20,22,24,26,28,30,32,34,36,38,40,42,44,46,-1,48,50,52,54,-1,56,-1,58,60,62,64,66,68,70,72,-1,74,76,78,80,82,84,86,88,-1,-1,-1,90,92,94,96,98,100,-1,-1,-1,-1,-1,-1,-1,-1,-1,-1,-1,-1,-1,-1,-1,-1,-1,-1,-1,-1,-1,-1,-1,-1,-1,-1,-1,-1,-1,-1,-1,-1,-1,-1,-1,-1,-1,-1,-1,-1,-1,-1,-1,-1],"split_conditions":[9.997424E1,3.8852534E0,3.622682E1,3.7182388E0,3.8917394E0,4.778107E1,8.739461E1,9.921592E1,2.853611E1,1.1722336E1,1.0842554E1,7.050565E0,2.0680893E1,9.799196E1,5.632548E1,1.7168098E1,8.580177E1,5.60998E0,9.075916E1,8.331331E1,1.0805939E1,7.904068E1,2.5385046E0,8.2593536E-1,8.055543E1,8.1481575E1,5.3888275E1,7.8162025E1,9.6713775E-1,6.0388767E1,1.0800083E0,8.548533E0,3.302311E1,8.10111E1,8.1417366E1,9.266646E1,1.3016259E1,3.7757423E0,1.6572544E1,-8.962113E-1,9.628566E1,2.4513422E1,8.750131E1,6.5308945E1,7.3584366E1,9.781779E1,9.999019E1,1.5889861E1,6.798967E-1,-5.611341E-1,4.0918708E-2,8.172833E1,1.8776367E1,1.0593197E0,3.647895E1,3.7323868E1,3.657372E1,1.280099E-1,-6.0413297E-2,-1.794984E-2,3.301922E-2,4.581058E-1,-6.4501986E-2,-5.0558287E-1,4.5548087E-1,1.0148723E0,-2.0952702E-3,5.066824E-1,-2.8167697E-2,6.9854236E-1,-1.3893902E-1,2.3207575E-1,-6.452615E-1,7.489043E-2,-4.0827014E-2,1.665759E-2,-6.9185376E-1,8.579201E-1,-8.466859E-2,1.093004E-2,4.818141E-2,8.0932796E-2,6.3591003E-3,3.7201304E-2,2.2700962E-1,1.7706571E-2,3.6953473E-1,2.7413747E-1,-7.1331835E-1,5.345614E-1,9.033942E-2,3.7250936E-1,1.0729983E0,5.613661E-1,-7.1434224E-1,-4.573681E-1,1.6584687E-1,5.4118544E-1,1.8119654E-1,-1.6396885E-1,-8.074973E-1],"split_indices":[45,15,108,15,15,42,33,43,42,49,15,123,65,4,8,107,101,28,56,0,104,4,58,0,70,0,62,39,0,16,0,48,120,71,26,0,86,72,54,0,0,2,2,60,111,85,77,100,0,0,0,7,9,35,14,3,1,0,0,0,0,0,0,0,0,0,0,0,0,0,0,0,0,0,0,0,0,0,0,0,0,0,0,0,0,0,0,0,0,0,0,0,0,0,0,0,0,0,0,0,0],"split_type":[0,0,0,0,0,0,0,0,0,0,0,0,0,0,0,0,0,0,0,0,0,0,0,0,0,0,0,0,0,0,0,0,0,0,0,0,0,0,0,0,0,0,0,0,0,0,0,0,0,0,0,0,0,0,0,0,0,0,0,0,0,0,0,0,0,0,0,0,0,0,0,0,0,0,0,0,0,0,0,0,0,0,0,0,0,0,0,0,0,0,0,0,0,0,0,0,0,0,0,0,0],"sum_hessian":[6.7E5,6.69827E5,1.73E2,2.598E4,6.43847E5,6.1E1,1.12E2,2.4888E4,1.092E3,5.2E1,6.43795E5,3.1E1,3E1,9.8E1,1.4E1,2.4673E4,2.15E2,3.09E2,7.83E2,6E0,4.6E1,4.6356E4,5.97439E5,4E0,2.7E1,5E0,2.5E1,9.6E1,2E0,8E0,6E0,4.24E3,2.0433E4,1.76E2,3.9E1,1.1E1,2.98E2,7.12E2,7.1E1,4E0,2E0,6E0,4E1,3.6615E4,9.741E3,1.522E4,5.82219E5,2.3E1,4E0,4E0,1E0,1.1E1,1.4E1,7E1,2.6E1,4E0,4E0,3.97E2,3.843E3,6.718E3,1.3715E4,1.39E2,3.7E1,2.8E1,1.1E1,1E1,1E0,3.1E1,2.67E2,1.4E1,6.98E2,1.1E1,6E1,1E0,1E0,2E0,4E0,3.5E1,5E0,2.3868E4,1.2747E4,7.249E3,2.492E3,1.4903E4,3.17E2,5.82158E5,6.1E1,4E0,1.9E1,9E0,2E0,2E0,1.2E1,2E0,6.8E1,1.2E1,1.4E1,2E0,2E0,1E0,3E0],"tree_param":{"num_deleted":"0","num_feature":"125","num_nodes":"101","size_leaf_vector":"0"}},{"base_weights":[4.3640967E-2,3.48704E-1,4.331637E-2,9.060251E-1,5.9815217E-2,4.2444848E-2,1.5539227E-1,-1.2146964E0,1.1990887E0,-8.104961E-2,1.6186304E0,4.287595E-2,-3.1640723E-1,-3.7554762E-1,2.1000633E-1,6.8962157E-1,-2.5225542E0,-1.8107835E-2,1.6625255E0,-3.0381665E-1,9.664357E-1,-1.9755476E0,2.2052903E0,1.3410039E0,4.2789772E-2,-4.1292128E-1,9.2043424E-1,-1.4873203E0,-2.1395122E-1,1.2632445E0,1.8745348E-1,-9.764596E-1,2.7961261E0,-5.677356E-1,-3.2307353E0,3.4813356E-1,-2.8408117E0,1.8630174E0,-2.842591E0,-7.604539E-1,4.4381046E-1,-7.0320845E-1,1.5752944E0,-1.203959E-1,-2.3224986E0,4.1897558E-2,2.9824357E0,1.7970576E0,-2.5756269E0,2.3582144E-2,4.804229E-2,9.844672E-1,-5.134372E-1,2.2996984E0,-2.720834E-1,-3.9766437E-1,-2.6759865E0,-6.207584E-1,5.4338616E-1,-2.1542149E0,1.8112584E0,2.0265165E-1,-1.1953781E0,8.0775136E-1,-1.7058219E0,3.2067904E0,3.714025E-1,3.8117313E-1,-1.1374834E0,-8.6928225E-1,-3.5810647E0,-2.0625072E0,8.122125E-1,-3.4843767E0,-8.2126635E-1,1.9478877E0,-2.9166315E0,-5.3979456E-1,-3.1364248E0,-1.8205285E0,-2.9048276E-1,2.1913562E0,-9.172035E-3,2.0370784E0,-1.2730939E0,-1.017729E0,1.9664963E0,2.2556803E0,-2.6230211E0,-1.3254754E-1,3.2590668E0,-1.9085104E0,2.1490905E0,-4.9005246E-1,-2.9745073E0,9.362017E-3,9.7558595E-2,1.3772083E-2,5.4143004E-2,-9.131275E-1,1.8238114E0,-9.967341E-1,-1.9155411E-1,2.806121E0,-1.3137628E0,1.5037647E0,-1.7368411E0,2.258903E0,-9.5272654E-1,-3.0215914E0,-1.391075E0,7.169566E-1,-1.00542E0,9.523176E-2,1.7934784E0,-2.567195E0,1.6072628E0,1.9729707E-1,2.3048265E0,1.6363569E-1,7.9300165E-1,-2.204755E0,1.8949966E-1],"categories":[],"categories_nodes":[],"categories_segments":[],"categories_sizes":[],"default_left":[1,1,1,1,1,1,1,1,1,1,1,1,1,1,1,1,1,1,1,1,1,1,1,1,1,1,1,1,1,1,1,1,1,1,1,1,1,1,1,1,1,1,1,0,0,1,1,1,1,1,1,1,1,1,1,1,1,1,1,1,1,1,1,0,0,0,0,0,0,0,0,0,0,0,0,0,0,0,0,0,0,0,0,0,0,0,0,0,0,0,0,0,0,0,0,0,0,0,0,0,0,0,0,0,0,0,0,0,0,0,0,0,0,0,0,0,0,0,0,0,0,0,0],"id":13,"left_children":[1,3,5,7,9,11,13,15,17,19,21,23,25,27,29,31,33,35,37,39,41,43,45,47,49,51,53,55,57,59,61,63,65,67,69,71,73,75,77,79,81,83,85,-1,-1,87,89,91,93,95,97,99,101,103,105,107,109,111,113,115,117,119,121,-1,-1,-1,-1,-1,-1,-1,-1,-1,-1,-1,-1,-1,-1,-1,-1,-1,-1,-1,-1,-1,-1,-1,-1,-1,-1,-1,-1,-1,-1,-1,-1,-1,-1,-1,-1,-1,-1,-1,-1,-1,-1,-1,-1,-1,-1,-1,-1,-1,-1,-1,-1,-1,-1,-1,-1,-1,-1,-1,-1],"loss_changes":[6.6329834E1,1.1458053E2,6.536755E1,1.5248256E2,1.0333483E2,1.0275513E2,1.4981824E2,7.645691E1,1.20746185E2,1.0109873E2,8.6590515E1,7.414905E1,9.552001E1,8.6277176E1,1.11000916E2,4.8355206E1,2.3084389E1,6.3016445E1,1.4529785E2,1.222153E2,7.836764E1,3.582264E0,5.7038254E1,8.322108E1,6.691699E1,1.0444572E2,9.602393E1,7.794531E1,1.3035141E2,1.8743774E2,9.662399E1,1.17885685E1,4.78347E0,3.6774096E0,7.641754E0,6.2086483E1,6.2363586E0,6.612317E1,3.0434532E0,1.10072556E2,1.0767874E2,3.538804E1,5.8807526E1,0E0,0E0,6.49122E1,2.1974487E1,5.6280838E1,2.701809E0,1.4983423E2,1.0889563E2,8.1302124E1,1.07304565E2,5.3094925E1,8.584979E1,5.0812595E1,8.674835E0,1.422269E2,8.274388E1,2.587397E1,6.7256226E1,1.0437131E2,7.031098E1,0E0,0E0,0E0,0E0,0E0,0E0,0E0,0E0,0E0,0E0,0E0,0E0,0E0,0E0,0E0,0E0,0E0,0E0,0E0,0E0,0E0,0E0,0E0,0E0,0E0,0E0,0E0,0E0,0E0,0E0,0E0,0E0,0E0,0E0,0E0,0E0,0E0,0E0,0E0,0E0,0E0,0E0,0E0,0E0,0E0,0E0,0E0,0E0,0E0,0E0,0E0,0E0,0E0,0E0,0E0,0E0,0E0,0E0,0E0,0E0],"parents":[2147483647,0,0,1,1,2,2,3,3,4,4,5,5,6,6,7,7,8,8,9,9,10,10,11,11,12,12,13,13,14,14,15,15,16,16,17,17,18,18,19,19,20,20,21,21,22,22,23,23,24,24,25,25,26,26,27,27,28,28,29,29,30,30,31,31,32,32,33,33,34,34,35,35,36,36,37,37,38,38,39,39,40,40,41,41,42,42,45,45,46,46,47,47,48,48,49,49,50,50,51,51,52,52,53,53,54,54,55,55,56,56,57,57,58,58,59,59,60,60,61,61,62,62],"right_children":[2,4,6,8,10,12,14,16,18,20,22,24,26,28,30,32,34,36,38,40,42,44,46,48,50,52,54,56,58,60,62,64,66,68,70,72,74,76,78,80,82,84,86,-1,-1,88,90,92,94,96,98,100,102,104,106,108,110,112,114,116,118,120,122,-1,-1,-1,-1,-1,-1,-1,-1,-1,-1,-1,-1,-1,-1,-1,-1,-1,-1,-1,-1,-1,-1,-1,-1,-1,-1,-1,-1,-1,-1,-1,-1,-1,-1,-1,-1,-1,-1,-1,-1,-1,-1,-1,-1,-1,-1,-1,-1,-1,-1,-1,-1,-1,-1,-1,-1,-1,-1,-1,-1],"split_conditions":[1.09940514E-1,3.7527317E1,9.922893E1,1.3761005E1,9.304604E1,9.911442E1,9.241901E0,5.0077644E1,2.822645E1,8.18594E1,1.1682711E1,5.4649147E-3,9.340765E1,1.3494373E1,2.1209066E0,6.2347023E1,2.5094759E1,9.169375E1,9.558447E1,6.40154E1,3.0981293E1,1.0874496E1,3.0578922E1,9.05606E1,2.1503836E1,5.731985E0,5.381484E1,4.9041664E1,6.569859E1,1.5301998E1,9.88242E1,2.4374557E1,6.471129E1,7.9576065E1,7.2855635E0,1.3689423E1,5.47561E1,9.7178925E1,2.3777687E1,2.8984251E1,2.4336887E1,8.22635E0,1.0119743E1,-3.6118772E-2,-6.9674957E-1,5.1512672E1,6.277528E0,1.6517975E1,2.1184156E1,8.400586E1,1.5059322E1,2.392707E1,4.171731E1,9.442282E1,5.867907E1,1.5040009E1,7.523033E1,2.1267042E1,7.1550064E1,7.152506E1,2.1686792E1,9.380798E1,6.099344E1,2.4232541E-1,-5.117466E-1,9.6203715E-1,1.1142076E-1,1.1435194E-1,-3.4124503E-1,-2.607847E-1,-1.0743195E0,-6.187522E-1,2.4366377E-1,-1.045313E0,-2.4637991E-1,5.843663E-1,-8.7498945E-1,-1.6193837E-1,-9.4092745E-1,-5.4615855E-1,-8.714483E-2,6.5740687E-1,-2.7516107E-3,6.1112356E-1,-3.819282E-1,-3.053187E-1,5.8994895E-1,6.767041E-1,-7.8690636E-1,-3.9764263E-2,9.777201E-1,-5.7255316E-1,6.447272E-1,-1.4701575E-1,-8.923522E-1,2.808605E-3,2.926758E-2,4.1316254E-3,1.6242903E-2,-2.7393827E-1,5.4714346E-1,-2.9902023E-1,-5.7466235E-2,8.418364E-1,-3.9412886E-1,4.5112944E-1,-5.2105236E-1,6.7767096E-1,-2.8581798E-1,-9.0647745E-1,-4.1732252E-1,2.15087E-1,-3.01626E-1,2.8569529E-2,5.3804356E-1,-7.701585E-1,4.8217887E-1,5.9189122E-2,6.91448E-1,4.909071E-2,2.3790051E-1,-6.6142654E-1,5.68499E-2],"split_indices":[81,115,92,73,36,92,117,110,78,24,90,27,72,80,83,74,64,40,13,15,56,0,30,62,1,101,20,115,115,21,8,5,0,3,50,110,10,116,1,25,87,65,89,0,0,87,55,5,0,78,80,104,57,29,14,67,53,24,30,17,85,111,82,0,0,0,0,0,0,0,0,0,0,0,0,0,0,0,0,0,0,0,0,0,0,0,0,0,0,0,0,0,0,0,0,0,0,0,0,0,0,0,0,0,0,0,0,0,0,0,0,0,0,0,0,0,0,0,0,0,0,0,0],"split_type":[0,0,0,0,0,0,0,0,0,0,0,0,0,0,0,0,0,0,0,0,0,0,0,0,0,0,0,0,0,0,0,0,0,0,0,0,0,0,0,0,0,0,0,0,0,0,0,0,0,0,0,0,0,0,0,0,0,0,0,0,0,0,0,0,0,0,0,0,0,0,0,0,0,0,0,0,0,0,0,0,0,0,0,0,0,0,0,0,0,0,0,0,0,0,0,0,0,0,0,0,0,0,0,0,0,0,0,0,0,0,0,0,0,0,0,0,0,0,0,0,0,0,0],"sum_hessian":[6.7E5,7.11E2,6.69289E5,2.42E2,4.69E2,6.64126E5,5.163E3,2.9E1,2.13E2,4.31E2,3.8E1,6.6333E5,7.96E2,4.81E2,4.682E3,1.2E1,1.7E1,5.9E1,1.54E2,3.56E2,7.5E1,5E0,3.3E1,4.3E1,6.63287E5,7.39E2,5.7E1,6E1,4.21E2,9.7E1,4.585E3,7E0,5E0,5E0,1.2E1,5.3E1,6E0,1.48E2,6E0,2.21E2,1.35E2,2E1,5.5E1,1E0,4E0,9E0,2.4E1,3.9E1,4E0,1.42434E5,5.20853E5,4.9E1,6.9E2,2.6E1,3.1E1,3.2E1,2.8E1,2.74E2,1.47E2,1.3E1,8.4E1,4.536E3,4.9E1,2E0,5E0,4E0,1E0,2E0,3E0,2E0,1E1,8E0,4.5E1,4E0,2E0,1.46E2,2E0,1E0,5E0,6.7E1,1.54E2,2.7E1,1.08E2,3E0,1.7E1,7E0,4.8E1,5E0,4E0,2E0,2.2E1,3E0,3.6E1,1E0,3E0,1.1947E5,2.2964E4,7.871E4,4.42143E5,1.5E1,3.4E1,2.75E2,4.15E2,2.3E1,3E0,1.4E1,1.7E1,5E0,2.7E1,2.1E1,7E0,6.1E1,2.13E2,1.09E2,3.8E1,1.2E1,1E0,2E1,6.4E1,4.256E3,2.8E2,2.8E1,2.1E1],"tree_param":{"num_deleted":"0","num_feature":"125","num_nodes":"123","size_leaf_vector":"0"}},{"base_weights":[3.0542461E-2,3.0399261E-2,6.614123E-1,5.495802E-2,2.6729975E-2,-7.929362E-1,1.1032511E0,-3.5747968E-2,7.023704E-2,-4.1248888E-2,2.9834757E-2,2.7343788E0,-1.4500637E0,-1.5177763E0,1.3895631E0,-4.0032383E-2,2.792719E0,1.7675403E-1,5.485848E-2,-7.595252E-1,-3.2999072E-2,1.124544E-1,2.780009E-2,-2.1050632E0,1.6299442E0,-2.031879E0,7.0182544E-1,1.7039384E0,-1.4803998E0,4.4658786E-1,-6.316657E-2,-1.9193439E-1,3.601422E0,3.7919693E-2,2.683883E-1,1.2212343E-1,2.5811817E-2,-9.6181583E-1,2.533702E0,-8.697309E-2,5.873657E-2,7.826288E-2,3.7873343E-1,-3.490927E-2,3.0430155E-2,6.913922E-2,-3.2601783E0,2.252924E0,-7.4247706E-1,-2.2851827E0,-6.791095E-1,1.5225458E-1,9.004836E-1,-1.5290245E0,2.0152194E0,-2.543783E0,2.2032158E0,8.132544E-1,-1.1761909E-1,8.5368526E-1,-7.4405715E-2,6.142152E-1,-9.341059E-1,1.5238581E0,3.8038275E0,3.5488512E-3,1.2045678E0,-5.285217E-1,2.9963055E-1,1.443175E-1,-2.7132928E-1,-1.9760259E0,2.7573353E-2,-7.268968E-1,-2.4881744E0,-8.74498E-1,3.3264945E0,-2.0229475E-1,-7.5926473E-3,9.346755E-2,-4.0946782E-1,8.75868E-2,-1.2312356E0,-3.0750446E-2,6.6499555E-1,-3.7864182E-2,1.8661236E0,-4.161473E-1,3.0804241E-2,2.1833086E0,-1.1488347E0,-3.6137757E0,-1.2075431E0,-2.4729095E0,2.6905894E-1,2.7807543E0,1.1105679E0,-2.7652166E0,-3.861568E-1],"categories":[],"categories_nodes":[],"categories_segments":[],"categories_sizes":[],"default_left":[1,1,1,1,1,1,1,1,1,1,1,0,1,1,1,1,1,1,1,1,1,1,1,1,1,1,1,1,1,1,1,1,1,1,1,1,1,1,1,1,1,1,1,1,1,1,1,0,0,0,0,0,0,1,1,1,0,0,0,0,0,0,0,0,0,0,0,0,0,0,0,0,0,0,0,0,0,0,0,0,0,0,0,0,0,0,0,0,0,0,0,0,0,0,0,0,0,0,0],"id":14,"left_children":[1,3,5,7,9,11,13,15,17,19,21,-1,23,25,27,29,31,33,35,37,39,41,43,45,47,49,51,53,55,57,59,61,63,65,67,69,71,73,75,77,79,81,83,85,87,89,91,-1,-1,-1,-1,-1,-1,93,95,97,-1,-1,-1,-1,-1,-1,-1,-1,-1,-1,-1,-1,-1,-1,-1,-1,-1,-1,-1,-1,-1,-1,-1,-1,-1,-1,-1,-1,-1,-1,-1,-1,-1,-1,-1,-1,-1,-1,-1,-1,-1,-1,-1],"loss_changes":[6.05083E1,6.036078E1,9.85481E1,1.206741E2,1.2300253E2,8.740929E1,8.9909546E1,1.522331E2,1.2205823E2,1.5081227E2,9.368521E1,0E0,6.5970634E1,1.5119265E1,9.816052E1,1.411418E2,4.6551514E1,1.195892E2,1.272278E2,1.9496558E2,1.24615524E2,1.2192491E2,8.971161E1,6.552323E1,1.0540566E1,1.8747253E0,1.9042742E-1,9.9691864E1,4.8692535E1,1.17808E2,1.2337898E2,3.565248E0,5.111389E-1,1.4992468E2,1.4115161E2,1.7153302E2,1.6043451E2,9.608113E1,4.884294E1,1.4504808E2,1.5164139E2,1.4506082E2,1.7866333E2,1.2306315E2,8.722357E1,2.8258293E1,7.9749146E0,0E0,0E0,0E0,0E0,0E0,0E0,1.5940012E1,5.785553E1,3.2321358E0,0E0,0E0,0E0,0E0,0E0,0E0,0E0,0E0,0E0,0E0,0E0,0E0,0E0,0E0,0E0,0E0,0E0,0E0,0E0,0E0,0E0,0E0,0E0,0E0,0E0,0E0,0E0,0E0,0E0,0E0,0E0,0E0,0E0,0E0,0E0,0E0,0E0,0E0,0E0,0E0,0E0,0E0,0E0],"parents":[2147483647,0,0,1,1,2,2,3,3,4,4,5,5,6,6,7,7,8,8,9,9,10,10,12,12,13,13,14,14,15,15,16,16,17,17,18,18,19,19,20,20,21,21,22,22,23,23,24,24,25,25,26,26,27,27,28,28,29,29,30,30,31,31,32,32,33,33,34,34,35,35,36,36,37,37,38,38,39,39,40,40,41,41,42,42,43,43,44,44,45,45,46,46,53,53,54,54,55,55],"right_children":[2,4,6,8,10,12,14,16,18,20,22,-1,24,26,28,30,32,34,36,38,40,42,44,46,48,50,52,54,56,58,60,62,64,66,68,70,72,74,76,78,80,82,84,86,88,90,92,-1,-1,-1,-1,-1,-1,94,96,98,-1,-1,-1,-1,-1,-1,-1,-1,-1,-1,-1,-1,-1,-1,-1,-1,-1,-1,-1,-1,-1,-1,-1,-1,-1,-1,-1,-1,-1,-1,-1,-1,-1,-1,-1,-1,-1,-1,-1,-1,-1,-1,-1],"split_conditions":[9.997407E1,1.3001857E1,2.7939098E1,1.442051E1,1.6815311E1,1.6411287E1,8.191228E0,9.9869774E1,1.2625338E1,1.2114251E0,2.3980937E0,8.203137E-1,9.333786E1,7.481222E1,8.862724E1,4.724101E0,1.9993162E1,4.975117E0,3.0114845E1,9.5482216E1,6.3158745E1,8.837613E1,4.0368347E0,4.2662148E1,6.700881E1,8.910252E1,4.3036995E1,7.4517584E0,8.450072E1,6.0709995E1,1.2968323E0,6.778041E1,1.3512083E1,9.697623E1,3.8025613E0,9.457445E1,3.0171936E1,8.815843E1,1.5148188E1,4.1011086E1,9.302902E1,8.7843155E1,3.949507E1,9.983789E1,7.93383E-2,4.195453E1,8.103944E1,6.758772E-1,-2.2274312E-1,-6.8555486E-1,-2.0373286E-1,4.5676377E-2,2.701451E-1,5.9751614E1,5.4906414E1,9.576236E1,6.609648E-1,2.4397634E-1,-3.528573E-2,2.561056E-1,-2.2321716E-2,1.8426457E-1,-2.8023177E-1,4.5715743E-1,1.1411483E0,1.0646554E-3,3.6137035E-1,-1.5855652E-1,8.988917E-2,4.329525E-2,-8.1398785E-2,-5.928078E-1,8.272006E-3,-2.1806906E-1,-7.4645233E-1,-2.6234943E-1,9.9794835E-1,-6.068843E-2,-2.2777943E-3,2.8040266E-2,-1.2284035E-1,2.627604E-2,-3.693707E-1,-9.225134E-3,1.9949867E-1,-1.1359255E-2,5.598371E-1,-1.2484419E-1,9.241273E-3,6.549926E-1,-3.4465042E-1,-1.0841328E0,-3.6226296E-1,-7.4187285E-1,8.071768E-2,8.342263E-1,3.3317038E-1,-8.29565E-1,-1.1584704E-1],"split_indices":[84,107,13,3,107,23,51,25,1,15,22,0,94,10,112,90,4,1,22,27,69,93,59,114,0,3,0,109,19,73,34,5,65,92,101,41,22,96,9,26,8,93,83,80,118,9,53,0,0,0,0,0,0,39,27,9,0,0,0,0,0,0,0,0,0,0,0,0,0,0,0,0,0,0,0,0,0,0,0,0,0,0,0,0,0,0,0,0,0,0,0,0,0,0,0,0,0,0,0],"split_type":[0,0,0,0,0,0,0,0,0,0,0,0,0,0,0,0,0,0,0,0,0,0,0,0,0,0,0,0,0,0,0,0,0,0,0,0,0,0,0,0,0,0,0,0,0,0,0,0,0,0,0,0,0,0,0,0,0,0,0,0,0,0,0,0,0,0,0,0,0,0,0,0,0,0,0,0,0,0,0,0,0,0,0,0,0,0,0,0,0,0,0,0,0,0,0,0,0,0,0],"sum_hessian":[6.7E5,6.69849E5,1.51E2,8.707E4,5.82779E5,3.5E1,1.16E2,1.2552E4,7.4518E4,2.5454E4,5.57325E5,5E0,3E1,1.1E1,1.05E2,1.2534E4,1.8E1,9.4E3,6.5118E4,2.88E2,2.5166E4,1.3394E4,5.43931E5,2.5E1,5E0,9E0,2E0,9.5E1,1E1,5.68E2,1.1966E4,4E0,1.4E1,3.738E3,5.662E3,1.9638E4,4.548E4,2.72E2,1.6E1,1.5844E4,9.322E3,1.1871E4,1.523E3,2.1894E4,5.22037E5,9E0,1.6E1,4E0,1E0,7E0,2E0,1E0,1E0,8E0,8.7E1,8E0,2E0,3.44E2,2.24E2,1.44E2,1.1822E4,2E0,2E0,2E0,1.2E1,3.632E3,1.06E2,2.13E2,5.449E3,1.859E4,1.048E3,3.9E1,4.5441E4,2.37E2,3.5E1,3E0,1.3E1,6.459E3,9.385E3,8.679E3,6.43E2,1.1788E4,8.3E1,6.27E2,8.96E2,2.1861E4,3.3E1,4.36E2,5.21601E5,3E0,6E0,1.3E1,3E0,5E0,3E0,4.6E1,4.1E1,7E0,1E0],"tree_param":{"num_deleted":"0","num_feature":"125","num_nodes":"99","size_leaf_vector":"0"}},{"base_weights":[2.138177E-2,1.6868355E-2,4.1116804E-2,1.6376698E-2,4.6769163E-1,1.37588885E-2,7.622661E-2,1.375768E-2,9.37716E-2,3.3285725E-1,1.66217E0,5.2269124E-3,2.381033E-1,9.476102E-1,7.310294E-2,2.0725666E-1,1.2875164E-2,9.345594E-1,8.4999144E-2,2.5820047E-1,2.9037452E0,3.1994607E-2,2.9078336E0,6.5301685E-3,-1.26898E0,3.483125E-1,-2.1392065E-1,-1.223224E-1,1.4240419E0,8.329347E-2,-1.5902723E-1,2.4871416E-1,-8.5589755E-1,-4.9813703E-1,1.3182233E-2,2.117917E0,2.8578597E-1,8.222922E-2,2.405841E0,9.6605265E-1,1.0608113E-2,3.1631339E0,8.118126E-1,2.8871582E0,-9.2125016E-1,3.104609E0,-1.6038227E-1,-1.5357909E-1,1.7047027E-2,-2.6710527E0,-5.489296E-2,6.3965805E-2,5.495836E-1,6.775781E-1,-5.4856074E-1,-9.1493654E-1,1.5482833E0,1.8792704E0,1.6751038E-1,1.4684689E-1,4.6134405E-2,-1.733574E-1,2.8243783E0,-7.200696E-1,2.9903042E-1,-1.448151E0,1.1590376E0,3.2604194E-1,-1.0566305E0,-2.2864337E-1,1.3818233E-2,8.288746E-1,2.758151E0,-1.9724809E-1,1.8799424E0,4.3595806E-1,6.5098576E-2,3.0238543E0,-2.3101892E0,1.1163653E0,-3.1653502E0,3.0798736E-1,-7.7045894E-1,3.3623137E0,1.811266E-2,-1.6769933E0,1.8325262E0,3.332516E0,6.7613256E-1,-3.9381814E-1,1.5324473E-1,-3.028481E-1,3.4999255E-2,9.254581E-1,1.4701598E-2,1.3355105E0,-3.1315768E0,4.7320503E-1,-2.950283E0,1.3221699E0,-5.1370915E-2,7.2168833E-1,-6.03202E-2,1.0617722E0,-1.5134927E0,1.9076003E0,-6.9562364E-1,-2.6249485E0,3.5286957E-1,2.3100004E0,-2.076085E0,-5.21941E-1,2.185353E0,-9.151702E-1,2.0115693E0,1.3938309E-1,1.1565938E0,8.7481946E-2,-4.860104E-2,2.5075295E0,-1.8865433E-1,-3.3946323E-1,3.5651722E0],"categories":[],"categories_nodes":[],"categories_segments":[],"categories_sizes":[],"default_left":[1,1,1,1,1,1,1,1,1,1,1,1,1,1,1,1,1,1,1,1,1,1,1,1,1,1,1,1,1,1,1,1,1,1,1,1,1,1,1,1,1,0,0,1,1,1,1,1,1,1,1,1,1,1,1,1,1,1,1,1,1,1,1,0,0,0,0,0,0,0,0,0,0,0,0,0,0,0,0,0,0,0,0,0,0,0,0,0,0,0,0,0,0,0,0,0,0,0,0,0,0,0,0,0,0,0,0,0,0,0,0,0,0,0,0,0,0,0,0,0,0,0,0],"id":15,"left_children":[1,3,5,7,9,11,13,15,17,19,21,23,25,27,29,31,33,35,37,39,41,43,45,47,49,51,53,55,57,59,61,63,65,67,69,71,73,75,77,79,81,-1,-1,83,85,87,89,91,93,95,97,99,101,103,105,107,109,111,113,115,117,119,121,-1,-1,-1,-1,-1,-1,-1,-1,-1,-1,-1,-1,-1,-1,-1,-1,-1,-1,-1,-1,-1,-1,-1,-1,-1,-1,-1,-1,-1,-1,-1,-1,-1,-1,-1,-1,-1,-1,-1,-1,-1,-1,-1,-1,-1,-1,-1,-1,-1,-1,-1,-1,-1,-1,-1,-1,-1,-1,-1,-1],"loss_changes":[5.9677887E1,1.2085692E2,1.1978487E2,1.1040886E2,9.511444E1,1.3416383E2,1.4859052E2,8.996921E1,1.3142322E2,1.0193505E2,1.2174602E2,1.1214317E2,1.2800507E2,9.957541E1,1.2875003E2,1.0564198E2,8.2306305E1,1.4065724E2,1.1324047E2,9.1299576E1,5.571472E0,7.6144875E1,2.102539E1,1.1359154E2,1.17307816E2,1.1814641E2,1.5073062E2,8.2189476E1,7.69064E1,1.2311212E2,9.8350494E1,1.12476395E2,1.0908017E2,1.4533856E2,8.0620766E1,5.1357605E1,9.2774635E1,1.0677817E2,6.819162E1,8.7368996E1,9.012699E1,0E0,0E0,9.4818E0,4.677722E1,1.5457703E1,2.7998593E-1,1.1705373E2,1.3485638E2,6.3226044E1,5.9499977E1,1.244333E2,1.26949036E2,1.177749E2,1.3389108E2,9.198073E1,6.0010628E1,7.390259E1,7.571242E1,1.4480426E2,1.2887611E2,9.393344E1,2.6991547E1,0E0,0E0,0E0,0E0,0E0,0E0,0E0,0E0,0E0,0E0,0E0,0E0,0E0,0E0,0E0,0E0,0E0,0E0,0E0,0E0,0E0,0E0,0E0,0E0,0E0,0E0,0E0,0E0,0E0,0E0,0E0,0E0,0E0,0E0,0E0,0E0,0E0,0E0,0E0,0E0,0E0,0E0,0E0,0E0,0E0,0E0,0E0,0E0,0E0,0E0,0E0,0E0,0E0,0E0,0E0,0E0,0E0,0E0,0E0,0E0],"parents":[2147483647,0,0,1,1,2,2,3,3,4,4,5,5,6,6,7,7,8,8,9,9,10,10,11,11,12,12,13,13,14,14,15,15,16,16,17,17,18,18,19,19,20,20,21,21,22,22,23,23,24,24,25,25,26,26,27,27,28,28,29,29,30,30,31,31,32,32,33,33,34,34,35,35,36,36,37,37,38,38,39,39,40,40,43,43,44,44,45,45,46,46,47,47,48,48,49,49,50,50,51,51,52,52,53,53,54,54,55,55,56,56,57,57,58,58,59,59,60,60,61,61,62,62],"right_children":[2,4,6,8,10,12,14,16,18,20,22,24,26,28,30,32,34,36,38,40,42,44,46,48,50,52,54,56,58,60,62,64,66,68,70,72,74,76,78,80,82,-1,-1,84,86,88,90,92,94,96,98,100,102,104,106,108,110,112,114,116,118,120,122,-1,-1,-1,-1,-1,-1,-1,-1,-1,-1,-1,-1,-1,-1,-1,-1,-1,-1,-1,-1,-1,-1,-1,-1,-1,-1,-1,-1,-1,-1,-1,-1,-1,-1,-1,-1,-1,-1,-1,-1,-1,-1,-1,-1,-1,-1,-1,-1,-1,-1,-1,-1,-1,-1,-1,-1,-1,-1,-1,-1],"split_conditions":[8.145959E1,9.989076E1,5.611451E1,9.6756485E1,8.7592964E1,9.638595E1,3.3275154E-1,4.4998485E-1,1.1817422E0,9.796823E1,4.512226E1,9.991547E1,7.973334E1,3.4430527E1,9.5857185E1,9.6231186E1,5.6608304E-2,3.190221E1,9.987851E1,2.7057838E1,5.5990135E1,3.255199E1,9.399962E1,6.2287683E0,5.4299477E1,4.0974983E1,2.522576E1,6.630818E1,7.130867E1,3.6932243E1,9.919946E1,4.3502707E0,7.713582E1,3.9744083E1,2.6788473E-1,3.5697308E1,7.9691956E1,4.5967817E0,9.620413E1,9.418985E1,7.267227E1,9.489402E-1,2.4354379E-1,7.7686966E1,5.8167313E1,8.774208E1,1.4124176E1,5.5525063E1,6.4557424E0,1.7699152E1,7.4706024E1,7.306053E0,7.881579E1,8.839185E1,5.196603E0,4.7421837E1,8.19544E1,1.2435429E1,6.0535725E1,9.9237625E1,6.977188E1,3.8965946E-1,4.966986E1,-2.1602088E-1,8.970913E-2,-4.3444532E-1,3.477113E-1,9.7812586E-2,-3.1698915E-1,-6.859302E-2,4.14547E-3,2.4866238E-1,8.274453E-1,-5.917443E-2,5.639827E-1,1.3078742E-1,1.9529574E-2,9.071563E-1,-6.930568E-1,3.3490962E-1,-9.496051E-1,9.2396215E-2,-2.311377E-1,1.0086942E0,5.433798E-3,-5.03098E-1,5.497579E-1,9.9975485E-1,2.0283978E-1,-1.1814544E-1,4.597342E-2,-9.0854436E-2,1.0499777E-2,2.7763742E-1,4.4104797E-3,4.0065315E-1,-9.394731E-1,1.4196151E-1,-8.850849E-1,3.96651E-1,-1.5411275E-2,2.1650651E-1,-1.809606E-2,3.185317E-1,-4.5404783E-1,5.722801E-1,-2.086871E-1,-7.874846E-1,1.05860874E-1,6.9300014E-1,-6.2282556E-1,