tree
version=v3
num_class=1
num_tree_per_iteration=1
label_index=0
max_feature_idx=124
objective=regression
feature_names=feature_0 feature_1 feature_2 feature_3 feature_4 feature_5 feature_6 feature_7 feature_8 feature_9 feature_10 feature_11 feature_12 feature_13 feature_14 feature_15 feature_16 feature_17 feature_18 feature_19 feature_20 feature_21 feature_22 feature_23 feature_24 feature_25 feature_26 feature_27 feature_28 feature_29 feature_30 feature_31 feature_32 feature_33 feature_34 feature_35 feature_36 feature_37 feature_38 feature_39 feature_40 feature_41 feature_42 feature_43 feature_44 feature_45 feature_46 feature_47 feature_48 feature_49 feature_50 feature_51 feature_52 feature_53 feature_54 feature_55 feature_56 feature_57 feature_58 feature_59 feature_60 feature_61 feature_62 feature_63 feature_64 feature_65 feature_66 feature_67 feature_68 feature_69 feature_70 feature_71 feature_72 feature_73 feature_74 feature_75 feature_76 feature_77 feature_78 feature_79 feature_80 feature_81 feature_82 feature_83 feature_84 feature_85 feature_86 feature_87 feature_88 feature_89 feature_90 feature_91 feature_92 feature_93 feature_94 feature_95 feature_96 feature_97 feature_98 feature_99 feature_100 feature_101 feature_102 feature_103 feature_104 feature_105 feature_106 feature_107 feature_108 feature_109 feature_110 feature_111 feature_112 feature_113 feature_114 feature_115 feature_116 feature_117 feature_118 feature_119 feature_120 feature_121 feature_122 feature_123 feature_124
feature_infos=[2.2151860416208535e-05:0.99998499769364146] [1.7209456716571481e-05:0.9999737807908009] [4.1471560964234655e-06:0.99999979770490666] [7.0443164967848304e-08:0.99999941508523382] [1.9313039254065245e-05:0.99999739759518336] [1.518302849545794e-05:0.99999905521108812] [1.6332941838892445e-05:0.99997572216216091] [3.0307525774153632e-05:0.99999123123093481] [8.7796326189160112e-06:0.99999751647253521] [6.6776784305444536e-06:0.99999371399019377] [2.8851685628827894e-05:0.99996529360659736] [1.2294827432257627e-05:0.99998800145469879] [1.4944407855765895e-05:0.99999763978466683] [4.6610102810706877e-07:0.99996178134959213] [2.2672531517664574e-05:0.9999945612120531] [1.5908519903518048e-05:0.9999985267161573] [3.9292895609444045e-06:0.99998817868433387] [1.4912551008494646e-05:0.99998961362805527] [1.8083602695950773e-05:0.99999452675578726] [6.7491489511573022e-06:0.99998183100835103] [5.1821430661846968e-05:0.99998861823108942] [2.0964756539121332e-05:0.99999117666909876] [1.0140982772743889e-05:0.99997342807276701] [4.6321976607810456e-06:0.9999953658199624] [5.0504231638992536e-06:0.99997011733801489] [5.9083132624149215e-06:0.9999963656480827] [2.1591993759617623e-07:0.99999884535994188] [2.2147464596722344e-06:0.99999809764133274] [1.8910538459926407e-05:0.99999535842417941] [2.3480710271250871e-05:0.99999801589982362] [6.5998662556188137e-06:0.99999579596011479] [1.8672509572992269e-06:0.99999693059381167] [1.5703774202568965e-05:0.99999434218368422] [5.9218668255756057e-06:0.9999729706843199] [1.1414636462814265e-05:0.99995167314691691] [2.7787418385827323e-05:0.99996910139435424] [2.3352331957049444e-08:0.99999869681273623] [8.4808746581011007e-07:0.99998314845562108] [8.4500292285571987e-07:0.99995519676408529] [5.0543263888647161e-06:0.99998700969554355] [7.4179459411682913e-06:0.99999322614215613] [1.7271975010890728e-05:0.99997018665676596] [3.4767152723436112e-06:0.9999827127821882] [8.0042560308690724e-06:0.99997682455872128] [1.2331095511908252e-05:0.9999931044380771] [2.2933946770553604e-06:0.9999898193336989] [8.9614242170243941e-06:0.99996210391863194] [1.1368405121392477e-05:0.99999138915441255] [9.836114943428953e-06:0.99999522232509275] [2.227571007540341e-06:0.99999224431542855] [2.4620420383536512e-06:0.99999845613309168] [3.1560095269167476e-05:0.99997771465305008] [3.1591362832372738e-06:0.99998521377784555] [4.7382826240394138e-06:0.99997454478886327] [4.7328913510558124e-07:0.99999119181630891] [1.5099733907675272e-07:0.99999513750210645] [1.5159437174450119e-06:0.99999551442118695] [8.7963360074772012e-06:0.99997836585703948] [3.1487729588830504e-05:0.99997802836706895] [3.0907425980775116e-06:0.9999494750895026] [2.4443224938552888e-06:0.99999868314006723] [2.3129362643814488e-05:0.99998997522310018] [4.8586211150891678e-05:0.99999381793950248] [4.9938955595241197e-06:0.9999970983521721] [6.4774132624290104e-07:0.99995199389447831] [8.849174866099041e-06:0.99999791400197779] [8.8465190106745695e-07:0.99999577023099695] [2.9377804789953998e-06:0.99999986057199863] [1.2038183869300667e-05:0.99997448750570561] [3.6187586671676542e-07:0.99999752154490484] [9.419663546617052e-06:0.9999874787984564] [1.8193285178380592e-06:0.9999985945487575] [2.1123135400813453e-06:0.9999893699747876] [6.7471534093144214e-07:0.99999445589210423] [3.3676061771403809e-06:0.99998446021061849] [2.1947629907481669e-05:0.99999195669400642] [3.1367521705072399e-05:0.99999916361864305] [7.9289799255199966e-06:0.99999668762084748] [1.0516480442146481e-05:0.99998282006251138] [4.2837841603193816e-05:0.99999304806306699] [9.6662713329198624e-06:0.99996455053304112] [7.4278052096810043e-06:0.99999551811857623] [4.6665867037054554e-05:0.99998189637141732] [4.8460653125914632e-06:0.99998153439095527] [3.7282374084623982e-06:0.99997714310355357] [1.5338526594077528e-05:0.99993503728033672] [2.9911883443145548e-05:0.99999220224242003] [1.0416250739941901e-05:0.99998530976663158] [8.5702731502657059e-06:0.99999885730046556] [1.4460416022266109e-05:0.99999509433189748] [1.6740256928438058e-06:0.99997629991600301] [3.8922499033811064e-06:0.99997888089197728] [8.0675025744270101e-06:0.99999915340755685] [2.081776609708097e-05:0.99997393874879614] [1.5176461283572529e-05:0.9999726116080232] [2.3960636179598538e-06:0.99995840724156537] [8.1759728639552165e-06:0.99998453508959095] [1.3346869103703085e-05:0.99997856999299084] [1.6202921453545294e-05:0.99999750051192027] [9.80231133151932e-06:0.9999988451553129] [9.5772448563957724e-06:0.9999916577849578] [1.2452294443576761e-05:0.99999664375019603] [3.5058205445359647e-06:0.99996229863744768] [8.842493942617935e-07:0.99998404969541688] [2.8563159943151284e-05:0.99994545686396319] [8.7568210797250856e-05:0.99999482749690738] [3.0498662960232181e-05:0.9999934050539] [9.6170043256682547e-06:0.99998704523553716] [2.6660729912642012e-07:0.99994377382885058] [1.3004311531172874e-05:0.99999762082769938] [4.2854147190851677e-06:0.9999939588080119] [5.3555319562414994e-06:0.99996895970733057] [1.4959275080883572e-05:0.99999012466438186] [1.0709807253039827e-05:0.99999023221956806] [1.9601300201399496e-05:0.99999439606179841] [1.0777086120072887e-05:0.9999731718989443] [4.1721760253299323e-06:0.99998377747608225] [1.0252346328232242e-05:0.99998461339572087] [1.6718500992940477e-05:0.99998149481466292] [9.773667198675895e-06:0.99999233677177535] [3.6222707141764232e-05:0.99996831333018465] [3.6491150884332413e-06:0.99999537753364465] [2.6157010420191362e-05:0.99995133581669393] [8.1520891670461282e-07:0.99996120875990124] [2.501792041642581e-06:0.99998276195456115]
tree_sizes=2762 2868 2892 2920 2958 2856 2963 2920 2929 2938 2906 2848 2867 2897 2843 2919 2826 2874 2882 2930 2896 2873 2927 2905 2862 2900 2859 2858 2895 2853 2894 2956 2856 2839 2859 2862 2909 2864 2923 2850 2892 2891 2889 2910 2944 2836 2883 2870 2941 2912 2890 2920 2889 2932 2859 2922 2893 2879 2909 2858 2888 2918 2899 2856 2891 2862 2839 2856 2916 2866 2937 2879 2871 2908 2921 2950 2848 2844 2898 2917 2888 2891 2867 2931 2862 2845 2909 2902 2827 2872 2841 2869 2853 2923 2855 2960 2867 2855 2835 2884

Tree=0
num_leaves=31
num_cat=0
split_feature=93 81 52 66 59 34 122 6 104 21 32 3 80 56 4 94 39 99 111 116 96 14 33 68 36 94 109 60 27 109
split_gain=1.71193 1.40521 1.35344 1.36468 1.06931 0.990831 1.05755 1.00474 1.2178 1.21576 0.99821 0.975867 0.948839 0.959841 1.08327 1.55481 0.93545 0.975918 0.931263 0.930319 1.73926 1.34746 1.15303 1.07869 1.05341 1.0483 1.04061 1.33269 1.4301 1.03317
threshold=0.96103155972586085 0.95693726536233303 0.98000130279764996 0.81102701664107768 0.25381183448734751 0.90230838620765919 0.01600563400219002 0.0080054298066000746 0.44844784195084614 0.87091368989661799 0.96040788938082999 0.12613663939986233 0.11438060410108121 0.25467729774539988 0.47856340290523114 0.45729735271095279 0.90869564813980042 0.065920898957460075 0.62357380835858833 0.32049176890892223 0.53898406681163313 0.67631575222670348 0.94504419568711373 0.96886009011508178 0.14622369969567553 0.66776732385077775 0.7465411233696575 0.19592385068092913 0.39154064022031188 0.083076575016146528
decision_type=2 2 2 2 2 2 2 2 2 2 2 2 2 2 2 2 2 2 2 2 2 2 2 2 2 2 2 2 2 2
left_child=5 2 3 19 -5 6 10 8 9 11 16 -8 -6 -14 -15 -16 17 -1 -13 20 21 -2 23 26 -22 -23 29 -28 -29 -21
right_child=1 -3 -4 4 12 -7 7 -9 -10 -11 -12 18 13 14 15 -17 -18 -19 -20 22 24 25 -24 -25 -26 -27 27 28 -30 -31
leaf_value=0.50991949736178221 0.50760984725956682 0.491614053523734 0.52140860962042357 0.48935755566509148 0.51404384833438743 0.50126200890018169 0.48082014257475103 0.49996230358756266 0.50943132262352009 0.47611375631774366 0.4795042072917266 0.51066152260500441 0.48796000707985032 0.50796747999748681 0.50845754872968307 0.48473260916923472 0.50664934172216169 0.4952084217711169 0.4947275840251103 0.49374277013386214 0.48633405057634527 0.51503648465981455 0.51439430556695231 0.51862521336913991 0.50378860441122009 0.53684781789700797 0.4837189875770842 0.50940309763781866 0.49330724894138744 0.50408607246441806
leaf_weight=48 243 110 40 110 46 6337 20 56673 246 21 33 92 66 126 47 67 94 745 61 109 40 83 77 37 255 30 67 92 138 847
leaf_count=48 243 110 40 110 46 6337 20 56673 246 21 33 92 66 126 47 67 94 745 61 109 40 83 77 37 255 30 67 92 138 847
internal_value=0.500177 0.502678 0.503161 0.502866 0.497964 0.500075 0.499945 0.499999 0.504759 0.498835 0.496582 0.501593 0.500653 0.49864 0.501577 0.494514 0.497217 0.496099 0.504309 0.503989 0.5071 0.511805 0.502507 0.501797 0.501422 0.520827 0.5013 0.49613 0.499746 0.502907
internal_weight=0 2630 2520 2480 462 64370 58033 57113 440 194 920 173 352 306 240 114 887 793 153 2018 651 356 1367 1290 295 113 1253 297 230 956
internal_count=67000 2630 2520 2480 462 64370 58033 57113 440 194 920 173 352 306 240 114 887 793 153 2018 651 356 1367 1290 295 113 1253 297 230 956
is_linear=0
shrinkage=1


Tree=1
num_leaves=31
num_cat=0
split_feature=93 81 117 105 105 20 118 38 123 39 105 86 47 80 90 25 33 74 16 7 37 104 123 123 33 83 86 70 24 22
split_gain=1.38667 1.16242 1.01571 1.31442 1.34257 1.29221 1.21984 1.2595 1.46877 1.51508 1.21134 1.36408 1.70195 1.15363 1.36548 0.99213 0.973788 1.47156 1.11285 0.981463 1.18659 0.96103 1.21125 0.958427 1.07975 1.2233 0.984277 1.07867 0.949505 0.946297
threshold=0.96103155972586085 0.96891503632496956 0.42011840064894845 0.29456992295633933 0.19088049758908179 0.5234166163512296 0.79784460190890061 0.59664313757390652 0.054206124563065845 0.13077119197782441 0.890149241465514 0.5100593370176989 0.26854844022467389 0.88125929442111473 0.38747026781929716 0.87982858810843922 0.5333296960090711 0.26008633668287967 0.28387659807949711 0.72522696721277435 0.72935437126230473 0.72849379357909683 0.18771132417529116 0.77958560386153219 0.06242901644972821 0.087581773558092726 0.31474192160601644 0.45327840387765228 0.42776726463326953 0.57029164813319466
decision_type=2 2 2 2 2 2 2 2 2 2 2 2 2 2 2 2 2 2 2 2 2 2 2 2 2 2 2 2 2 2
left_child=-1 2 3 4 21 -6 7 15 -9 -10 11 28 -13 16 -15 23 17 -5 -19 20 -18 22 -2 24 -4 -26 27 -27 -11 -3
right_child=1 29 6 13 5 -7 -8 8 9 10 -12 12 -14 14 -16 -17 19 18 -20 -21 -22 -23 -24 -25 25 26 -28 -29 -30 -31
leaf_value=-9.1956810786872101e-05 0.019745483868755402 -0.018491474752469608 0.016238943316346531 -0.020033742754388448 0.02365158058673842 0.0024287370141022483 0.0098846668365384152 -0.023747648943767505 0.015365169254725737 -0.018886787621037609 0.01376433655704287 -0.01759118733129331 0.0069138183933526486 -0.0080359714558081979 0.016530161845730619 0.015362411052030459 0.0091619636754305279 -0.015211085765980759 -4.2403249175376479e-05 -0.0090411724852798858 -0.007048056976672149 0.014455984112543938 -0.0066892771595918861 0.011657399835268078 -0.018559805015402456 0.00023153752906981745 -0.0011581979191084906 0.018380471466538997 -0.0040613749379257635 0.0039228621930364636
leaf_weight=64370 20 48 49 73 64 52 307 27 58 72 44 35 149 35 64 89 143 65 189 79 66 39 130 133 31 66 299 65 108 31
leaf_count=64370 20 48 49 73 64 52 307 27 58 72 44 35 149 35 64 89 143 65 189 79 66 39 130 133 31 66 299 65 108 31
internal_value=0 0.00225067 0.00262064 0.000173987 0.00566912 0.0141379 0.00424802 0.0028354 -0.00107178 0.000242062 -0.00190779 -0.00380222 0.00225254 -0.00217338 0.00784517 0.00546688 -0.00378612 -0.00752048 -0.00392415 0.000453946 0.00404301 0.00047136 -0.00316464 0.0040972 0.00212562 0.000625503 0.00200863 0.00923673 -0.00999154 -0.00969598
internal_weight=0 2630 2551 1019 305 116 1532 1225 493 466 408 364 184 714 99 732 615 327 254 288 209 189 150 643 510 461 430 131 180 79
internal_count=67000 2630 2551 1019 305 116 1532 1225 493 466 408 364 184 714 99 732 615 327 254 288 209 189 150 643 510 461 430 131 180 79
is_linear=0
shrinkage=0.1


Tree=2
num_leaves=31
num_cat=0
split_feature=93 114 59 112 65 59 90 4 101 0 111 83 57 83 117 61 109 82 45 36 1 63 54 37 75 0 36 34 58 68
split_gain=1.1232 1.10054 0.929822 0.908176 1.05916 1.03117 1.22578 0.976864 1.01821 1.01893 0.951901 0.93596 0.967259 0.931998 0.901372 1.20645 1.09513 0.898436 1.06852 1.11668 0.995365 1.10123 0.886945 0.886141 1.29804 1.22602 1.04331 1.9553 1.15917 1.83283
threshold=0.96103155972586085 0.51825118656465297 0.98056059444521404 0.43927237805899944 0.51121669021210747 0.19835691957704479 0.61201510339889753 0.65089898916505107 0.37564948312871471 0.53688436586419097 0.75744548243639731 0.12283371105839565 0.51629120805411699 0.6438077627233213 0.41621678969990999 0.11896226081054924 0.66419425877852178 0.13657788475921392 0.091810962623600625 0.057945880735242102 0.5192823187908141 0.32400997372456408 0.47383252582125862 0.95627385371438212 0.63286474052416553 0.79947402202897255 0.50709507565281686 0.95258399115746684 0.083585529218090662 0.57903410237138619
decision_type=2 2 2 2 2 2 2 2 2 2 2 2 2 2 2 2 2 2 2 2 2 2 2 2 2 2 2 2 2 2
left_child=23 2 3 5 7 6 -2 8 9 -5 -9 -7 13 -13 15 -3 -16 -17 -19 -20 21 -21 -23 -1 26 -26 28 -28 29 -25
right_child=1 14 -4 4 -6 11 -8 10 -10 -11 -12 12 -14 -15 16 17 -18 18 19 20 -22 22 -24 24 25 -27 27 -29 -30 -31
leaf_value=-0.0001615889261197641 -6.2027083778822866e-06 -0.018598821394455931 0.021986900702384966 0.00029202122439412362 0.0096162352793678456 -0.010447905449351917 -0.020590791261897216 0.0042033032616315301 0.0033174903050018183 -0.020882740134203978 0.023839687228654372 0.013379220039179025 -0.0010074195563021101 0.00057866245422147865 0.0045757804197373532 -0.013007233400017984 -0.0035956109222873541 0.017772648411412392 0.015827438954544384 -0.0096590854994514416 -0.0092435048093504613 0.018369891577737132 -0.00067275701200260839 0.023452082484783161 0.0061433594008717335 -0.0026069716691519279 0.0014525192358076089 0.023599452073020596 -0.0033773819159703296 -0.0080406054459286457
leaf_weight=61590 81 48 28 47 380 48 45 98 159 44 33 149 193 92 518 62 240 31 33 51 152 47 51 42 837 198 784 42 844 33
leaf_count=61590 81 48 28 47 380 48 45 98 159 44 33 149 193 92 518 62 240 31 33 51 152 47 51 42 837 198 784 42 844 33
internal_value=0 0.00202561 0.0039474 0.00357844 0.00588064 0.00069691 -0.00735784 0.00215485 -0.00151054 -0.00994632 0.00914987 0.00280251 0.00426799 0.0084927 -0.000151807 -0.00356734 0.00198853 -0.00187762 1.28926e-05 -0.00163547 -0.00355001 0.00225813 0.00845994 -8.27616e-05 0.00166363 0.00446938 -5.2194e-07 0.00257863 -0.00231868 0.0095953
internal_weight=0 2630 1397 1369 761 608 126 381 250 91 131 482 434 241 1233 475 758 427 365 334 301 149 98 64370 2780 1035 1745 826 919 75
internal_count=67000 2630 1397 1369 761 608 126 381 250 91 131 482 434 241 1233 475 758 427 365 334 301 149 98 64370 2780 1035 1745 826 919 75
is_linear=0
shrinkage=0.1


Tree=3
num_leaves=31
num_cat=0
split_feature=93 81 52 66 122 59 5 104 33 69 6 22 77 75 116 40 86 83 77 17 69 83 79 124 6 24 12 73 93 57
split_gain=0.909792 0.913272 1.0646 1.04207 0.877491 0.950373 0.930286 0.982117 0.973657 0.898581 1.00419 1.34128 0.843008 1.35459 1.26996 2.03213 1.61295 1.52822 1.44122 1.32379 1.20245 1.14985 1.14095 1.38739 1.33058 1.25803 1.09962 1.16624 1.08983 1.08918
threshold=0.96103155972586085 0.95693726536233303 0.98000130279764996 0.81102701664107768 0.38248019619911039 0.25381183448734751 0.3827894535284746 0.39842510920934532 0.72932706796242464 0.35023838020036069 0.8857210940994128 0.60203592070284639 0.21294352642479167 0.8106505308301013 0.37101012715244763 0.53374691789273343 0.82128069457651109 0.80115981952493942 0.17050416685449191 0.079098798188288591 0.3063984616029482 0.062658174850050555 0.60075114193010626 0.90561807030838815 0.75839556644800854 0.93650317467237687 0.83631543551741305 0.314804369392927 0.81576882730580713 0.85052892541489822
decision_type=2 2 2 2 2 2 2 2 2 2 2 2 2 2 2 2 2 2 2 2 2 2 2 2 2 2 2 2 2 2
left_child=12 2 3 -2 6 -6 7 -5 -8 -7 11 -11 13 14 15 17 19 18 22 -17 -20 -18 24 25 -1 -24 27 -23 -22 -29
right_child=1 -3 -4 4 5 9 8 -9 -10 10 -12 -13 -14 -15 -16 16 21 -19 20 -21 28 26 23 -25 -26 -27 -28 29 -30 -31
leaf_value=-0.00017560058291013719 0.002932148338034948 -0.0070961610807783225 0.018396469180006533 -0.018310804977355637 -0.016958364187052748 0.0060966169735341266 0.014746964101597102 0.0046761138092090452 -0.0052888907571988454 -0.011947597449997793 -0.027149308557537472 0.010426633689729941 0.00011368828194587129 0.0012548317747638231 -0.00042440312789705954 -0.011288680634192694 0.029246095190756022 0.00061015765810775206 -0.0031445831517755451 -0.00077051071229436007 -0.018256782999598282 0.011287639215160376 -0.0050075200922714462 -0.023199702345512132 -0.0096919867215017799 -0.023712076019877806 0.017378352741626177 -0.0064674318325705837 0.0015416668727993967 0.014465202689170837
leaf_weight=660 2018 110 40 34 61 74 79 41 35 74 22 42 50670 2661 6878 130 20 430 112 1504 212 87 461 55 189 39 55 145 32 30
leaf_count=660 2018 110 40 34 61 74 79 41 35 74 22 42 50670 2661 6878 130 20 430 112 1504 212 87 461 55 189 39 55 145 32 30
internal_value=0 0.00182305 0.00221238 0.00195134 -0.00233278 -0.00595897 0.00290504 -0.00574462 0.00859561 -0.00279405 -0.00756151 -0.00384658 -7.44854e-05 -0.000770454 -0.00125866 -0.00263765 -0.00030819 -0.00473417 -0.00603989 -0.00160733 -0.0117227 0.0059909 -0.00459893 -0.00812472 -0.00229409 -0.00646648 0.0045237 0.0018252 -0.0156603 -0.00287898
internal_weight=0 2630 2520 2480 462 273 189 75 114 212 138 116 64370 13700 11039 4161 1971 2190 1760 1634 356 337 1404 555 849 500 317 262 244 175
internal_count=67000 2630 2520 2480 462 273 189 75 114 212 138 116 64370 13700 11039 4161 1971 2190 1760 1634 356 337 1404 555 849 500 317 262 244 175
is_linear=0
shrinkage=0.1


Tree=4
num_leaves=31
num_cat=0
split_feature=82 40 89 39 35 99 122 19 3 58 105 124 40 93 15 96 46 43 109 46 26 30 36 33 102 59 43 7 71 107
split_gain=0.754622 1.14658 1.12182 1.10316 1.23681 1.12928 1.18007 1.15102 1.21064 1.26195 1.10549 1.25239 1.06294 1.01585 1.05697 0.979389 1.20393 1.36491 1.28929 1.11 1.09129 1.24613 1.28031 1.25981 1.08455 1.08444 1.06564 1.31275 1.31934 1.16647
threshold=0.689784375526305 0.98350830083005869 0.23361866279328256 0.0084081772125706462 0.45301594423368136 0.97700903012805884 0.43221254034501588 0.064801437825773092 0.40401177861177007 0.73008828086476119 0.4452209389432914 0.49359089108382909 0.69788920647833608 0.27456648258314426 0.38895382757373237 0.69602538955870574 0.77788269011528233 0.22832215526943003 0.10337185887792634 0.87513237471510108 0.66828893980747017 0.94662116908264882 0.71444394350740115 0.97980226908285772 0.019221083334930004 0.4864673226666596 0.39143123993846923 0.047604218458567667 0.99594784503893818 0.096061806453828349
decision_type=2 2 2 2 2 2 2 2 2 2 2 2 2 2 2 2 2 2 2 2 2 2 2 2 2 2 2 2 2 2
left_child=3 -2 -3 4 12 15 7 -7 9 -9 11 -8 -1 -6 -15 16 -5 24 19 25 21 23 -23 26 -18 -19 -17 29 -29 -28
right_child=1 2 -4 5 13 6 10 8 -10 -11 -12 -13 -14 14 -16 20 17 18 -20 -21 -22 22 -24 -25 -26 -27 27 28 -30 -31
leaf_value=-0.016522642313926059 -0.00059268065087778174 -0.0047860771720297643 0.0089019522364368713 0.00016870059312511094 -0.01150780169258791 -0.015710114498241719 0.0040153216219578798 -0.010196556918746739 0.0058496900381845886 0.0085175043251365431 0.0025539144112125918 0.017599642356778956 0.00024365779859098521 -0.0060867459300840109 0.011354426397638543 -0.00020481714282581396 -0.012897976301610471 -0.0050175677558754461 0.0014205494251669491 -0.0076337536201894944 0.00076730105301947853 0.00041427604883210735 0.011157312895804166 0.0068669090423389605 0.0046617421762884777 0.0088839169552497512 -0.026098877936601639 -0.0020199068403769674 -0.025051668153610082 -0.0067350902222503622
leaf_weight=121 20482 80 238 24221 54 44 130 129 245 50 340 142 55 57 89 3285 36 118 4831 310 4454 384 156 179 1532 107 36 4841 25 229
leaf_count=121 20482 80 238 24221 54 44 130 129 245 50 340 142 55 57 89 3285 36 118 4831 310 4454 384 156 179 1532 107 36 4841 25 229
internal_value=0 -0.000500169 0.00545842 0.000225184 -0.00516931 0.000269448 0.00346474 -0.000315281 0.0012823 -0.00496917 0.00635535 0.0111071 -0.0112832 0.000210891 0.0045452 0.000192322 0.000501309 0.00166314 0.000904718 -0.00375319 -0.000516081 -0.00114183 0.00351782 -0.00143458 0.00425859 0.00159336 -0.00161114 -0.00251151 -0.00213824 -0.00936564
internal_weight=0 20800 318 46200 376 45824 1080 468 424 179 612 272 176 200 146 44744 31155 6934 5366 535 13589 9135 540 8595 1568 225 8416 5131 4866 265
internal_count=67000 20800 318 46200 376 45824 1080 468 424 179 612 272 176 200 146 44744 31155 6934 5366 535 13589 9135 540 8595 1568 225 8416 5131 4866 265
is_linear=0
shrinkage=0.1


Tree=5
num_leaves=31
num_cat=0
split_feature=27 26 60 91 109 76 106 115 77 119 7 3 95 59 4 114 40 24 90 60 116 122 44 106 121 21 20 41 105 47
split_gain=0.74722 1.62805 1.58238 1.11342 1.01567 0.937665 0.940025 1.09233 1.24029 1.07433 1.00995 1.00985 0.962482 0.944157 0.921682 0.999267 0.927607 0.866791 1.2101 0.856002 0.832517 0.83174 0.824551 0.865138 0.813667 0.736771 0.732494 0.896583 0.72156 0.71182
threshold=0.023338801182249295 0.027370516916128521 0.067932769045042987 0.035972609853238031 0.68786084289774962 0.02790000905441126 0.12178076696649721 0.80976288376906369 0.018956065330824837 0.23968075865070063 0.71760024340594186 0.47786980705655202 0.41925764818705319 0.2861164376832066 0.85889866223641143 0.11898888247491425 0.10729841979759798 0.70982146127948453 0.68784791079133034 0.69884095567722493 0.72787706534460395 0.2194298693637787 0.49336474946654246 0.2370818679426108 0.27260496295388248 0.35531304421626547 0.28152491088411669 0.24680189873611749 0.29046643524029436 0.66781465338393742
decision_type=2 2 2 2 2 2 2 2 2 2 2 2 2 2 2 2 2 2 2 2 2 2 2 2 2 2 2 2 2 2
left_child=1 -1 4 -4 -3 -5 17 8 -8 28 12 21 13 24 15 -12 -17 18 29 -13 25 -11 -14 -24 -10 -18 -25 -28 -9 -7
right_child=-2 2 3 5 -6 6 7 9 10 11 14 19 22 -15 -16 16 20 -19 -20 -21 -22 -23 23 26 -26 -27 27 -29 -30 -31
leaf_value=-0.015611502001062037 -5.1966300297718892e-05 0.021211869483420128 0.015013535472474271 -0.012129025779664517 -0.002967645875785662 -0.012347661524545403 -0.020256488407030704 0.0002376447148297144 0.018047987244537343 -0.008500313365154645 0.01531493690347782 -0.014091996343839647 0.008383309984978821 0.01471351378468936 0.015438094490491494 0.013198438674832384 -0.022539560197164184 -0.016098687240360853 0.016430774429702599 0.0070747328022944525 0.001943624428682158 0.013909587478126163 0.015616048093383704 -0.013764270489963776 -0.0041258211989524006 -0.0061038202675643251 -0.015634767618030312 0.0061613900602270561 -0.021706069078902865 0.0090438854459318381
leaf_weight=50 65416 71 62 50 23 60 20 23 23 22 27 56 175 214 32 24 46 51 31 29 58 67 26 52 59 67 25 77 43 21
leaf_count=50 65416 71 62 50 23 60 20 23 23 22 27 56 175 214 32 24 46 51 31 29 58 67 26 52 59 67 25 77 43 21
internal_value=0 0.00214611 0.00272491 0.00190432 0.0152956 0.0013145 0.00182066 0.00281584 0.00437556 -0.0031956 0.00491992 0.000925005 0.00700658 0.0112175 -0.000428192 -0.00271522 -0.00521171 -0.00529213 -0.000371287 -0.00687041 -0.00779559 0.00837006 0.00349553 -0.00125648 0.00209366 -0.0127945 -0.00410509 0.000819195 -0.014059 -0.0068017
internal_weight=0 1584 1534 1440 94 1378 1328 1165 925 240 905 174 651 296 254 222 195 163 112 85 171 89 355 180 82 113 154 102 66 81
internal_count=67000 1584 1534 1440 94 1378 1328 1165 925 240 905 174 651 296 254 222 195 163 112 85 171 89 355 180 82 113 154 102 66 81
is_linear=0
shrinkage=0.1


Tree=6
num_leaves=31
num_cat=0
split_feature=34 71 11 122 36 55 74 100 109 113 1 23 92 60 23 81 75 69 57 102 43 83 31 23 108 101 85 106 37 57
split_gain=0.745984 0.902702 0.929032 0.904738 1.11442 0.964041 0.937826 1.07557 1.11622 0.89275 1.17903 1.25735 1.06505 1.28724 1.06558 1.05786 1.02541 1.01472 1.69676 1.38758 1.25297 1.23074 1.22751 1.17717 1.51578 1.20561 1.15902 1.13116 1.04068 1.20472
threshold=0.90230838620765919 0.98024300319683932 0.86924765051809405 0.89552394604801566 0.078591364693782487 0.094096592840590923 0.098479129837605109 0.036479436331589961 0.21320285385028517 0.15497282711401558 0.77809485773249631 0.97303024953394146 0.96509040416814329 0.76565443669864375 0.66692757719320495 0.016130831343646294 0.022570923480677633 0.53371291219861117 0.34909815346352024 0.051180638312329725 0.52397765641772553 0.30657051983415967 0.14094291734911388 0.45917661972064278 0.015639743899794282 0.95239164213234384 0.39963991520574016 0.11819082908805396 0.77562979621828709 0.090764022772198374
decision_type=2 2 2 2 2 2 2 2 2 2 2 2 2 2 2 2 2 2 2 2 2 2 2 2 2 2 2 2 2 2
left_child=9 3 -3 -2 -5 -6 -7 -8 -9 10 12 15 17 14 -14 -12 -17 19 21 20 -1 -19 -20 25 -25 28 -23 -24 29 -21
right_child=1 2 -4 4 5 6 7 8 -10 -11 11 -13 13 -15 -16 16 -18 18 22 23 -22 26 27 24 -26 -27 -28 -29 -30 -31
leaf_value=-0.0013016936182615722 0.0012480299002897949 0.012866386240348221 -0.010563794129993767 -0.01487220588484223 0.012974509682548655 -0.014674270671925374 0.018775190914479586 0.0072741282433271409 -0.0046165190426011886 5.4004579784260254e-05 0.014785533168298358 -0.017277988443364863 0.0020164619071963634 -0.021735708324419473 -0.013060413404967483 -0.017759699121866698 -0.0026491948600786577 0.0091573316588432398 -0.0066414519930290856 -0.011686633102563692 -0.017176572431572803 0.0067387236878811464 -0.0065496424682055148 0.022390937741147355 0.00044411084495428189 0.0097927743687048659 -0.0011155424718596438 0.0012570890893899742 -0.0081604722370360334 -0.00095354513820248047
leaf_weight=97 5777 110 20 67 44 56 26 100 375 51112 34 61 131 47 73 46 1895 350 287 116 102 313 209 32 1899 72 470 1658 359 1062
leaf_count=97 5777 110 20 67 44 56 26 100 375 51112 34 61 131 47 73 46 1895 350 287 116 102 313 209 32 1899 72 470 1658 359 1062
internal_value=0 0.00101155 0.00926174 0.000845139 -0.00263914 -0.00127539 -0.00240105 -0.0010292 -0.00211322 -0.000110069 -0.00101055 -0.00313773 -0.000415392 -0.00681606 -0.00337869 -0.00270099 -0.0030073 -0.000186732 0.001095 -0.00131352 -0.00943857 0.0042277 -0.000552794 -0.000856771 0.000807808 -0.00285447 0.00202416 0.00038317 -0.00344693 -0.00201045
internal_weight=0 6575 130 6445 668 601 557 501 475 60425 9313 2036 7277 251 204 1975 1941 7026 3287 3739 199 1133 2154 3540 1931 1609 783 1867 1537 1178
internal_count=67000 6575 130 6445 668 601 557 501 475 60425 9313 2036 7277 251 204 1975 1941 7026 3287 3739 199 1133 2154 3540 1931 1609 783 1867 1537 1178
is_linear=0
shrinkage=0.1


Tree=7
num_leaves=31
num_cat=0
split_feature=93 114 94 23 123 27 122 105 41 78 27 124 68 17 69 37 72 84 86 102 7 26 59 12 48 97 96 100 51 86
split_gain=0.731361 0.875523 0.849751 1.5799 1.43523 1.40415 1.03812 1.0477 1.32867 1.33492 1.02177 1.0357 1.05299 1.02012 1.07546 0.952709 0.943921 1.11634 1.04402 1.01744 0.932604 0.960158 0.927015 0.901219 0.899994 1.35518 1.25881 1.11147 1.03362 1.07658
threshold=0.96103155972586085 0.51825118656465297 0.10222921928605889 0.73437807468608185 0.93470037618350321 0.96422968821826982 0.01600563400219002 0.60122137666407927 0.69201994077956031 0.36654483813593453 0.9556551822986814 0.95697041307773889 0.85046377702773979 0.63192682091125874 0.36974106695228653 0.8359688554800655 0.059386383600856359 0.66937220585034785 0.87273001825503271 0.33490225119914624 0.19782644313713146 0.31406473042290034 0.36569188025748056 0.90375719238277163 0.97330794989299252 0.3786471020593794 0.80386403674711049 0.032303837379659257 0.95307478565912995 0.059004751071969848
decision_type=2 2 2 2 2 2 2 2 2 2 2 2 2 2 2 2 2 2 2 2 2 2 2 2 2 2 2 2 2 2
left_child=2 -2 3 4 10 -5 7 8 23 -10 11 16 -13 14 -6 -12 17 18 -1 -19 21 -9 -21 -4 -8 28 27 -27 29 -26
right_child=1 -3 6 5 13 -7 24 20 9 -11 15 12 -14 -15 -16 -17 -18 19 -20 22 -22 -23 -24 -25 25 26 -28 -29 -30 -31
leaf_value=-0.016814093376918096 0.0033486402601115486 -0.00030757634925908302 -0.0022595765249172148 0.0019861897842442392 0.010090940232233454 -0.012991826222099077 4.3111840946318787e-05 -0.014183091173287143 0.018334259415860289 -0.00027224372726740296 0.0073604265877100479 0.0067921507438009681 -0.016905857853236655 0.011753860626031232 -0.005397263098802796 -0.011968603933540484 -0.0028097050003657461 -0.018280045809224248 0.0065538778632716543 0.022234882205724716 -0.0098429796309366623 0.011129445612351312 -0.0040418421656920993 -0.020019272204879073 -0.017333383079385385 -0.018236580147193031 -0.0066115950686167395 0.0027964112260606736 0.027079675087462302 0.0062950377049271651
leaf_weight=146 1397 1233 365 1688 69 65 55282 22 64 97 170 175 21 119 128 30 3892 20 22 25 298 47 29 31 20 26 212 746 23 538
leaf_count=146 1397 1233 365 1688 69 65 55282 22 64 97 170 175 21 119 128 30 3892 20 22 25 298 47 29 31 20 26 212 746 23 538
internal_value=0 0.00163453 -6.67828e-05 -0.00114181 -0.00207244 0.00143082 5.60144e-05 -0.00326895 -0.000535652 0.00712413 -0.00252697 -0.00284974 0.00425308 0.00444346 2.75391e-05 0.00446107 -0.0031865 -0.00924634 -0.013754 0.000987266 -0.00741731 0.00305878 0.00812331 -0.00364986 0.000110059 0.00247489 0.000213733 0.00208805 0.00630447 0.00544814
internal_weight=0 2630 64370 6599 4846 1753 57771 924 557 161 4530 4330 196 316 197 200 4134 242 168 74 367 69 54 396 56847 1565 984 772 581 558
internal_count=67000 2630 64370 6599 4846 1753 57771 924 557 161 4530 4330 196 316 197 200 4134 242 168 74 367 69 54 396 56847 1565 984 772 581 558
is_linear=0
shrinkage=0.1


Tree=8
num_leaves=31
num_cat=0
split_feature=18 100 58 64 117 110 52 40 80 30 101 85 60 82 29 23 107 40 102 44 1 73 95 101 94 102 117 122 100 42
split_gain=0.725317 1.55742 1.25364 1.16754 1.04447 1.01312 1.09524 1.05013 1.2666 1.77747 1.20961 1.17534 1.10122 1.05861 1.032 1.02544 1.09775 1.09679 1.02735 0.988217 1.33031 0.979231 0.957758 1.29186 1.10011 1.0725 1.40476 1.27407 1.2295 1.20218
threshold=0.79096544227799737 0.027973846362189695 0.61630403918231302 0.35118686952333478 0.89299690612855087 0.11913377429635881 0.97231455597066074 0.25457970847656025 0.66934335847051318 0.78772685110095486 0.64366224690001306 0.96202340801957387 0.46827391353734188 0.93787520657030343 0.96370326716644883 0.13215955215356864 0.32128507342359125 0.92583741878546577 0.96895279416429492 0.35565137894290078 0.65836015202459708 0.2233174638424191 0.48556056494444411 0.96761820339128868 0.39136230335374778 0.17251947425242517 0.91660819928584869 0.35242117526454947 0.067622694306154321 0.73415590695218647
decision_type=2 2 2 2 2 2 2 2 2 2 2 2 2 2 2 2 2 2 2 2 2 2 2 2 2 2 2 2 2 2
left_child=-1 3 5 -2 19 6 -3 8 11 10 -10 13 -12 14 -7 16 -9 -18 -17 -5 -21 -11 23 -4 -25 27 28 29 -27 -24
right_child=1 2 22 4 -6 7 -8 15 9 21 12 -13 -14 -15 -16 18 17 -19 -20 20 -22 -23 25 24 -26 26 -28 -29 -30 -31
leaf_value=-0.00016863768669612411 -0.012882868233896422 0.0051711078272742702 0.0014016262917812905 0.0056426309149813017 0.017504517662410551 -0.0036931890886442277 -0.013925409037619831 -0.0073654070832984038 0.0088833032186231269 0.0085532403551042083 0.0075218747178577398 0.010301303543912416 -0.0090071939094923444 0.0074160409475942813 -0.021646437815136532 0.0026919212058923022 0.0024125775583885697 -0.01344740125059616 -0.0056385896561265579 -0.00062585465604483729 -0.020418754102368104 -0.012700662225931107 -0.0046622183527298541 -0.027467325901878732 -0.0029629106589434844 0.01047433652098716 0.0072904383570540883 -0.01008996282399581 -0.0021002787372097851 0.014253145530892653
leaf_weight=53061 141 963 2459 74 26 1076 31 227 338 28 73 66 90 84 33 4565 476 48 153 84 57 96 112 28 53 81 195 292 1942 48
leaf_count=53061 141 963 2459 74 26 1076 31 227 338 28 73 66 90 84 33 4565 476 48 153 84 57 96 112 28 53 81 195 292 1942 48
internal_value=0 0.000641946 0.00081938 -0.00565511 -0.00142643 0.00157911 0.00457554 0.00117404 -0.000862069 0.00281797 0.00547107 -0.00268894 -0.0016046 -0.00340759 -0.00422742 0.00187546 -0.00155664 0.000959755 0.00242177 -0.00371575 -0.00862724 -0.00790139 -0.000397791 0.000992315 -0.0114336 -0.00172021 -0.000815457 -0.00615993 -0.0015968 0.00101239
internal_weight=0 13939 13557 382 241 8347 994 7353 1884 625 501 1259 163 1193 1109 5469 751 524 4718 215 141 124 5210 2540 81 2670 2218 452 2023 160
internal_count=67000 13939 13557 382 241 8347 994 7353 1884 625 501 1259 163 1193 1109 5469 751 524 4718 215 141 124 5210 2540 81 2670 2218 452 2023 160
is_linear=0
shrinkage=0.1


Tree=9
num_leaves=31
num_cat=0
split_feature=112 94 50 103 88 83 12 88 106 82 56 91 114 36 67 96 51 77 75 2 52 124 115 96 58 121 87 85 17 38
split_gain=0.659374 0.992507 1.40886 1.10984 0.978055 1.00258 0.961615 0.903647 0.836654 0.825368 0.778322 0.772994 0.967829 0.925966 0.880981 0.767423 0.812063 0.680137 1.25954 1.11428 1.11783 1.09284 1.40735 1.47368 1.41956 1.30446 1.22465 1.51845 1.59624 1.07105
threshold=0.98788099609320523 0.67160694331530346 0.67014271658445101 0.79141942358363726 0.44468768620105592 0.86897230314904583 0.79137920579307963 0.11277337676754597 0.32330432750587101 0.25643245413021376 0.40562590058357439 0.20375535798190528 0.69364565328417827 0.21269128780752708 0.45869137664017084 0.68859626235380633 0.41798659164070251 0.21294352642479167 0.82273976654321013 0.98764132579663577 0.28418103944255457 0.7635707567088913 0.50230559347475789 0.9917971467852712 0.62414927337585091 0.55667850251917284 0.51184839495722223 0.51139835421186486 0.17792104905391656 0.98875575899615686
decision_type=2 2 2 2 2 2 2 2 2 2 2 2 2 2 2 2 2 2 2 2 2 2 2 2 2 2 2 2 2 2
left_child=17 3 9 4 6 11 7 -2 -5 -3 -4 -6 13 -13 -14 16 -9 18 19 29 -21 -19 24 26 -23 -26 -24 28 -28 -1
right_child=1 2 10 8 5 -7 -8 15 -10 -11 -12 12 14 -15 -16 -17 -18 21 -20 20 -22 22 23 -25 25 -27 27 -29 -30 -31
leaf_value=-0.00088427002319930331 -0.0098666110661412999 -0.00041400232919841078 -0.014459906374769552 0.0049278149477623668 -0.011610743599816314 -0.020821332305669786 0.021824150040554696 -0.0093088310970474153 -0.015314602743888248 0.015708565674177916 0.0048288264643185988 -0.0088762775691145143 -0.020603697510579458 0.01374077934333507 0.0065860923040996907 0.021925412271652494 0.011213934853417325 -0.00012231042433666142 0.0013551935431968332 0.0045038754896571239 -0.016313118606314556 0.0032206819357097913 -0.0015926644250718745 0.01902478337287903 -0.0020280900280599027 0.0027454975801748682 -0.0035948905956773264 -0.0010744048965133925 0.0049524328705712588 -0.0096237489873294158
leaf_weight=11246 35 40 35 29 42 25 39 31 69 154 52 23 26 85 22 31 51 39822 2560 36 91 3801 3187 40 1295 1026 265 1455 1245 142
leaf_count=11246 35 40 35 29 42 25 39 31 69 154 52 23 26 85 22 31 51 39822 2560 36 91 3801 3187 40 1295 1026 265 1455 1245 142
internal_value=0 0.00287379 0.00764257 0.000235944 0.00252112 -0.00195146 0.00785473 0.0041736 -0.0093245 0.0123843 -0.00293101 0.000431104 0.00367314 0.00892418 -0.00814171 0.00852234 0.00345533 -3.42453e-05 -0.000651093 -0.00109713 -0.0104122 0.000132283 0.000955608 -0.00010739 0.00203076 8.20784e-05 -0.000231786 0.00123099 0.00345241 -0.000993245
internal_weight=0 789 281 508 410 223 187 148 98 194 87 198 156 108 48 113 82 66211 14075 11515 127 52136 12314 6192 6122 2321 6152 2965 1510 11388
internal_count=67000 789 281 508 410 223 187 148 98 194 87 198 156 108 48 113 82 66211 14075 11515 127 52136 12314 6192 6122 2321 6152 2965 1510 11388
is_linear=0
shrinkage=0.1


Tree=10
num_leaves=31
num_cat=0
split_feature=38 113 50 39 107 107 110 90 75 14 113 105 78 88 28 124 124 8 23 120 3 106 56 50 120 89 84 10 52 22
split_gain=0.636883 1.20712 1.12217 1.13581 1.08206 1.04638 1.23822 1.20487 1.65905 1.12515 1.03841 0.999349 0.996645 0.985566 1.10012 0.944517 1.07657 1.07831 0.977218 0.944919 0.930423 1.11892 0.92922 0.908026 1.08012 1.0662 0.930186 0.940047 0.932939 0.897029
threshold=0.11567239034566069 0.46501072276348826 0.24047714873993817 0.97181035762565049 0.96491956369897636 0.36354471356753376 0.61541133432665751 0.76527521488169581 0.58176422176675735 0.89264390960127293 0.17964095191890192 0.01199118774313407 0.53661306947405252 0.41731153325040665 0.19598611983529104 0.15258108671429024 0.30006383762162298 0.63634216498730856 0.19886589427274662 0.28938862410013066 0.22470452920747855 0.45422540423720537 0.17313618868012956 0.92330014031959795 0.23712464876747888 0.3565970535502454 0.40364775056926311 0.66776990814181769 0.89752056361045041 0.30765525586788456
decision_type=2 2 2 2 2 2 2 2 2 2 2 2 2 2 2 2 2 2 2 2 2 2 2 2 2 2 2 2 2 2
left_child=1 5 3 4 -3 6 7 9 10 -1 -9 -4 -7 14 -8 22 17 18 -17 -20 -16 -22 -13 24 25 -24 27 -26 -28 -14
right_child=-2 2 11 -5 -6 12 13 8 -10 -11 -12 15 29 -15 20 16 -18 -19 19 -21 21 -23 23 -25 26 -27 28 -29 -30 -31
leaf_value=0.00015601749157840612 -0.00011288458525840573 -0.0021160304226713702 -0.013929322049287813 0.020519097537423175 0.016875057195824002 -0.0012234385738608263 -0.017809992231842545 0.014587369718356058 -0.021564899543942563 0.013806610287728666 -0.0079222380984247786 0.016869322932217514 -0.0012767113831679876 -0.010744998970468982 -0.011455189728770744 0.0072448829937493426 0.0032440648037175661 0.0043355404698112278 -0.018347809223853279 -0.0044588869929276893 -0.0048349340143243949 0.012934269437034716 0.0094648976102471357 0.017948334966311041 -0.0071851730951434604 -0.015913704389288109 0.013478022584271047 0.011870576054430926 -0.0085277259942482826 0.004730920957898766
leaf_weight=539 59080 932 35 24 31 1254 36 32 58 68 57 81 362 273 44 50 2262 173 66 190 63 81 25 49 77 49 155 39 22 793
leaf_count=539 59080 932 35 24 31 1254 36 32 58 68 57 81 362 273 44 50 2262 173 66 190 63 81 25 49 77 49 155 39 22 793
internal_value=0 0.000842073 0.0019864 -0.000969154 -0.00150469 -0.000489845 -0.0028362 -0.000281954 -0.00840501 0.00168524 0.000171104 0.00287767 0.000728625 -0.00671126 -0.00179515 0.00305934 0.00233208 -0.00197464 -0.00554216 -0.00803962 0.00127152 0.00516024 0.00707025 0.00516225 0.00345512 -0.00733985 0.00618149 -0.000778499 0.0107428 0.00284801
internal_weight=0 7920 4260 987 963 3660 1251 754 147 607 89 3273 2409 497 224 3238 2741 479 306 256 188 144 497 416 367 74 293 116 177 1155
internal_count=67000 7920 4260 987 963 3660 1251 754 147 607 89 3273 2409 497 224 3238 2741 479 306 256 188 144 497 416 367 74 293 116 177 1155
is_linear=0
shrinkage=0.1


Tree=11
num_leaves=31
num_cat=0
split_feature=83 122 53 42 115 82 124 75 88 87 50 16 70 64 60 45 12 96 120 68 33 100 54 91 90 21 93 54 35 35
split_gain=0.636935 1.22129 1.24992 1.07602 1.06124 1.29195 1.46865 1.19531 1.33044 1.21778 1.2539 1.1069 0.960805 1.02789 0.928488 0.907595 1.06163 0.986502 1.17467 0.837038 0.818735 0.806706 0.794808 0.760588 0.759235 0.73906 0.728608 0.770706 0.842763 1.01081
threshold=0.023252090474295443 0.68557034096406722 0.55222429301120235 0.15522915509442634 0.16129585787315739 0.71682632431105497 0.88559500335334884 0.87396111443859814 0.78320064328177474 0.73077953907132176 0.70163121124350181 0.16833980247337108 0.33867344305174385 0.32392313869461631 0.72217336405973265 0.9264457934724607 0.55466562101962158 0.85473401300035567 0.42883403592728803 0.79514356365389804 0.19499310635452319 0.59474748421235846 0.36091527791762573 0.33887917526881106 0.68784791079133034 0.36265512749064027 0.054847827113104826 0.091122233037673708 0.18604727055385969 0.37775597297453656
decision_type=2 2 2 2 2 2 2 2 2 2 2 2 2 2 2 2 2 2 2 2 2 2 2 2 2 2 2 2 2 2
left_child=1 3 15 12 7 26 11 8 9 10 -5 -7 13 -1 19 16 17 18 -3 23 -14 -18 25 -4 -25 -13 -6 -28 -29 -30
right_child=-2 2 14 4 5 6 -8 -9 -10 -11 -12 22 20 -15 -16 -17 21 -19 -20 -21 -22 -23 -24 24 -26 -27 27 28 29 -31
leaf_value=-0.015817860141396523 -4.7978412847704469e-05 0.015919735722709449 -0.016558819443133532 -0.027267860062420369 0.023519703652709723 0.0097506496350507482 0.020066562205553057 0.017726952456869186 0.014058961501260374 0.0024125507314844679 0.0017689892835915091 0.01516611902974546 0.0021759268175810579 0.010268869337265972 -0.017981053309308159 0.023011205885559324 -0.014473176917366298 0.024854928642511369 -0.0062036957646099226 0.012053190185023207 0.021391377604621301 0.0028596997293643656 -0.015341146575266737 0.0063026764430105693 -0.013674437254667283 -0.0085829772753641016 0.018384781293570997 0.013368381134998265 -0.006398118262326247 0.0054146647742628808
leaf_weight=23 65416 40 51 58 24 37 25 20 22 36 20 20 30 44 63 20 58 25 60 28 85 50 92 52 30 38 44 89 95 305
leaf_count=23 65416 40 51 58 24 37 25 20 22 36 20 20 30 44 63 20 58 25 60 28 85 50 92 52 30 38 44 89 95 305
internal_value=0 0.00198141 -0.00224865 0.00380412 0.00242118 0.00394677 -0.00269707 -0.00509915 -0.00845593 -0.0128009 -0.0198225 -0.00574033 0.0108328 0.00131372 -0.00768889 0.00256801 0.000813226 0.00708753 0.00264568 -0.00366152 0.0163787 -0.0064487 -0.00956144 -0.00696988 -0.00100602 -0.000393634 0.00647548 0.00570801 0.00456736 0.00260913
internal_weight=0 1584 477 1107 925 769 212 156 136 114 78 187 182 67 224 253 233 125 100 161 115 108 150 133 82 58 557 533 489 400
internal_count=67000 1584 477 1107 925 769 212 156 136 114 78 187 182 67 224 253 233 125 100 161 115 108 150 133 82 58 557 533 489 400
is_linear=0
shrinkage=0.1


Tree=12
num_leaves=31
num_cat=0
split_feature=37 75 0 113 123 71 97 54 109 18 19 104 46 26 95 54 91 78 65 62 46 63 85 101 98 122 21 36 34 29
split_gain=0.629315 1.11339 1.01078 1.06412 1.05592 1.17672 1.12707 1.24892 1.06177 1.00075 0.99556 1.14998 0.982159 0.949588 0.939394 1.0599 1.02311 0.93048 1.02061 1.01538 1.00035 0.930884 0.935014 0.914344 0.866948 1.177 1.01252 0.855095 1.28897 1.07803
threshold=0.95627385371438212 0.63286474052416553 0.79947402202897255 0.036334586140798382 0.16805803206132849 0.21450483018949026 0.86531530957150882 0.60817101558954412 0.18965395159328843 0.056411574207014765 0.099933021219350174 0.41416624554068293 0.26227809283700709 0.62907165721378056 0.2977915058243899 0.91158941949334382 0.53643911024035107 0.79376046235704845 0.87857016630843776 0.54174246680575855 0.2135294499832984 0.41588943643085191 0.49981507617501847 0.12121584878548476 0.8630565381075741 0.74382644831885403 0.78367247227119974 0.50709507565281686 0.95258399115746684 0.06774650296262881
decision_type=2 2 2 2 2 2 2 2 2 2 2 2 2 2 2 2 2 2 2 2 2 2 2 2 2 2 2 2 2 2
left_child=-1 9 3 -3 5 -5 7 8 -6 13 -4 -12 17 -2 -9 16 -16 18 19 24 21 22 -21 -10 25 26 -11 29 -29 -14
right_child=1 2 10 4 6 -7 -8 14 23 12 11 -13 27 -15 15 -17 -18 -19 -20 20 -22 -23 -24 -25 -26 -27 -28 28 -30 -31
leaf_value=-6.5105554412788052e-05 0.0015956140765355843 0.021844855980261379 0.018827192235621626 -0.0023667780833469855 0.0095236155500132893 0.018564186143517802 0.012877148699344082 0.017801116257295257 -0.019711994793679979 0.01902458858676255 0.0051713570266858572 -0.011055830972930438 -0.017293496598168055 0.020561174531890589 -0.00061649000644683843 -0.011642202372486527 0.0164548686352756 -0.01386398408561945 -0.018551602432770389 -0.0047032625015292857 -0.024280204769009009 -0.010360872109139116 0.022508155813683636 -0.0026954717869469031 -0.014236248694360257 -0.0076469430882882862 -0.0057473337765605679 0.0023297907933557643 0.023246195906352615 -0.00073956167724207732
leaf_weight=64107 66 38 20 37 63 98 102 61 36 77 72 111 42 44 75 37 66 90 35 28 26 67 23 257 20 35 21 594 31 621
leaf_count=64107 66 38 20 37 63 98 102 61 36 77 72 111 42 44 75 37 66 90 35 28 26 67 23 257 20 35 21 594 31 621
internal_value=0 0.0014427 0.00399766 0.00548023 0.00473281 0.0128276 0.00316496 0.00150002 -0.00225388 -6.36074e-05 -0.00235623 -0.00467136 -0.000658344 0.00918184 0.00709159 0.00342148 0.00737436 -0.00484526 -0.00240043 -0.000497092 -0.00652408 -0.00261171 0.00756855 -0.00478624 0.00517537 0.00809441 0.0137163 0.000713457 0.00336724 -0.00178823
internal_weight=0 2893 1073 870 832 135 697 595 356 1820 203 183 1710 110 239 178 141 422 332 297 144 118 51 293 153 133 98 1288 625 663
internal_count=67000 2893 1073 870 832 135 697 595 356 1820 203 183 1710 110 239 178 141 422 332 297 144 118 51 293 153 133 98 1288 625 663
is_linear=0
shrinkage=0.1


Tree=13
num_leaves=31
num_cat=0
split_feature=6 81 102 96 97 76 72 23 58 59 24 34 120 88 33 69 124 53 2 109 104 48 44 37 38 19 88 111 78 14
split_gain=0.625672 1.0784 1.17956 1.18425 1.19247 0.956687 0.767524 0.753489 0.70763 0.797752 0.706019 0.65551 0.854744 1.97293 1.03899 0.961882 1.11169 0.96275 1.22428 1.20156 0.942193 1.00087 1.09894 1.05935 0.954848 0.900624 0.988434 0.900198 1.19268 1.10229
threshold=0.0080054298066000746 0.92539073151037254 0.41886649020668554 0.81984548821494541 0.15984263242573335 0.61886394647437715 0.45777392867646294 0.47900391154021893 0.92248890284531326 0.65818998525898431 0.63963451441222974 0.90984986682378921 0.070795260455416412 0.79817149216302263 0.76052935134433619 0.29075297577754644 0.80549582304942569 0.47820541771200836 0.12696620062451422 0.70308071685224627 0.099361871219366418 0.602372715989129 0.29639605793226148 0.2284392564724366 0.64823346672779458 0.12275666927872216 0.16797347157568079 0.089862063050215837 0.86102046269976551 0.13355358681285381
decision_type=2 2 2 2 2 2 2 2 2 2 2 2 2 2 2 2 2 2 2 2 2 2 2 2 2 2 2 2 2 2
left_child=1 2 8 4 -4 6 10 -8 9 -1 -6 -2 13 -13 -15 27 20 18 -18 -19 21 22 -17 -24 -23 -20 -27 28 -14 -29
right_child=11 -3 3 -5 5 -7 7 -9 -10 -11 -12 12 15 14 -16 16 17 19 25 -21 -22 24 23 -25 -26 26 -28 29 -30 -31
leaf_value=0.015532859285761202 -0.00012612471761245492 0.019891899602638707 0.01106439783565096 0.011298540375142727 -0.0043450857857587162 -0.01782494935140546 -0.022493448264763825 -0.00099216060390552667 -0.0096956292361331485 0.0026638446993121272 0.019788003347771754 -0.0069512406446228421 -0.007879661568660495 0.014819965605918124 -0.008338600567255456 -0.014321636751294137 -0.014432914579306177 0.0037706275636770039 -0.012194293021614589 0.015976604880441142 0.00024998875651247807 -0.018753612168678425 0.014787060402333739 -0.0024553646543814291 -0.00035517592372935874 0.017651150530659934 0.0018244220704839724 -0.0027341964286627524 0.016015598103404045 0.0052444515739730564
leaf_weight=105 60475 37 37 53 27 70 28 39 21 89 22 338 127 76 26 50 49 270 37 115 2841 82 50 124 43 47 246 201 25 1250
leaf_count=105 60475 37 37 53 27 70 28 39 21 89 22 338 127 76 26 50 49 270 37 115 2841 82 50 124 43 47 246 201 25 1250
internal_value=0 0.00342877 0.00218817 -0.0021378 -0.00533119 -0.00859268 -0.00302148 -0.00997777 0.00774151 0.00962903 0.00649018 -2.72354e-05 0.000969985 -0.00327274 0.0089168 0.00130592 0.000468221 0.00389449 0.00031665 0.00741657 -0.000352365 -0.00525577 -0.00125533 0.00249936 -0.0124246 0.00250674 0.00436318 0.00337222 -0.00394952 0.00413921
internal_weight=0 528 491 276 223 186 116 67 215 194 49 66472 5997 440 102 5557 3954 764 379 385 3190 349 224 174 125 330 293 1603 152 1451
internal_count=67000 528 491 276 223 186 116 67 215 194 49 66472 5997 440 102 5557 3954 764 379 385 3190 349 224 174 125 330 293 1603 152 1451
is_linear=0
shrinkage=0.1


Tree=14
num_leaves=31
num_cat=0
split_feature=27 26 60 115 119 23 95 100 114 7 120 30 29 91 55 79 99 10 6 50 110 2 98 36 31 2 9 20 68 4
split_gain=0.619087 1.30896 1.25547 1.0424 1.06048 1.11671 1.01616 1.18974 1.01571 0.960751 1.23914 0.986854 0.970421 0.906975 0.89646 0.890534 1.18527 0.94163 0.889019 1.02851 1.03246 0.903942 0.875914 0.858557 0.802702 0.801571 1.01559 1.14329 0.800832 1.08092
threshold=0.023338801182249295 0.027370516916128521 0.12939194293233078 0.80976288376906369 0.23968075865070063 0.92388823902939265 0.41925764818705319 0.87947994275028896 0.095503824097928361 0.68303341442302579 0.3287835484541784 0.89829374481952573 0.21939336701394727 0.039923317337625282 0.43867231965559994 0.3330558627941001 0.77747472748976076 0.55114337679441128 0.19051614378180046 0.91080415577242357 0.65016787663231435 0.88382144198051293 0.627856228242892 0.82756049006274368 0.3523069107544925 0.084350259332730118 0.57249854712845505 0.61804141009757374 0.23013824914642708 0.19644867217082931
decision_type=2 2 2 2 2 2 2 2 2 2 2 2 2 2 2 2 2 2 2 2 2 2 2 2 2 2 2 2 2 2
left_child=1 -1 28 6 -5 25 8 13 -4 11 -11 15 -12 -8 -9 17 -17 -10 -15 20 23 22 -22 -20 -25 -6 27 -27 -3 -30
right_child=-2 2 3 4 5 -7 7 14 9 10 12 -13 -14 18 -16 16 -18 -19 19 -21 21 -23 -24 24 -26 26 -28 -29 29 -31
leaf_value=-0.013969130955636504 -4.7301394740955133e-05 0.021541639241268454 0.021788500555050681 -0.014120220006933729 0.020546646895153182 -0.02272250893234741 0.014710653299698607 0.0010616140440106393 -0.0085960409825756433 -0.014981634196980545 0.023208747507834977 -0.0064767606835812331 -0.0012899497100228414 -0.011352279824449828 0.022643370906773368 0.019422873165770106 0.00037800451020964171 0.012982678800248183 -0.0082780565110554642 0.017549145029022776 0.0030155448588253613 -0.011052928861230611 0.023422600588563717 -0.0061045508344911717 0.021228647746500517 -0.01546792419808838 0.0090021575787577086 0.0073450941698891773 -0.014017006503127051 0.010034964631702151
leaf_weight=50 65416 46 39 76 21 20 32 39 42 48 22 40 61 95 38 127 44 39 208 29 58 25 33 22 21 59 69 35 22 124
leaf_count=50 65416 46 39 76 21 20 32 39 42 48 22 40 61 95 38 127 44 39 208 29 58 25 33 22 21 59 69 35 22 124
internal_value=0 0.00195345 0.00247244 0.00139035 -0.00403746 -0.000281132 0.00282141 0.000107068 0.00634653 0.0049228 -0.00219247 0.00811492 0.00520368 -0.00160155 0.0117124 0.0104311 0.0145224 0.00179371 -0.00266467 -0.000580517 -0.00201311 0.005789 0.0104159 -0.00561886 0.00724422 0.00215815 -0.000210922 -0.00697372 0.0100358 0.0064107
internal_weight=0 1584 1534 1342 280 204 1062 600 462 423 131 292 83 523 77 252 171 81 491 396 367 116 91 251 43 184 163 94 192 146
internal_count=67000 1584 1534 1342 280 204 1062 600 462 423 131 292 83 523 77 252 171 81 491 396 367 116 91 251 43 184 163 94 192 146
is_linear=0
shrinkage=0.1


Tree=15
num_leaves=31
num_cat=0
split_feature=82 120 116 47 118 121 58 115 78 68 80 27 65 36 95 86 1 50 50 30 29 54 13 21 66 114 105 116 55 110
split_gain=0.618521 0.988477 1.5893 1.03307 1.13415 1.11689 1.08021 1.12996 0.978016 1.44387 0.973907 1.15442 0.998891 1.02688 0.971725 1.65329 1.06131 1.26455 1.68987 1.16581 1.07534 1.03303 1.02783 1.02627 1.1443 1.10516 1.10176 0.998033 0.997734 1.0329
threshold=0.689784375526305 0.023893723475310161 0.060716498050163444 0.036767454842129295 0.81728245264189125 0.79978054003835364 0.039452992235151647 0.79460124264465481 0.3114466046074143 0.56414113128550036 0.48467803340000581 0.37551252518306472 0.64228264733233498 0.23622478165320057 0.86423709878849198 0.29565347758527694 0.62320762937880214 0.77286558230230418 0.68585305446072553 0.37314107249602457 0.57244086956499207 0.086850640939282756 0.51608949748330868 0.40264534774091759 0.94957687334740537 0.04406583066021736 0.99182424351386156 0.23341257017632125 0.0041189953435936686 0.33173184245522758
decision_type=2 2 2 2 2 2 2 2 2 2 2 2 2 2 2 2 2 2 2 2 2 2 2 2 2 2 2 2 2 2
left_child=-1 2 -2 4 5 6 -3 10 9 -4 12 -12 13 -8 23 16 17 18 19 20 -16 -18 -19 28 26 -26 -25 -27 -5 -30
right_child=1 3 8 14 -6 -7 7 -9 -10 -11 11 -13 -14 -15 15 -17 21 22 -20 -21 -22 -23 -24 24 25 27 -28 -29 29 -31
leaf_value=0.00020386862798058209 0.025826951464818372 0.021280853025105208 0.0043731345301875986 -0.017379725375963797 0.011213528444059193 0.010068169482173803 0.030528594851493836 -0.0098099600763704928 0.0053730431047631462 -0.015958272051366587 0.0063587833435407711 -0.010011593907256611 -0.0043335689869709315 0.0070868045274117917 0.022123811765279819 -0.0041146329479974644 0.016260647788643837 0.025328239961031902 -0.016516337302428755 -0.000413596661386903 0.0029435932798757376 -0.0049939327206507799 0.004414757150918879 -0.00091631400997937279 0.017266689371317628 0.00156688844934022 0.011675188709050419 -0.0092685574442456075 0.0023709708327462973 -0.00025568658743701849
leaf_weight=46200 31 21 80 31 140 115 25 130 341 62 70 112 50 74 57 1839 25 47 44 189 60 268 47 9567 20 111 70 363 2222 4589
leaf_count=46200 31 21 80 31 140 115 25 130 341 62 70 112 50 74 57 1839 25 47 44 189 60 268 47 9567 20 111 70 363 2222 4589
internal_value=0 -0.000452824 0.00387798 -0.000562556 0.00311277 0.0012131 -0.000899628 -0.00191002 0.00246925 -0.00450396 0.00119268 -0.00371529 0.00718765 0.0130064 -0.000701116 -0.00251086 0.00149097 0.00457366 0.00180796 0.00444282 0.0122878 -0.0031804 0.0148715 -0.000426451 -0.00106548 -0.00575957 -0.000824853 -0.00673114 0.000519757 0.000601226
internal_weight=0 20800 514 20286 737 597 482 461 483 142 331 182 149 99 19549 2576 737 444 350 306 117 293 94 16973 10131 494 9637 474 6842 6811
internal_count=67000 20800 514 20286 737 597 482 461 483 142 331 182 149 99 19549 2576 737 444 350 306 117 293 94 16973 10131 494 9637 474 6842 6811
is_linear=0
shrinkage=0.1


Tree=16
num_leaves=31
num_cat=0
split_feature=92 49 71 38 113 98 8 35 31 99 75 111 87 114 102 102 10 20 122 29 0 110 109 119 54 96 105 94 18 5
split_gain=0.602913 1.11129 1.05227 1.2464 1.21791 1.10142 0.94401 1.17678 1.15323 0.928975 0.848938 1.33424 0.83653 0.776128 0.828225 0.768605 0.741456 1.11376 0.830144 0.694684 0.723891 0.693286 0.854928 0.747402 1.1609 0.810539 0.796547 0.689708 0.67513 0.665467
threshold=0.98486600019376669 0.18842377829738452 0.94257095173983407 0.33470230884813329 0.1314690888069858 0.6754144115102021 0.22209627444138655 0.63955540716528358 0.34038952302939257 0.31595080099345391 0.6091833819017195 0.66320477901737074 0.2957095851253127 0.83206576091849493 0.55324598411321546 0.44691996069052142 0.49574387592471064 0.26583497193359623 0.3400450041262511 0.50986112599110889 0.80759139157464699 0.73419266421421436 0.66419425877852178 0.64052599106187036 0.61976455062035407 0.57931805093008459 0.27834485095791883 0.31198899194294377 0.42745825486172623 0.21590532867038045
decision_type=2 2 2 2 2 2 2 2 2 2 2 2 2 2 2 2 2 2 2 2 2 2 2 2 2 2 2 2 2 2
left_child=-1 9 4 -4 13 6 8 21 -6 28 11 15 -10 14 -3 -9 18 -18 -11 29 -21 23 -23 24 26 -25 -8 -28 -2 -7
right_child=1 2 3 -5 5 19 7 10 12 16 -12 -13 -14 -15 -16 -17 17 -19 -20 20 -22 22 -24 25 -26 -27 27 -29 -30 -31
leaf_value=-3.7887621535855631e-05 0.0075270364837100104 -0.022554214818533078 0.0075535232573747642 -0.023582054467664829 0.0086376175007899288 -0.00085334621724628276 0.017933313122484834 0.0079504338725070872 -0.028561191583195557 -0.0031977244490838568 0.020643478084136458 0.018456778714531347 -0.0067287505250769085 0.0076876688262690679 -0.0019951987364846802 -0.017357756436935493 0.015591460773721338 -0.010014126999611211 0.019987590710057859 -0.00099002783670305047 0.02033488813787699 -0.017551292956847212 0.0057311902754008772 0.0032720391069435413 0.024034320125550346 -0.019898967186991984 0.0095736837387084966 -0.013587482123532231 0.029867316169604183 0.019049192899616346
leaf_weight=65948 24 43 20 36 32 21 20 21 26 23 51 38 54 23 36 28 25 53 47 78 20 46 24 36 30 26 20 36 31 84
leaf_count=65948 24 43 20 36 32 21 20 21 26 23 51 38 54 23 36 28 25 53 47 78 20 46 24 36 30 26 20 36 31 84
internal_value=0 0.00237511 0.000785829 -0.0124622 0.00172138 0.00322705 0.000652063 0.00305252 -0.0074066 0.00902188 0.0103994 0.00439425 -0.0138243 -0.00847884 -0.0131855 -0.00651139 0.00489802 -0.00180721 0.0123696 0.00941718 0.003362 -0.00120744 -0.00956873 0.00227643 0.00737755 -0.00644483 0.000802508 -0.00531564 0.0201188 0.0150687
internal_weight=0 1052 849 56 793 691 488 376 112 203 138 87 80 102 79 49 148 78 70 203 98 238 70 168 106 62 76 56 55 105
internal_count=67000 1052 849 56 793 691 488 376 112 203 138 87 80 102 79 49 148 78 70 203 98 238 70 168 106 62 76 56 55 105
is_linear=0
shrinkage=0.1


Tree=17
num_leaves=31
num_cat=0
split_feature=93 9 63 97 105 60 81 25 55 64 17 26 37 25 71 83 46 28 28 105 92 104 27 14 37 49 3 71 15 71
split_gain=0.59462 0.851866 0.969654 0.878442 0.874635 1.01817 0.841785 1.02869 1.01766 1.0193 0.894358 0.940964 0.776476 0.882621 0.844783 1.19053 1.54015 0.879562 1.22782 0.842521 1.05932 0.907569 1.14863 0.940829 0.872499 0.867807 0.828763 1.09686 0.811183 0.907675
threshold=0.96103155972586085 0.35576737048678198 0.031310939286426649 0.96539863179944063 0.28664794257197185 0.028465073294321245 0.059521594730219569 0.51665099845569018 0.93726428270162143 0.21774245567910902 0.929975472801294 0.50254494880083722 0.89109195082493331 0.56435621682825488 0.26386920103309158 0.73746835642975317 0.28254852255172069 0.83725673267954803 0.26471310504357554 0.3826676094014862 0.19216348875419545 0.7205674691102335 0.24850254171962713 0.70301897901819432 0.17392935253660477 0.92983250925438787 0.64587557979107679 0.76811354238864027 0.74699244829568168 0.58310131446862179
decision_type=2 2 2 2 2 2 2 2 2 2 2 2 2 2 2 2 2 2 2 2 2 2 2 2 2 2 2 2 2 2
left_child=-1 3 -3 6 -4 -6 7 -2 9 -8 -11 -12 14 -14 15 16 -7 18 -18 20 -16 22 24 -23 -21 26 28 -28 -24 -30
right_child=1 2 4 -5 5 12 8 -9 -10 10 11 -13 13 -15 19 -17 17 -19 -20 21 -22 23 25 -25 -26 -27 27 -29 29 -31
leaf_value=-6.0216898647757968e-05 -0.025860973275266586 0.014119095267960803 0.0033122767758335166 -0.013287435537043575 0.017397335468343014 0.021718577837704547 0.012677163183054126 0.0054748515513810244 -0.0080065765779831315 0.0051790679806528704 0.005795935145579279 -0.021417546080839303 -0.0024901584842044748 -0.020206170582345556 0.0057190577534061895 -0.0073475251774447903 -0.012408758184340384 -0.016895242199479115 0.012044525662945076 -0.013971773464055287 -0.017262465276647931 1.2663096564707996e-05 -0.012648543998633761 0.016251248336629942 0.0085306947662805513 -0.024539505862272704 -0.0049822197528555994 0.016685469330034473 -0.012917680339887739 0.015283322028815747
leaf_weight=64370 20 48 474 29 27 56 176 22 56 604 24 27 66 49 27 71 28 21 77 21 78 139 161 48 96 26 80 33 21 25
leaf_count=64370 20 48 474 29 27 56 176 22 56 604 24 27 66 49 27 71 28 21 77 21 78 139 161 48 96 26 80 33 21 25
internal_value=0 0.00147383 0.000111528 0.00385145 -0.000302489 -0.0017924 0.00438646 -0.00944697 0.00504149 0.00592078 0.00410532 -0.0086112 -0.00225378 -0.0100387 -0.00136561 0.00363537 0.00791991 0.00178717 0.00552365 -0.00304144 -0.0113529 -0.00169881 -0.00407354 0.00418086 0.00449179 -0.00696991 -0.00554238 0.00134551 -0.00930243 0.00240895
internal_weight=0 2630 1672 958 1624 1150 929 42 887 831 655 51 1123 115 1008 253 182 126 105 755 105 650 463 187 117 346 320 113 207 46
internal_count=67000 2630 1672 958 1624 1150 929 42 887 831 655 51 1123 115 1008 253 182 126 105 755 105 650 463 187 117 346 320 113 207 46
is_linear=0
shrinkage=0.1


Tree=18
num_leaves=31
num_cat=0
split_feature=114 56 83 48 39 106 53 18 99 18 100 14 49 102 102 7 99 115 3 31 0 96 85 62 50 38 66 72 58 86
split_gain=0.584462 1.20624 1.18182 1.1154 0.931872 0.821812 0.748526 0.771502 0.626792 0.612207 1.161 1.18812 1.02752 0.993333 1.18348 1.43177 1.25777 1.2676 1.03812 1.15742 1.27596 0.994039 0.978529 0.994193 0.965278 0.954928 0.95466 1.03992 0.924999 1.30689
threshold=0.99637770378811774 0.29792008842338435 0.29097394554876532 0.10258951892548192 0.34576177477956843 0.39513230945200595 0.75491368693582883 0.74935440914827922 0.35962705071005102 0.79096544227799737 0.027973846362189695 0.53434748872059135 0.145321789928994 0.73907725473637109 0.97293310329707772 0.67167005113781808 0.062023303503263467 0.92619314703158639 0.76410034524041248 0.33190164452356585 0.21570492377548814 0.64553694731505973 0.4533972660760015 0.5577118219573568 0.67014271658445101 0.64823346672779458 0.96543903280053411 0.35906018150102159 0.63991814438973138 0.40911752043893701
decision_type=2 2 2 2 2 2 2 2 2 2 2 2 2 2 2 2 2 2 2 2 2 2 2 2 2 2 2 2 2 2
left_child=9 2 -2 -3 -4 8 7 -7 -5 -1 11 12 -11 28 16 -16 21 18 26 -20 -21 -15 23 -14 -17 -24 -18 -28 -12 -30
right_child=1 3 4 5 -6 6 -8 -9 -10 10 13 -13 22 14 15 24 17 -19 19 20 -22 -23 25 -25 -26 -27 27 -29 29 -31
leaf_value=-0.00017378972100795824 0.013306008632450054 -0.013009619245131035 0.0037456342950463297 0.015332923238368138 -0.022628706985631505 0.018638936533785327 0.032857807384183008 -0.0037306694568888773 -0.005917991560085544 0.017488276946047942 0.00093512418911160492 -0.010773031993659163 -0.019755426481909432 0.0052421298550441864 -0.0079832241551958654 -0.0015056359176250065 0.0022809801835252919 -0.0049037568213467575 0.012303870501064136 0.013975327418640602 0.00016382938255540458 0.020125970606292998 0.011483360550576641 0.0036955590424095765 0.016004868697375062 -0.01001226494629537 0.0052314776050693852 -0.017175404419946784 0.0012417670993349721 -0.0026525332123529637
leaf_weight=52851 24 20 21 23 37 58 24 21 35 30 6442 180 48 125 231 85 2009 226 221 86 301 70 62 29 50 31 34 53 1451 2122
leaf_count=52851 24 20 21 23 37 58 24 21 35 30 6442 180 48 125 231 85 2009 226 221 86 301 70 62 29 50 31 34 53 1451 2122
internal_value=0 0.00470486 -0.00535682 0.00926319 -0.0130794 0.01203 0.0173913 0.0126926 0.0025091 -1.85411e-05 0.000572345 -0.00487894 0.000425736 0.000725721 0.00217828 -0.0032018 0.0028084 0.00229084 0.00289216 0.00653017 0.00323305 0.010585 -0.0025853 -0.0109232 0.00497974 0.00431815 0.00183686 -0.00841869 0.000219391 -0.00107105
internal_weight=0 263 82 181 58 161 103 79 58 66737 13886 380 200 13506 3491 366 3125 2930 2704 608 387 195 170 77 135 93 2096 87 10015 3573
internal_count=67000 263 82 181 58 161 103 79 58 66737 13886 380 200 13506 3491 366 3125 2930 2704 608 387 195 170 77 135 93 2096 87 10015 3573
is_linear=0
shrinkage=0.1


Tree=19
num_leaves=31
num_cat=0
split_feature=9 62 31 72 89 11 88 26 99 22 117 120 32 73 89 77 41 80 23 94 89 110 82 96 62 30 47 51 76 35
split_gain=0.575899 1.04519 1.41025 1.16181 1.1554 1.04016 1.18204 1.19919 1.19874 1.02574 1.55803 1.33396 1.02324 1.18649 0.9933 1.00845 1.21185 1.08703 1.17779 1.11866 0.993011 0.992136 0.982777 0.975955 0.947747 1.39694 1.80126 1.20892 1.12098 1.18366
threshold=0.11525930620894333 0.79579545074141744 0.73770806044997872 0.67407198491207487 0.9723836559198672 0.90927600853067558 0.34961209920740871 0.58076701207845682 0.66012332208990021 0.031185418584558425 0.87777622029819569 0.93339880757997296 0.48280160375358255 0.36829525294762488 0.96008973555769417 0.44951168480429715 0.10379193797533694 0.1494598411468466 0.056246919907237798 0.61222458955924275 0.75844486960845836 0.51434785143675466 0.86224374752631594 0.03558440784995804 0.81545438094506439 0.64671627886877392 0.91220048611062043 0.67605019544635769 0.92150038550251512 0.27634810765562234
decision_type=2 2 2 2 2 2 2 2 2 2 2 2 2 2 2 2 2 2 2 2 2 2 2 2 2 2 2 2 2 2
left_child=1 2 -1 23 14 6 8 20 -5 10 11 22 13 -9 15 -4 21 19 -19 -18 -8 -17 -2 -3 -11 26 28 -27 -26 -30
right_child=9 3 4 5 -6 -7 7 12 -10 24 -12 -13 -14 -15 -16 16 17 18 -20 -21 -22 -23 -24 -25 25 27 -28 -29 29 -31
leaf_value=0.00051915527461523093 0.00031847730087325286 -0.020968757768071469 0.0070672995717741592 0.00010127861274495012 -0.012758731278590858 0.017673375151154202 0.0061344720695803807 -0.010078921970789849 -0.018585944365636976 -0.00022398860158295131 -0.010590855108634771 -0.013302650485773771 -0.009889149705046103 0.018997580599453716 0.026057840200761958 -8.4537062413838455e-05 -0.014912468442813524 0.021884508509384962 0.0037067984320709245 0.0044085189186293507 0.024447059134045282 -0.021778351269863747 -0.0067294586172873348 -0.0029456095220685269 0.0025602406526275346 0.00054233881323755928 -0.0035474118374474966 -0.0032458162472260008 -0.010057359386377761 0.00078874028116091412
leaf_weight=4617 1344 31 659 105 40 41 123 23 51 46818 207 89 76 36 21 49 62 38 575 58 39 37 232 975 5780 2530 603 1263 144 334
leaf_count=4617 1344 31 659 105 40 41 123 23 51 46818 207 89 76 36 21 49 62 38 575 58 39 37 232 975 5780 2530 603 1263 144 334
internal_value=0 0.00081625 0.00139301 -0.00155076 0.00401457 0.00242076 0.00104028 0.00474242 -0.00600801 -0.000105305 -0.00240889 -0.00139167 -0.00221835 0.00766267 0.00446215 0.00415531 0.00181221 0.0031298 0.00483364 -0.00557399 0.0105431 -0.00941792 -0.000719036 -0.00350099 -3.02715e-05 0.000821 0.00167239 -0.000719048 0.00217535 -0.0024787
internal_weight=0 7656 6156 1500 1539 494 453 297 156 59344 1872 1665 135 59 1499 1478 819 733 613 120 162 86 1576 1006 57472 10654 6861 3793 6258 478
internal_count=67000 7656 6156 1500 1539 494 453 297 156 59344 1872 1665 135 59 1499 1478 819 733 613 120 162 86 1576 1006 57472 10654 6861 3793 6258 478
is_linear=0
shrinkage=0.1


Tree=20
num_leaves=31
num_cat=0
split_feature=116 49 104 115 79 27 124 107 20 40 15 54 3 26 110 77 26 1 43 47 102 46 41 24 51 115 119 72 25 104
split_gain=0.572284 1.35025 1.25168 0.943507 1.1202 1.24129 1.40463 0.969641 0.89601 0.937422 0.681414 0.671171 0.653279 0.608832 0.584975 0.57979 0.993548 1.42712 0.922653 1.20682 1.18455 1.10682 1.10329 1.07476 1.05188 1.07486 1.20365 1.02137 1.00267 1.01749
threshold=0.99210512306667165 0.82084964034297558 0.083659418404745681 0.082735848967639483 0.3330558627941001 0.34918881879566649 0.66085857824728322 0.38705301857152968 0.56694476604532151 0.50225514816348882 0.28240914254729815 0.80373254701976682 0.36836115963400928 0.76291149246770762 0.54660648045686211 0.36531431323318087 0.0083341811436821196 0.1543635952074314 0.20585741338605243 0.99213857586595411 0.98864232382268724 0.65231291135295721 0.060835428380686514 0.16171726724994692 0.020093162780574995 0.011626402742990262 0.57373208129919206 0.25765402765039253 0.52817913470371136 0.071471924511485665
decision_type=2 2 2 2 2 2 2 2 2 2 2 2 2 2 2 2 2 2 2 2 2 2 2 2 2 2 2 2 2 2
left_child=15 2 -2 -4 10 12 7 -7 9 -3 -5 -8 -6 -12 -14 16 17 -1 19 20 22 -21 28 -22 27 26 -26 -20 29 -17
right_child=1 8 3 4 5 6 11 -9 -10 -11 13 -13 14 -15 -16 18 -18 -19 24 21 23 -23 -24 -25 25 -27 -28 -29 -30 -31
leaf_value=0.015001391633025683 -0.011629618518054486 -0.0033764224416846715 -0.0085612751610044929 0.0057577498303726313 0.024847975994149844 0.0051484453768746276 0.0043670371809804978 -0.015247058178046866 0.0074059779942035678 -0.028863423226263236 0.026733713810805415 0.026460579996928576 0.017867910264370342 0.0069921673452925121 -0.0044497123554996824 0.022113312179730699 -0.00036130740758643428 -0.011148677528253756 -0.0027783856220333705 0.023049179242646441 0.010393929235975851 -0.0029935332722961904 0.00084921921632260416 -0.014345976159822239 0.0004390271492281629 -0.00018209591052182684 0.011837028119789697 0.0061815036945728381 0.010291072308783393 -0.00030443190952660298
leaf_weight=24 39 31 35 40 36 37 44 63 25 27 61 20 24 21 23 22 23914 160 171 47 22 25 8018 87 224 32608 158 497 243 254
leaf_count=24 39 31 35 40 36 37 44 63 25 27 61 20 24 21 23 22 23914 160 171 47 22 25 8018 87 224 32608 158 497 243 254
internal_value=0 0.0032855 0.00547857 0.0071301 0.00861844 0.00474616 -0.000297018 -0.00770072 -0.00841966 -0.0152411 0.0164582 0.0112713 0.014711 0.021678 0.00694652 -2.59977e-05 -0.000417631 -0.0077378 0.000196713 0.00111356 0.00100619 0.0140066 0.00113845 -0.0093526 -4.07656e-05 -0.000120315 0.00515338 0.00388788 0.00560674 0.00148249
internal_weight=0 526 443 404 369 247 164 100 83 58 122 64 83 82 47 66474 24098 184 42376 8718 8646 72 8537 109 33658 32990 382 668 519 276
internal_count=67000 526 443 404 369 247 164 100 83 58 122 64 83 82 47 66474 24098 184 42376 8718 8646 72 8537 109 33658 32990 382 668 519 276
is_linear=0
shrinkage=0.1


Tree=21
num_leaves=31
num_cat=0
split_feature=112 72 92 39 0 99 94 15 103 9 43 54 18 92 27 15 30 111 3 110 101 29 117 94 23 27 120 123 82 87
split_gain=0.542719 0.903432 1.13904 0.939753 0.789914 0.799233 1.04806 0.959682 0.84297 0.776965 0.765708 0.756925 0.756947 0.760165 0.822029 0.915056 0.751472 0.743951 0.665283 0.661234 0.653574 0.601764 0.671757 0.587745 1.40314 1.13018 1.10867 1.04829 1.27762 1.16013
threshold=0.98788099609320523 0.92413661535849545 0.68927214161214423 0.039668989300163056 0.05516011851275316 0.89141439873772976 0.67160694331530346 0.72389737215133032 0.8785846718106719 0.54856981417765904 0.65693473359573706 0.91956584615221326 0.22128350460989768 0.5724356700300034 0.17392133696204368 0.26673651459129771 0.49849156916323034 0.4059503934216202 0.34084373592445227 0.56203966527706728 0.79675706467327323 0.69089480939851178 0.30513499046216697 0.10222921928605889 0.73437807468608185 0.95984965594475646 0.97260943388368704 0.81180247027055752 0.96068247097833115 0.29167441354670504
decision_type=2 2 2 2 2 2 2 2 2 2 2 2 2 2 2 2 2 2 2 2 2 2 2 2 2 2 2 2 2 2
left_child=23 3 -3 -2 -5 6 8 9 11 10 -8 12 -6 14 -14 -16 -9 18 -15 -7 21 22 -17 24 26 -26 27 -1 29 -29
right_child=1 2 -4 4 5 19 7 16 -10 -11 -12 -13 13 17 15 20 -18 -19 -20 -21 -22 -23 -24 -25 25 -27 -28 28 -30 -31
leaf_value=-0.0022170834736195753 -0.013725335119913022 -0.019075889075174931 0.0088525197671159451 -0.0081677066122597848 0.013389139245687562 0.0040730343773387944 0.014764412775932049 0.012293528344620157 -0.01346184662165674 0.021876145815750696 -0.0046907475640182387 0.021311277234926821 -0.021216320911688465 -0.018680166779085995 -0.019290051671365896 -0.0088946178910278145 -0.0094091962712506468 0.011189151124407848 0.0044335221081520573 0.025126408501195591 0.018629677928984165 -0.016486788336187604 0.015366197228431702 6.9571937630548997e-05 0.0019901952598739476 -0.010712075834912058 -0.010821400669859335 0.0083944065740243316 -0.018303623350877915 5.4289139438575759e-05
leaf_weight=3983 30 40 23 47 44 26 55 27 37 68 32 20 28 20 24 21 39 75 33 35 20 20 25 59430 1731 73 132 231 31 600
leaf_count=3983 30 40 23 47 44 26 55 27 37 68 32 20 28 20 24 21 39 75 33 35 20 20 25 59430 1731 73 132 231 31 600
internal_value=0 0.00260722 -0.0088798 0.00360402 0.00435098 0.00525757 0.00412728 0.0095678 0.000851107 0.0138678 0.00760849 0.00245589 0.00123942 -0.000770313 -0.00591879 -0.00202487 -0.000530809 0.00478038 -0.00428862 0.0161528 0.00279332 -0.00200557 0.00429061 -3.10687e-05 -0.000913103 0.00147619 -0.00177914 -0.00153279 0.00162908 0.00237266
internal_weight=0 789 63 726 696 649 588 221 367 155 87 330 310 266 138 110 66 128 53 61 86 66 46 66211 6781 1804 4977 4845 862 831
internal_count=67000 789 63 726 696 649 588 221 367 155 87 330 310 266 138 110 66 128 53 61 86 66 46 66211 6781 1804 4977 4845 862 831
is_linear=0
shrinkage=0.1


Tree=22
num_leaves=31
num_cat=0
split_feature=47 115 15 116 53 83 53 109 43 86 9 32 93 45 25 61 82 27 25 30 109 79 12 53 39 16 91 18 54 113
split_gain=0.530339 1.05156 0.947627 1.09314 1.07979 1.25856 1.69074 1.3037 1.68444 1.33423 1.18997 1.33774 1.29024 1.03319 1.14128 1.00089 1.32195 1.21856 1.07206 1.01759 0.974875 1.27559 1.16377 1.13337 1.00153 0.974854 0.972014 1.15978 1.11427 1.14456
threshold=0.8687378710686452 0.95374546883610589 0.49899269885775904 0.99210512306667165 0.57609174714450728 0.06698163712174017 0.45109003733474728 0.43958182234269649 0.059412885291195046 0.92532401160918365 0.70569347649604441 0.15585370714981225 0.058750713588594357 0.35192031113607769 0.80871714368830305 0.080652642782152131 0.82705577888848592 0.11088652607361606 0.065070112478532185 0.42025716057955725 0.13454866845436478 0.56644084296064479 0.911650488410926 0.83584412123855423 0.98761701062759211 0.50042858080490471 0.8237098885422186 0.44374745540502875 0.98131054436220233 0.13975024143969986
decision_type=2 2 2 2 2 2 2 2 2 2 2 2 2 2 2 2 2 2 2 2 2 2 2 2 2 2 2 2 2 2
left_child=-1 2 3 15 5 6 -4 8 -7 13 -6 -12 -13 14 -10 16 17 -2 -17 25 21 -20 24 -24 -22 -19 28 -28 29 -9
right_child=1 -3 4 -5 10 7 -8 26 9 -11 11 12 -14 -15 -16 18 -18 19 20 -21 22 -23 23 -25 -26 -27 27 -29 -30 -31
leaf_value=0.00011041435755823522 -0.018926839228591015 -0.0053417865803430491 0.013210023416867179 0.016900949549744838 0.0041380964468722544 0.011935440242861308 -0.012571866333018988 -0.0080304886911364403 -0.0043217564022548453 0.0077248369095226132 0.010518954592183806 0.019917379861528223 -0.0049274670121306251 -0.0087265220070703638 0.011665238549445619 -0.0082549279477776398 0.016376516333548353 -0.016414515712401934 -0.0010783321540011972 0.0070656080847961104 -0.0018097122091832595 -0.011268434029552419 0.0087477459059229264 -0.0083307858149055392 0.01475051698602132 0.0035144215594132052 -0.0010938968235212896 0.014342360745869438 -0.021711510512977841 0.0014377602149347145
leaf_weight=58058 29 466 124 32 1258 62 32 149 258 75 78 22 419 564 54 266 64 45 265 181 2815 229 204 48 37 54 90 106 24 892
leaf_count=58058 29 466 124 32 1258 62 32 149 258 75 78 22 419 564 54 266 64 45 265 181 2815 229 204 48 37 54 90 106 24 892
internal_value=0 -0.000716891 -0.00046262 -0.00151227 0.000602504 -0.000767507 0.00792143 -0.00136358 -0.00403503 -0.00507622 0.00247596 -0.00155289 -0.00368804 -0.0061722 -0.00155478 -0.00165134 0.00329549 0.000586156 -0.00212887 0.00260715 -0.00167597 -0.00580208 -0.0010193 0.00549469 -0.00159487 -0.00554419 0.000782476 0.00725428 -0.000408579 8.25546e-05
internal_weight=0 8942 8476 4269 4207 2430 156 2274 1013 951 1777 519 441 876 312 4237 373 309 3864 280 3598 494 3104 252 2852 99 1261 196 1065 1041
internal_count=67000 8942 8476 4269 4207 2430 156 2274 1013 951 1777 519 441 876 312 4237 373 309 3864 280 3598 494 3104 252 2852 99 1261 196 1065 1041
is_linear=0
shrinkage=0.1


Tree=23
num_leaves=31
num_cat=0
split_feature=6 58 75 99 104 43 8 19 7 3 72 32 23 80 73 115 117 88 8 79 113 113 37 0 47 121 124 59 58 112
split_gain=0.524551 0.907241 0.81776 1.03153 1.40169 0.961075 0.838137 0.894109 0.749947 0.732907 0.678117 1.20189 0.793109 0.585681 1.24655 1.33925 1.22451 1.00257 1.06398 0.959189 0.94727 1.04322 1.14979 1.08642 0.989273 0.970981 1.14391 1.12813 1.1142 1.01464
threshold=0.0080054298066000746 0.94878887277301571 0.42522440317605553 0.38791018609325506 0.63256792216837421 0.89551513481317957 0.34777522037074532 0.42097898752291524 0.57094438998186636 0.56218287746904605 0.48910213550290416 0.43479146759548448 0.33348741466300486 0.7785145939799899 0.17539705382092627 0.8710026362473039 0.96700510064225476 0.98451632113677401 0.79804564049320159 0.97213241480145995 0.1915696878818933 0.28661073499139428 0.33374379114884922 0.10523334288315629 0.97721208017365513 0.14040686240088859 0.61586197871567383 0.17399879094386991 0.050984465012142106 0.56155388181269605
decision_type=2 2 2 2 2 2 2 2 2 2 2 2 2 2 2 2 2 2 2 2 2 2 2 2 2 2 2 2 2 2
left_child=1 2 6 4 -4 10 -1 9 -9 -8 11 -5 -12 -2 20 19 17 18 -17 -16 -15 22 -22 -23 25 -25 29 -28 -29 -27
right_child=13 -3 3 5 -6 -7 7 8 -10 -11 12 -13 -14 14 15 16 -18 -19 -20 -21 21 23 -24 24 -26 26 27 28 -30 -31
leaf_value=0.018250471597318265 -0.0001824920216565467 -0.013180137467861642 -0.014917544529048933 0.0026399152944340254 0.0092493030035661322 -0.013057242542505267 0.0030992075936087677 0.0035609708590940998 -0.019793176613748076 0.025865606881248268 -0.013063862432654089 0.025757858988998291 0.0079548193844324305 -0.0013666224116494767 0.00068991274301321095 -0.0039160095601386792 0.014730887063778937 -0.017868894133293494 0.0025056276084374231 -0.0051524887389844207 0.00041826643333162951 -0.0042415874895784236 0.014311126796886897 -0.0030596514195807417 0.020157154348811934 0.003373030215069019 0.01066731143156799 -0.021001503021190211 -0.00034786625769753058 0.010513049841687924
leaf_weight=68 51861 32 72 46 36 25 31 44 20 26 26 44 58 495 10164 1223 40 44 327 289 92 203 169 216 35 453 89 28 389 355
leaf_count=68 51861 32 72 46 36 25 31 44 20 26 26 44 58 495 10164 1223 40 44 327 289 92 203 169 216 35 453 89 28 389 355
internal_value=0 0.00313949 0.00419237 0.00100645 -0.00686193 0.00527673 0.00936737 0.00437521 -0.0037372 0.0134839 0.00791093 0.013942 0.00144904 -2.49376e-05 0.000534294 0.000112209 -0.00255014 -0.0029838 -0.00256125 0.000528385 0.00255559 0.00351246 0.00941403 0.00264124 0.00353403 0.00315376 0.00417515 0.000446697 -0.00173468 0.00651004
internal_weight=0 528 496 307 108 199 189 121 64 57 174 90 84 66472 14611 12087 1634 1594 1550 10453 2524 2029 261 1768 1565 1530 1314 506 417 808
internal_count=67000 528 496 307 108 199 189 121 64 57 174 90 84 66472 14611 12087 1634 1594 1550 10453 2524 2029 261 1768 1565 1530 1314 506 417 808
is_linear=0
shrinkage=0.1


Tree=24
num_leaves=31
num_cat=0
split_feature=46 34 4 63 101 34 47 30 40 23 59 5 56 57 19 34 101 3 13 22 8 124 16 44 58 6 109 39 53 50
split_gain=0.508587 0.968893 1.116 1.09873 1.24568 1.1315 1.06379 0.942813 1.2395 0.942522 1.00566 1.34569 1.17097 1.03356 1.08287 0.92639 0.892671 1.15918 0.970444 1.02224 0.892304 0.891963 0.887385 1.05151 0.87958 0.883201 0.854805 0.829922 0.891842 0.818223
threshold=0.96486542794444208 0.37025858396595746 0.91848461331686881 0.33957112395797245 0.51609097404783677 0.030887335301575395 0.20876738945310228 0.31761016629336208 0.6435970173965907 0.9034912031823723 0.38496715946151805 0.25933221257878242 0.70498774960387045 0.68278826245121294 0.28114804829090023 0.29926272838913215 0.089667745983287986 0.72836993329854083 0.62308760536215935 0.85613715161818582 0.56156865868619943 0.15621407124439976 0.77740770993955355 0.21819234849499833 0.59668978469374323 0.6764525647695766 0.68786084289774962 0.42034826518837543 0.64189026586772957 0.49913109441197429
decision_type=2 2 2 2 2 2 2 2 2 2 2 2 2 2 2 2 2 2 2 2 2 2 2 2 2 2 2 2 2 2
left_child=-1 2 3 4 15 -5 7 -7 20 10 11 -3 13 24 -15 -2 -12 18 -18 -20 -9 -19 23 -14 26 -26 -13 28 -8 -23
right_child=1 9 -4 5 -6 6 27 8 -10 -11 16 12 22 14 -16 -17 17 21 19 -21 -22 29 -24 -25 25 -27 -28 -29 -30 -31
leaf_value=5.272508785654249e-05 0.010742957200528237 0.01120445746885966 0.0098783448174664824 0.0084846907681444799 -0.0067880207044778004 -0.015338078061384814 -0.011322143557050302 -0.016256625337812764 0.022356977724823462 0.0075048867712217962 -0.013732701762512858 0.0074701206652181499 0.0052114330276492099 0.013036039914004505 -0.011768505594949547 -0.0092747152365487192 -0.0079477021384100691 -0.011009141201934507 -0.0018201166986202327 0.018915763283493342 0.011838674657046796 0.0010780737916280961 0.0040856929949651928 -0.020627022409693354 0.0077938026108313359 -0.016798893357222174 0.026796999075176089 -0.014829950244600704 0.0035029810581069729 0.015049473549444954
leaf_weight=64633 114 137 54 41 132 28 108 26 29 155 70 70 21 24 66 29 312 31 199 27 20 92 39 63 40 23 34 241 65 77
leaf_count=64633 114 137 54 41 132 28 108 26 29 155 70 70 21 24 66 29 312 31 199 27 20 92 39 63 40 23 34 241 65 77
internal_value=0 -0.0014397 -0.00405312 -0.00495624 0.000217133 -0.00750584 -0.00877394 0.000320266 0.00616605 0.000126577 -0.000736546 0.00270758 -0.00035577 0.00348454 -0.00515396 0.00668343 -0.00294027 -0.0019166 -0.00433301 0.000657179 -0.00404128 0.00458354 -0.00837984 -0.0141674 0.00814002 -0.00118448 0.0137885 -0.0110365 -0.00575201 0.00744374
internal_weight=0 2367 887 833 275 558 517 103 75 1480 1325 517 380 257 90 143 808 738 538 226 46 200 123 84 167 63 104 414 173 169
internal_count=67000 2367 887 833 275 558 517 103 75 1480 1325 517 380 257 90 143 808 738 538 226 46 200 123 84 167 63 104 414 173 169
is_linear=0
shrinkage=0.1


Tree=25
num_leaves=31
num_cat=0
split_feature=38 72 22 113 0 95 109 12 54 54 94 81 101 56 98 76 20 29 51 70 48 105 30 12 41 62 36 48 31 83
split_gain=0.504313 1.06032 1.12739 0.912458 1.13839 1.12309 1.2007 1.16567 1.08031 1.31095 1.0981 1.68819 1.41556 1.08024 1.20781 1.06483 1.33741 1.22923 1.04363 1.01482 0.986478 0.974558 1.2641 1.28745 0.959067 0.957413 0.94653 0.947898 0.945756 1.24821
threshold=0.11567239034566069 0.055649305250697563 0.31921487660857012 0.50037963717926914 0.92159163549132961 0.28186852771155013 0.57321063899860725 0.046983449030153675 0.23909793389130876 0.22745268884196504 0.50849444751768769 0.31816010046084026 0.02764421250641819 0.2899469521090417 0.25070067437277493 0.76458226709478883 0.88688210682261259 0.49438026275376362 0.78313173952219051 0.93383902278889552 0.34287340105544473 0.063993425975942167 0.58389288101976466 0.055506375678346438 0.47920490963112783 0.39696245872974667 0.46714021108722065 0.59503103102398613 0.20216230500553253 0.5612011387477972
decision_type=2 2 2 2 2 2 2 2 2 2 2 2 2 2 2 2 2 2 2 2 2 2 2 2 2 2 2 2 2 2
left_child=1 2 -1 8 5 6 7 -5 9 21 -10 -12 -13 14 -7 16 -16 -17 19 25 -14 -3 23 -23 -9 -6 27 -27 -24 -30
right_child=-2 3 -4 4 18 13 -8 24 10 -11 11 12 20 -15 15 17 -18 -19 -20 -21 -22 22 28 -25 -26 26 -28 -29 29 -31
leaf_value=-0.01139433328590706 -0.00010045118950632948 -0.010440595903793141 -0.00054127706696073085 -0.016952337520518179 -0.017659836138489766 0.011925776268413103 0.009656588926039527 0.0078576222449735552 0.00092229401970338263 0.018893405964255941 0.0018814739122870131 0.019049606265743143 -0.010657681971638194 0.00016788432217074818 0.0017636458021476993 5.1336394528211178e-05 -0.017949111352821717 0.019987672239255447 0.0082895907161015456 0.012627007093280554 -0.0037241726198127796 -0.01855884522665292 0.0094890654720202611 0.0073768265816197319 -0.00040775103586972416 -0.023048344426053136 0.0036774025200149761 0.00011820136428330884 -0.010728555252879031 0.0039922688224275282
leaf_weight=141 59080 58 298 29 77 178 407 273 1437 49 471 23 310 1751 365 59 38 65 59 25 607 20 57 445 289 38 78 33 144 96
leaf_count=141 59080 58 298 29 77 178 407 273 1437 49 471 23 310 1751 365 59 38 65 59 25 607 20 57 445 289 38 78 33 144 96
internal_value=0 0.000749325 -0.00402711 0.00102962 0.0021271 0.0026481 0.00547686 0.00259843 -8.17451e-05 0.00300455 -0.00102346 -0.00300506 -0.00545352 0.00149863 0.0048038 0.00239828 -9.51253e-05 0.0105018 -0.00367789 -0.00649096 -0.00606811 0.0020551 0.00300621 0.00626131 0.00360728 -0.00860578 -0.00392684 -0.0122808 -0.00209016 -0.00484023
internal_weight=0 7920 439 7481 3764 3454 998 591 3717 869 2848 1411 940 2456 705 527 403 124 310 251 917 820 762 465 562 226 149 71 297 240
internal_count=67000 7920 439 7481 3764 3454 998 591 3717 869 2848 1411 940 2456 705 527 403 124 310 251 917 820 762 465 562 226 149 71 297 240
is_linear=0
shrinkage=0.1


Tree=26
num_leaves=31
num_cat=0
split_feature=122 0 122 7 117 76 101 0 39 68 52 89 64 68 26 110 103 59 4 24 112 92 73 67 7 29 120 55 80 94
split_gain=0.500902 0.76246 0.967839 0.736704 1.01021 0.831926 0.947578 0.997482 0.935078 1.03426 0.858841 0.840122 0.909952 0.830889 0.746616 1.0039 0.727125 0.705756 0.731519 0.778244 0.927045 0.753422 0.725318 0.690498 0.640392 0.621613 0.668166 0.613545 0.591926 0.549042
threshold=0.01600563400219002 0.91362472906200554 0.011992682345022323 0.21792589923585862 0.94826278527643459 0.82269482674269712 0.7537658450588921 0.43014041068230674 0.85641943310748214 0.12601246626159232 0.37858913561585511 0.20618389155469688 0.74147330505756459 0.16645006306353752 0.49887146041826702 0.69773001125377332 0.48803593497091696 0.034809377035494589 0.37979281100958573 0.3613779877918003 0.64559089104081058 0.1011316950903375 0.87417966645335032 0.777461953470028 0.61005692408001566 0.27403189911991988 0.59818334856316913 0.55135126467628792 0.29862926078465196 0.10222921928605889
decision_type=2 2 2 2 2 2 2 2 2 2 2 2 2 2 2 2 2 2 2 2 2 2 2 2 2 2 2 2 2 2
left_child=1 3 -3 14 5 8 7 -7 9 10 -5 -10 -13 -11 15 23 -9 -15 19 24 -21 -20 25 -1 -19 27 -27 -23 -16 -2
right_child=29 2 -4 4 -6 6 -8 16 11 13 -12 12 -14 17 28 -17 -18 18 21 20 -22 22 -24 -25 -26 26 -28 -29 -30 -31
leaf_value=-0.0022454491507041415 -0.00081868332738080959 -0.015970979628463586 0.0083173025931630815 0.00063605157192796473 -0.017782824728194448 -0.028157330163355383 0.0056037343380137767 0.0085636609606444848 -0.0093236222956329575 0.019519405541941523 -0.023527164021997074 0.021867041406221688 -0.0016606902778148651 -0.019674278965685518 -0.00070688351988792422 -0.020049807063870783 -0.017017821083776651 -0.0091151704971233136 -0.014472984247233556 -0.017906985729376771 0.001989686406320996 0.0087068319247919131 -0.0069522665723020004 0.018281526491045953 0.012621657255416117 0.0050537082464679299 0.019601936113947348 -0.011032733908523957 0.01644961989835882 0.00013217516840106729
leaf_weight=57 6767 75 21 24 42 35 29 20 20 20 38 48 25 20 30 23 25 23 23 67 36 32 45 23 33 76 54 31 61 59177
leaf_count=57 6767 75 21 24 42 35 29 20 20 20 38 48 25 20 30 23 25 23 23 67 36 32 45 23 33 76 54 31 61 59177
internal_value=0 -0.0021607 -0.0106579 -0.00131098 -0.00270509 -0.00183042 -0.0098823 -0.015496 -0.000403334 -0.00204919 -0.0141737 0.00883471 0.0138096 -0.000415025 0.0041936 -0.00163749 -0.00564827 -0.00132114 -0.000447176 -0.00579417 -0.0109528 0.00281019 0.00448041 0.00365606 0.00369403 0.00714606 0.0110968 -0.00100629 0.0107936 3.46006e-05
internal_weight=0 1056 96 960 766 724 109 80 615 522 62 93 73 460 194 103 45 440 420 159 103 261 238 80 56 193 130 63 91 65944
internal_count=67000 1056 96 960 766 724 109 80 615 522 62 93 73 460 194 103 45 440 420 159 103 261 238 80 56 193 130 63 91 65944
is_linear=0
shrinkage=0.1


Tree=27
num_leaves=31
num_cat=0
split_feature=48 97 56 104 94 63 18 63 94 62 30 55 112 7 79 81 121 5 94 112 109 0 117 66 72 95 33 41 32 32
split_gain=0.500165 1.55313 1.20432 1.13268 1.05098 1.11114 0.99588 1.07986 0.922006 0.864427 1.05905 0.957585 1.0213 0.924488 0.916476 0.914231 0.887545 1.06723 0.893189 0.950973 0.886062 0.998389 0.860225 0.832707 0.809442 0.967914 0.808014 0.797627 0.785944 0.945459
threshold=0.97330794989299252 0.25471945496880194 0.68913040353677857 0.92569616431923796 0.47321109328859928 0.19041232455920645 0.69825370152116739 0.61410632268101872 0.051263730739584075 0.20049204843436511 0.86384312585403089 0.31673571746701618 0.73758026375137209 0.59004843621928538 0.57380271070587419 0.2716737730162247 0.22187577883913998 0.24377776899360429 0.13772034877765607 0.27519084755606199 0.58891836501722017 0.47765975570593128 0.41621678969990999 0.60342933738375837 0.77227363557972672 0.65223931156324211 0.74879608425482302 0.57516572223065154 0.50994396688604759 0.57064083194286674
decision_type=2 2 2 2 2 2 2 2 2 2 2 2 2 2 2 2 2 2 2 2 2 2 2 2 2 2 2 2 2 2
left_child=-1 4 3 9 24 -6 7 -7 -4 10 14 12 13 20 -3 -15 17 -13 -18 -20 21 -11 -19 27 26 -26 -2 -5 -10 -30
right_child=1 2 8 23 5 6 -8 -9 28 11 -12 16 -14 15 -16 -17 18 22 19 -21 -22 -23 -24 -25 25 -27 -28 -29 29 -31
leaf_value=-4.5926042561971099e-05 0.018592406017000251 0.0056357482192106552 -0.01541833644732833 0.015032781612128019 -0.015494973270688207 0.017897177340152361 -0.0052372001152595181 -0.00035135128172272346 0.00083354232398322311 -0.022953262124900467 0.020667610844147616 -0.017847766773775222 -0.0099577935845743815 -0.0022145563177764413 -0.010252384472334055 0.024082475155591965 -0.02203495892463252 0.017283183819075166 0.0013372527989041474 -0.010695968945165751 0.0094900922270284779 0.0050783161384363971 -0.0026772771216928958 0.025809830734911172 0.011894671250774992 -0.01499966613786376 0.0036653879005461932 -0.010771192538390019 0.02695414968433657 0.0071707396138332453
leaf_weight=65159 132 100 22 25 32 72 68 59 181 27 29 24 61 20 57 39 48 38 90 243 45 24 50 23 32 23 50 23 28 176
leaf_count=65159 132 100 22 25 32 72 68 59 181 27 29 24 61 20 57 39 48 38 90 243 45 24 50 23 32 23 50 23 28 176
internal_value=0 0.00162547 -7.02894e-05 -0.00199269 0.00660043 0.00180043 0.0045816 0.00967837 0.00449247 -0.00295715 0.00311048 -0.00454894 0.00100322 0.00531691 -0.000132555 0.0151682 -0.00698153 0.000844203 -0.00928201 -0.00744375 -0.000737545 -0.00976193 0.00594201 0.0101649 0.0112789 0.000647948 0.0144916 0.00266838 0.00563023 0.00988611
internal_weight=0 1841 1373 966 468 231 199 131 407 895 186 709 216 155 157 59 493 112 381 333 96 51 88 71 237 55 182 48 385 204
internal_count=67000 1841 1373 966 468 231 199 131 407 895 186 709 216 155 157 59 493 112 381 333 96 51 88 71 237 55 182 48 385 204
is_linear=0
shrinkage=0.1


Tree=28
num_leaves=31
num_cat=0
split_feature=37 113 53 104 110 95 103 55 113 10 124 119 102 92 98 99 77 52 102 39 60 121 121 82 2 44 123 102 13 26
split_gain=0.500538 0.976296 1.13908 1.06369 1.26646 1.10449 1.11445 1.28746 1.08345 0.984055 0.97295 1.18677 1.08096 0.988839 0.983495 0.98025 1.09724 1.73341 0.983665 0.957324 1.15555 0.943394 0.936062 0.917357 0.962169 0.873981 0.873973 1.10154 0.88425 0.882556
threshold=0.95627385371438212 0.095570626804738226 0.11710819795342921 0.82569978866792859 0.26129556958482264 0.2977915058243899 0.84805927374580825 0.7706933602968945 0.14350504498186303 0.40069267065205971 0.8333593035215795 0.060706542618163779 0.91871771996188745 0.073656048219371065 0.16954081368483168 0.20893928392846875 0.37694999024100306 0.16214373804673385 0.35460101488877804 0.59734716486675132 0.46419531633390448 0.42641224758194174 0.67505278213262943 0.67014803744534579 0.82431498779327017 0.25650255069444633 0.56246282540454928 0.40329420845074448 0.7655923009786082 0.4512633746362813
decision_type=2 2 2 2 2 2 2 2 2 2 2 2 2 2 2 2 2 2 2 2 2 2 2 2 2 2 2 2 2 2
left_child=-1 2 -2 8 -5 19 7 -7 9 -3 12 -12 13 14 -10 18 17 -17 -15 20 -6 -14 -11 -19 25 -25 -18 28 -28 -29
right_child=1 3 -4 4 5 6 -8 -9 10 22 11 -13 21 15 -16 16 26 23 -20 -21 -22 -23 -24 24 -26 -27 27 29 -30 -31
leaf_value=-5.8063407160495128e-05 -0.013858662964776159 0.005363157392275753 0.0089448387409753801 -0.013621957388240844 0.015457603161560435 0.0021820760896366278 -0.020965302312480553 -0.016134192289936605 0.011045096539670514 -0.022202489475774415 -0.013560926527358019 0.0086573789372082609 0.0002350775345579767 -0.011624387661275385 -0.012891444113003983 0.012601349428740305 0.0084024797643153498 -0.00014405671009666709 0.00035069866757344534 0.020751874730922285 -0.011364988840392068 0.016790191495578876 0.0028830758872486297 0.00017582193686394021 0.0060083042519787945 -0.019093822928019959 0.0029437858369049988 0.0031295904317065271 0.020575478078319213 -0.011933385107166522
leaf_weight=64107 24 36 251 100 29 177 35 49 21 51 26 319 61 108 94 76 359 249 188 37 36 79 21 32 30 89 123 74 37 82
leaf_count=64107 24 36 251 100 29 177 35 49 21 51 26 319 61 108 94 76 359 249 188 37 36 79 21 32 30 89 123 74 37 82
internal_value=0 0.00128665 0.00695471 0.000691262 -0.00365741 -0.000912351 -0.00436066 -0.00178915 0.00162557 -0.00813619 0.0021406 0.00698296 0.00115904 0.000404563 -0.00852042 0.00111387 0.00243378 -0.00124295 -0.00401859 0.00791128 0.000602014 0.00957689 -0.0148859 -0.00387336 -0.010023 -0.0139977 0.00502655 0.00119124 0.00702111 -0.00478813
internal_weight=0 2893 275 2618 463 363 261 226 2155 108 2047 345 1702 1562 115 1447 1151 476 296 102 65 140 72 400 151 121 675 316 160 156
internal_count=67000 2893 275 2618 463 363 261 226 2155 108 2047 345 1702 1562 115 1447 1151 476 296 102 65 140 72 400 151 121 675 316 160 156
is_linear=0
shrinkage=0.1


Tree=29
num_leaves=31
num_cat=0
split_feature=27 26 60 58 86 90 107 91 111 18 38 76 15 109 102 93 17 20 16 82 77 70 89 97 85 112 80 122 115 36
split_gain=0.499351 1.01699 1.05647 0.922677 1.37849 1.2538 1.05213 0.91062 1.14375 0.89474 0.878737 0.83404 0.825477 0.783839 0.764623 0.920078 0.743582 0.739466 0.835794 0.735643 0.729997 0.714069 0.83321 0.684351 0.675888 0.673038 0.764657 0.702372 0.671975 0.655275
threshold=0.023338801182249295 0.027370516916128521 0.067932769045042987 0.41541200437101222 0.61884243054053734 0.72620727005170715 0.81265244345682863 0.035972609853238031 0.4452771479709271 0.78728681791029087 0.16792395004487923 0.70719507004967619 0.49109780592873592 0.68786084289774962 0.14595429489509468 0.42401754049310847 0.39963801977619312 0.090457478588937615 0.28016708036526822 0.36905414068775305 0.54062058918554878 0.66492538005320112 0.62374497005521468 0.3746648713841238 0.51139835421186486 0.76572744970086815 0.5910878339155442 0.68951798889016092 0.65238148924976447 0.30268077503425478
decision_type=2 2 2 2 2 2 2 2 2 2 2 2 2 2 2 2 2 2 2 2 2 2 2 2 2 2 2 2 2 2
left_child=1 23 13 4 6 12 10 -5 14 17 -4 24 -6 -3 -9 20 -11 -10 21 -7 29 22 -19 -1 -8 26 28 -27 -12 -16
right_child=-2 2 3 7 5 19 11 8 9 16 25 -13 -14 -15 15 -17 -18 18 -20 -21 -22 -23 -24 -25 -26 27 -28 -29 -30 -31
leaf_value=-0.0014826030573911139 -4.2481655760953109e-05 0.017680748299577494 0.012234685965813697 0.018413178545888514 -0.020399937735920824 -0.0070682910084724423 0.01948593830689788 -0.0029275153160522711 0.010346980217414406 -0.0022165415833066953 -0.0050517266132880621 0.029542047919874845 -0.0056095408602291116 -0.0035607014337311624 -0.01800546313946446 0.014452618415816687 0.016113158069849719 0.0079931318227733899 -0.0073889818705227305 0.013291690912511615 0.012666773016811635 0.017616309108281578 -0.015909676093608143 -0.024956152612424416 -0.0051777871586382394 -0.0029794809133865132 0.0023766268913995624 0.017186512053012849 -0.020830076940857423 0.002610414473596832
leaf_weight=27 65416 71 48 40 74 35 20 61 39 38 79 22 77 23 21 160 53 35 231 36 49 27 25 23 25 39 76 31 41 58
leaf_count=27 65416 71 48 40 74 35 20 61 39 38 79 22 77 23 21 160 53 35 231 36 49 27 25 23 25 39 76 31 41 58
internal_value=0 0.00175441 0.00221187 0.00154136 -0.00144091 -0.00770459 0.00220879 0.00368988 0.00295095 -0.000392624 -0.000218627 0.0135851 -0.0128578 0.0124834 0.00724298 0.00939715 0.008459 -0.00264892 -0.00424276 0.00325508 0.00307782 0.00411101 -0.00196637 -0.0122804 0.00578387 -0.00246584 -0.00547192 0.00595117 -0.0104427 -0.00286976
internal_weight=0 1584 1534 1440 603 222 381 837 797 448 314 67 151 94 349 288 91 357 318 71 128 87 60 50 45 266 196 70 120 79
internal_count=67000 1584 1534 1440 603 222 381 837 797 448 314 67 151 94 349 288 91 357 318 71 128 87 60 50 45 266 196 70 120 79
is_linear=0
shrinkage=0.1


Tree=30
num_leaves=31
num_cat=0
split_feature=122 11 18 36 63 94 2 46 94 86 27 106 95 67 10 28 15 94 103 104 115 105 73 33 65 33 111 17 44 94
split_gain=0.494577 1.48269 1.09849 0.98957 1.21125 1.04478 0.995034 0.959602 0.938908 0.939114 0.873916 1.27618 0.86485 0.852686 1.09288 0.841644 1.11639 0.897594 0.883915 1.23031 1.14716 1.16167 0.902427 0.901144 0.879474 1.12057 0.818704 0.850401 0.81524 0.930244
threshold=0.93788363336804148 0.47934487020708322 0.044495314621262612 0.25611549738299172 0.97232464341629987 0.86161048410355245 0.66811226653262235 0.42859615943510854 0.8892879989971455 0.44787451287250613 0.26020820428078723 0.32739480408751248 0.01589867059434447 0.10902064496065296 0.38098225339848396 0.11231929816705745 0.21986639500970503 0.25657665098860227 0.31780968663110548 0.62094267198812714 0.49860362810008901 0.83315661517978834 0.87032445798124924 0.26168339940029905 0.73210133238452169 0.44417513985225693 0.089862063050215837 0.10668208991654783 0.03167561813446574 0.019321561344620767
decision_type=2 2 2 2 2 2 2 2 2 2 2 2 2 2 2 2 2 2 2 2 2 2 2 2 2 2 2 2 2 2
left_child=-1 3 -3 6 5 12 10 8 -7 -10 11 -2 -5 14 -14 16 -15 -18 26 20 24 23 -21 -22 -20 -26 -17 -28 -4 -30
right_child=1 2 28 4 -6 7 -8 -9 9 -11 -12 -13 13 15 -16 18 17 -19 19 22 21 -23 -24 -25 25 -27 27 -29 29 -31
leaf_value=7.0334028226096815e-05 0.018059301660396161 -0.010379481786752449 0.012329671174666147 0.01867951431001226 -0.018005873794159431 -0.020460758246481421 -0.012855816410920982 -0.015412339791098774 -0.0073302967743457932 0.014758923329198018 -0.0068020225061198262 -0.0045770380399048783 0.0027449167171620173 -0.024408997299856156 -0.015662062966909546 0.025021206649641199 -0.015440098794779795 0.0044595827225267009 0.012642497422971896 -0.0078143230100946922 0.0068239563206831614 0.014065457492865422 0.01086140125989914 -0.0095470379029673758 0.015035271067172291 -0.015956510894881964 -0.013049353852868081 0.0062907825884561388 -0.01404316284262189 0.0011743507521275775
leaf_weight=62792 40 85 64 24 44 20 175 92 38 39 261 66 55 29 78 21 34 68 140 240 45 37 29 133 20 28 25 251 41 1986
leaf_count=62792 40 85 64 24 44 20 175 92 38 39 261 66 55 29 78 21 34 68 140 240 45 37 29 133 20 28 25 251 41 1986
internal_value=0 -0.00104953 0.0007644 -0.002992 -0.00166103 -0.00116368 -0.00665094 -0.00809579 -0.00115638 0.00385775 -0.00369221 0.00396498 -0.000121382 -0.000487336 -0.00805015 0.000427077 -0.00709597 -0.00217364 0.00144413 -0.00056375 0.00293205 -0.00205701 -0.00580095 -0.0054083 0.00863762 -0.00304327 0.0059872 0.00453896 0.0012174 0.000866547
internal_weight=0 4208 2176 2032 1490 1446 542 189 97 77 367 106 1257 1233 133 1100 131 102 969 672 403 215 269 178 188 48 297 276 2091 2027
internal_count=67000 4208 2176 2032 1490 1446 542 189 97 77 367 106 1257 1233 133 1100 131 102 969 672 403 215 269 178 188 48 297 276 2091 2027
is_linear=0
shrinkage=0.1


Tree=31
num_leaves=31
num_cat=0
split_feature=60 47 99 118 9 26 37 65 69 19 67 109 110 17 3 57 14 42 119 110 69 118 106 87 104 78 124 113 22 108
split_gain=0.488644 1.21443 1.05897 1.07351 1.2392 1.13426 1.16413 1.11114 1.13102 1.05078 1.2585 1.12794 1.19499 1.19269 1.1307 1.04898 1.03739 1.0143 1.00607 1.19333 0.971947 0.956804 0.944286 0.94024 1.10246 1.10936 1.09419 1.25791 1.03443 1.1255
threshold=0.49543598138990491 0.11536555740545325 0.96969320889668609 0.39911784607437711 0.4856687367366036 0.68435911569379104 0.40442050299589782 0.75551175017606254 0.49765908441998924 0.97240224015410426 0.65054775577380919 0.23226852173267129 0.13177981788248219 0.75563769502879941 0.71653812304640085 0.3135483645448105 0.018999584573437481 0.69209594972921262 0.15317035766084 0.81836294779707663 0.94484555473523957 0.87685074809116703 0.74957825093474539 0.31498439994082827 0.53445355947341755 0.032913827726145935 0.21430790066826902 0.10361901430950278 0.15046098936015875 0.090276389860314346
decision_type=2 2 2 2 2 2 2 2 2 2 2 2 2 2 2 2 2 2 2 2 2 2 2 2 2 2 2 2 2 2
left_child=2 16 3 -1 5 -5 18 -8 15 -3 11 13 -13 -11 -14 -9 -2 -16 22 -20 -18 -22 -7 24 25 -6 27 -26 -29 -30
right_child=1 9 -4 4 23 6 7 8 -10 10 -12 12 14 -15 17 -17 20 -19 19 -21 21 -23 -24 -25 26 -27 -28 28 29 -31
leaf_value=0.00087829639820045198 0.013741662699395597 -0.00038243995240135726 0.003380429969963808 -0.00022029960900276361 -0.0191588461981155 0.015136198183419568 -0.00096324467500030525 -0.010033882923475276 0.0098933826791563987 -0.014806792486486682 -0.0096579838153745129 0.013345425033613162 0.0024674966649069637 0.0063920933636836715 -0.016515323679009774 0.0046308397846043011 0.00078422264920416081 0.0044417172067743897 0.0016353159897604963 0.010505218023774765 0.010046700480404756 -0.0097151848919955763 -0.0010317747694595406 -0.0003988713707594195 -0.01326372214193855 -0.0037452585259177191 -0.0018991580438410855 -0.0058324836370236477 -0.010919078501562278 0.011918416435212315
leaf_weight=12846 67 29067 1061 6471 48 146 1309 73 221 101 266 68 259 36 72 147 3542 34 822 186 196 28 48 6666 35 1717 1177 53 24 214
leaf_count=12846 67 29067 1061 6471 48 146 1309 73 221 101 266 68 259 36 72 147 3542 34 822 186 196 28 48 6666 35 1717 1177 53 24 214
internal_value=0 -0.000268163 0.000271968 0.000169553 -0.000300794 0.000520727 0.00214511 0.00049932 0.00484058 -0.000482971 -0.00397836 -0.00132787 0.00117433 -0.00923628 -0.00109316 -0.000235182 0.00140765 -0.00979325 0.00454123 0.00327202 0.00118822 0.00757646 0.0111359 -0.00108006 -0.00246953 -0.00416444 -0.00047916 0.00464764 0.00680193 0.00961548
internal_weight=0 33736 33264 32203 19357 9423 2952 1750 441 29903 836 570 433 137 365 220 3833 106 1202 1008 3766 224 194 9934 3268 1765 1503 326 291 238
